{"learner":{"attributes":{"best_iteration":"299","best_ntree_limit":"300","scikit_learn":"{\"n_estimators\": 300, \"objective\": \"reg:squarederror\", \"max_depth\": null, \"max_leaves\": null, \"max_bin\": null, \"grow_policy\": null, \"learning_rate\": 1, \"verbosity\": null, \"booster\": null, \"tree_method\": null, \"gamma\": null, \"min_child_weight\": null, \"max_delta_step\": null, \"subsample\": null, \"sampling_method\": null, \"colsample_bytree\": null, \"colsample_bylevel\": null, \"colsample_bynode\": null, \"reg_alpha\": null, \"reg_lambda\": null, \"scale_pos_weight\": null, \"base_score\": null, \"missing\": NaN, \"num_parallel_tree\": null, \"random_state\": null, \"n_jobs\": null, \"monotone_constraints\": null, \"interaction_constraints\": null, \"importance_type\": null, \"gpu_id\": null, \"validate_parameters\": null, \"predictor\": null, \"enable_categorical\": false, \"feature_types\": null, \"max_cat_to_onehot\": null, \"max_cat_threshold\": null, \"eval_metric\": \"rmse\", \"early_stopping_rounds\": null, \"callbacks\": null, \"kwargs\": {\"nthread\": -1, \"seed\": 500}, \"_estimator_type\": \"regressor\"}"},"feature_names":["andy","brandon","brian","cade","darwin","josh","lindsey","sequential","sophie","steve","steven","sun","susi","susu","tang","yang","andy_acs","brandon_acs","brian_acs","cade_acs","darwin_acs","josh_acs","lindsey_acs","sequential_acs","sophie_acs","steve_acs","steven_acs","sun_acs","susi_acs","susu_acs","tang_acs","yang_acs"],"feature_types":["int","int","int","int","int","int","int","int","int","int","int","int","int","int","int","int","int","int","int","int","int","int","int","int","int","int","int","int","int","int","int","int"],"gradient_booster":{"model":{"gbtree_model_param":{"num_parallel_tree":"1","num_trees":"300","size_leaf_vector":"0"},"tree_info":[0,0,0,0,0,0,0,0,0,0,0,0,0,0,0,0,0,0,0,0,0,0,0,0,0,0,0,0,0,0,0,0,0,0,0,0,0,0,0,0,0,0,0,0,0,0,0,0,0,0,0,0,0,0,0,0,0,0,0,0,0,0,0,0,0,0,0,0,0,0,0,0,0,0,0,0,0,0,0,0,0,0,0,0,0,0,0,0,0,0,0,0,0,0,0,0,0,0,0,0,0,0,0,0,0,0,0,0,0,0,0,0,0,0,0,0,0,0,0,0,0,0,0,0,0,0,0,0,0,0,0,0,0,0,0,0,0,0,0,0,0,0,0,0,0,0,0,0,0,0,0,0,0,0,0,0,0,0,0,0,0,0,0,0,0,0,0,0,0,0,0,0,0,0,0,0,0,0,0,0,0,0,0,0,0,0,0,0,0,0,0,0,0,0,0,0,0,0,0,0,0,0,0,0,0,0,0,0,0,0,0,0,0,0,0,0,0,0,0,0,0,0,0,0,0,0,0,0,0,0,0,0,0,0,0,0,0,0,0,0,0,0,0,0,0,0,0,0,0,0,0,0,0,0,0,0,0,0,0,0,0,0,0,0,0,0,0,0,0,0,0,0,0,0,0,0,0,0,0,0,0,0,0,0,0,0,0,0,0,0,0,0,0,0,0,0,0,0,0,0],"trees":[{"base_weights":[-5.1829267E-1,-1.0592105E0,5.428571E0,-1.3175676E0,5.6666665E0,6.2E0,2.3333333E0,1.4117647E0,-2.0948277E0,6.875E0,1.75E0,2.6785715E0,-3.375E0,-3.3026316E0,1.904762E-1,3.6923077E0,-5.25E0,-4.55E0,1.2222222E0,1.4722222E0,-5.625E0,4.85E0,-1.25E-1,-5.6842103E0,-2.375E0,2.8125E0,-5.75E0,4.3333335E0,-1.25E0],"categories":[],"categories_nodes":[],"categories_segments":[],"categories_sizes":[],"default_left":[1,1,1,1,0,1,0,1,1,0,0,1,0,1,1,1,0,1,1,1,0,0,0,0,0,0,0,0,0],"id":0,"left_children":[1,3,5,7,-1,9,-1,11,13,-1,-1,15,-1,17,19,21,-1,23,25,27,-1,-1,-1,-1,-1,-1,-1,-1,-1],"loss_changes":[2.6952475E2,1.3952972E2,2.2476044E0,1.5994106E2,0E0,2.987503E0,0E0,1.1212657E2,1.6072061E2,0E0,0E0,1.3190935E2,0E0,2.2003922E2,1.6481448E2,5.8056732E1,0E0,6.0507202E1,1.1596181E2,1.4561111E2,0E0,0E0,0E0,0E0,0E0,0E0,0E0,0E0,0E0],"parents":[2147483647,0,0,1,1,2,2,3,3,5,5,7,7,8,8,11,11,13,13,14,14,15,15,17,17,18,18,19,19],"right_children":[2,4,6,8,-1,10,-1,12,14,-1,-1,16,-1,18,20,22,-1,24,26,28,-1,-1,-1,-1,-1,-1,-1,-1,-1],"split_conditions":[3.3E2,3.02E2,9.3E1,-5E-1,5.6666665E0,0E0,2.3333333E0,2.745E2,2.22E2,6.875E0,1.75E0,3.885E2,-3.375E0,1.46E2,1.495E2,2.69E2,-5.25E0,5E-1,5E-1,5E-1,-5.625E0,4.85E0,-1.25E-1,-5.6842103E0,-2.375E0,2.8125E0,-5.75E0,4.3333335E0,-1.25E0],"split_indices":[30,24,18,11,0,6,0,20,21,0,0,27,0,28,29,19,0,10,10,0,0,0,0,0,0,0,0,0,0],"split_type":[0,0,0,0,0,0,0,0,0,0,0,0,0,0,0,0,0,0,0,0,0,0,0,0,0,0,0,0,0],"sum_hessian":[8.1E1,7.5E1,6E0,7.3E1,2E0,4E0,2E0,1.6E1,5.7E1,3E0,1E0,1.3E1,3E0,3.7E1,2E1,1.2E1,1E0,2.9E1,8E0,1.7E1,3E0,9E0,3E0,1.8E1,1.1E1,7E0,1E0,8E0,9E0],"tree_param":{"num_deleted":"0","num_feature":"32","num_nodes":"29","size_leaf_vector":"0"}},{"base_weights":[-9.919283E-3,3.826814E-1,-2.8749123E0,-2.7439585E-1,1.6552455E0,-4.3680553E0,-5.081579E-1,-4.629581E-2,-2.8289475E0,2.1451945E0,-2.652778E0,-1.1875E0,-4.766667E0,1.773026E-1,-1.625E0,5.676497E-1,-1.0328583E0,3.2610323E0,6.3145924E-1,-1.7499995E-1,3.530701E-1,-6.0957605E-1,1.3209307E0,6.7100877E-1,-1.5676066E0,3.6007676E0,-4.0789485E-1,1.9405701E0,-7.8289485E-1,4.375E-1,9.210515E-2,7.708333E-1,-1.7057018E0,7.045614E-1,3.3020833E0,1.0427084E0,-4.0789485E-1,-2.4255702E0,4.6184206E-1,8.125E-1,3.7803829E0,2.491842E0,-4.0789485E-1,-1.4391448E0,3.530701E-1],"categories":[],"categories_nodes":[],"categories_segments":[],"categories_sizes":[],"default_left":[1,1,1,1,1,1,1,1,0,1,0,0,0,1,0,1,1,1,1,0,1,1,1,1,1,1,0,1,1,0,0,0,0,0,0,0,0,0,0,0,0,0,0,0,0],"id":1,"left_children":[1,3,5,7,9,11,13,15,-1,17,-1,-1,-1,19,-1,21,23,25,27,-1,29,31,33,35,37,39,-1,41,43,-1,-1,-1,-1,-1,-1,-1,-1,-1,-1,-1,-1,-1,-1,-1,-1],"loss_changes":[9.3333626E1,6.149482E1,3.3119377E1,2.8421005E1,5.8458504E1,1.9464035E0,4.1158724E0,2.8448298E1,0E0,3.678971E1,0E0,0E0,0E0,3.094806E-1,0E0,2.6521885E1,1.7452398E1,1.767276E1,2.188627E1,0E0,2.5803745E-2,1.947204E1,1.9653671E1,2.430456E0,2.5496937E1,2.9382324E0,0E0,8.7842655E0,4.980981E0,0E0,0E0,0E0,0E0,0E0,0E0,0E0,0E0,0E0,0E0,0E0,0E0,0E0,0E0,0E0,0E0],"parents":[2147483647,0,0,1,1,2,2,3,3,4,4,5,5,6,6,7,7,9,9,13,13,15,15,16,16,17,17,18,18,20,20,21,21,22,22,23,23,24,24,25,25,27,27,28,28],"right_children":[2,4,6,8,10,12,14,16,-1,18,-1,-1,-1,20,-1,22,24,26,28,-1,30,32,34,36,38,40,-1,42,44,-1,-1,-1,-1,-1,-1,-1,-1,-1,-1,-1,-1,-1,-1,-1,-1],"split_conditions":[3.83E2,2.52E2,0E0,2.375E2,3.26E2,-5E-1,5E-1,3.12E2,-2.8289475E0,5E-1,-2.652778E0,-1.1875E0,-4.766667E0,0E0,-1.625E0,1.615E2,-5E-1,5E-1,1.455E2,-1.7499995E-1,0E0,2.35E2,2.375E2,5E-1,5E-1,8.3E1,-4.0789485E-1,5E-1,-5E-1,4.375E-1,9.210515E-2,7.708333E-1,-1.7057018E0,7.045614E-1,3.3020833E0,1.0427084E0,-4.0789485E-1,-2.4255702E0,4.6184206E-1,8.125E-1,3.7803829E0,2.491842E0,-4.0789485E-1,-1.4391448E0,3.530701E-1],"split_indices":[16,26,0,26,19,1,1,23,0,5,0,0,0,2,0,25,3,15,24,0,3,22,22,2,6,16,0,6,6,0,0,0,0,0,0,0,0,0,0,0,0,0,0,0,0],"split_type":[0,0,0,0,0,0,0,0,0,0,0,0,0,0,0,0,0,0,0,0,0,0,0,0,0,0,0,0,0,0,0,0,0,0,0,0,0,0,0,0,0,0,0,0,0],"sum_hessian":[8.1E1,7.2E1,9E0,4.8E1,2.4E1,5E0,4E0,4.5E1,3E0,2.2E1,2E0,1E0,4E0,3E0,1E0,2.8E1,1.7E1,1.2E1,1E1,1E0,2E0,1.1E1,1.7E1,4E0,1.3E1,1.1E1,1E0,5E0,5E0,1E0,1E0,5E0,6E0,1.4E1,3E0,3E0,1E0,9E0,4E0,1E0,1E1,4E0,1E0,3E0,2E0],"tree_param":{"num_deleted":"0","num_feature":"32","num_nodes":"45","size_leaf_vector":"0"}},{"base_weights":[-7.049471E-2,1.2961678E-1,-1.1425955E0,5.914974E-1,-4.0617353E-1,-1.6266158E0,3.531041E-1,8.7994456E-1,-1.093545E0,8.461256E-1,-6.6001713E-1,-1.7985107E0,-3.9780736E-2,-1.8832254E-1,5.963538E-1,2.205895E0,6.209895E-1,-1.327368E0,3.7785172E-2,1.5463449E0,1.0942972E-1,-1.1178253E0,-1.2236429E-1,-9.3712926E-1,-2.30019E0,-2.2821616E-2,1.2234013E0,-5.5043936E-2,1.8260224E-1,-1.2920758E0,9.868304E-3,-7.2931343E-1,1.1160069E0,5.331578E-1,-9.456504E-1,1.3228112E0,3.848245E-1,2.2785091E-1,4.6052456E-2,-1.7360432E0,-6.63526E-1,-2.0394754E-1,2.1875E-1,-1.0016747E0,2.4008775E-1],"categories":[],"categories_nodes":[],"categories_segments":[],"categories_sizes":[],"default_left":[1,1,1,1,1,1,1,1,1,1,1,1,0,0,0,0,1,0,0,0,1,1,1,0,0,1,1,0,1,1,1,1,0,0,0,0,0,0,0,0,0,0,0,0,0],"id":2,"left_children":[1,3,5,7,9,11,13,15,17,19,21,23,-1,-1,-1,-1,25,-1,-1,-1,27,29,31,-1,-1,33,35,-1,37,39,41,43,-1,-1,-1,-1,-1,-1,-1,-1,-1,-1,-1,-1,-1],"loss_changes":[1.7740355E1,1.7563232E1,9.985701E0,1.9431995E1,1.1048765E1,2.6561394E0,6.391144E-1,9.961092E0,1.637341E0,2.9258757E0,6.75519E0,1.7336617E0,0E0,0E0,0E0,0E0,1.1275264E1,0E0,0E0,0E0,5.819096E-2,2.960266E0,1.1336714E1,0E0,0E0,8.200289E0,7.4139214E-1,0E0,8.042999E-3,2.4758148E0,1.7860018E-1,2.880763E0,0E0,0E0,0E0,0E0,0E0,0E0,0E0,0E0,0E0,0E0,0E0,0E0,0E0],"parents":[2147483647,0,0,1,1,2,2,3,3,4,4,5,5,6,6,7,7,8,8,9,9,10,10,11,11,16,16,20,20,21,21,22,22,25,25,26,26,28,28,29,29,30,30,31,31],"right_children":[2,4,6,8,10,12,14,16,18,20,22,24,-1,-1,-1,-1,26,-1,-1,-1,28,30,32,-1,-1,34,36,-1,38,40,42,44,-1,-1,-1,-1,-1,-1,-1,-1,-1,-1,-1,-1,-1],"split_conditions":[2.885E2,3.03E2,2.875E2,2.3E1,1.505E2,1.675E2,0E0,6.7E1,5E-1,9.8E1,1.835E2,2.205E2,-3.9780736E-2,-1.8832254E-1,5.963538E-1,2.205895E0,2.11E2,-1.327368E0,3.7785172E-2,1.5463449E0,0E0,5E-1,5E-1,-9.3712926E-1,-2.30019E0,2.02E2,3.165E2,-5.5043936E-2,0E0,5E-1,0E0,2.375E2,1.1160069E0,5.331578E-1,-9.456504E-1,1.3228112E0,3.848245E-1,2.2785091E-1,4.6052456E-2,-1.7360432E0,-6.63526E-1,-2.0394754E-1,2.1875E-1,-1.0016747E0,2.4008775E-1],"split_indices":[19,16,26,17,20,18,4,24,7,18,26,20,0,0,0,0,20,0,0,0,0,12,6,0,0,21,20,0,3,14,0,25,0,0,0,0,0,0,0,0,0,0,0,0,0],"split_type":[0,0,0,0,0,0,0,0,0,0,0,0,0,0,0,0,0,0,0,0,0,0,0,0,0,0,0,0,0,0,0,0,0,0,0,0,0,0,0,0,0,0,0,0,0],"sum_hessian":[8.1E1,6.9E1,1.2E1,3.7E1,3.2E1,9E0,3E0,3.2E1,5E0,5E0,2.7E1,8E0,1E0,1E0,2E0,4E0,2.8E1,4E0,1E0,2E0,3E0,1.4E1,1.3E1,4E0,4E0,1.4E1,1.4E1,1E0,2E0,1.2E1,2E0,9E0,4E0,9E0,5E0,1.2E1,2E0,1E0,1E0,6E0,6E0,1E0,1E0,7E0,2E0],"tree_param":{"num_deleted":"0","num_feature":"32","num_nodes":"45","size_leaf_vector":"0"}},{"base_weights":[-1.1253136E-2,5.3419393E-2,-6.1615145E-1,9.208222E-2,-6.5586627E-1,-9.440201E-1,-3.495252E-1,-1.3685763E-1,1.7673722E-1,-1.9890368E-2,-8.6122817E-1,-3.9368868E-1,-6.435394E-2,1.6540787E-1,-3.5215196E-1,9.4244115E-2,5.6956524E-1,-1.5133944E-1,4.490736E-1,-7.239298E-2,-6.1984545E-1,-2.1714984E-2,3.2761E-1,-2.881435E-1,8.557882E-1,-1.9862056E-1,1.8892527E-2,1.3540888E-1,4.9363756E-1,-3.6214817E-1,2.3546046E-1,-7.03025E-1,-1.0197377E-1,8.3214425E-2,-3.933607E-1,2.6082069E-2,5.881866E-1,-4.7052646E-1,3.8311243E-2,3.2540688E-1,1.0028594E0],"categories":[],"categories_nodes":[],"categories_segments":[],"categories_sizes":[],"default_left":[1,1,1,1,1,0,1,1,1,0,0,0,0,1,1,1,1,1,1,1,1,1,1,1,1,0,0,0,0,0,0,0,0,0,0,0,0,0,0,0,0],"id":3,"left_children":[1,3,5,7,9,-1,11,13,15,-1,-1,-1,-1,17,19,21,23,25,27,29,31,33,35,37,39,-1,-1,-1,-1,-1,-1,-1,-1,-1,-1,-1,-1,-1,-1,-1,-1],"loss_changes":[3.2407794E0,2.1171176E0,3.6938834E-1,1.4196126E0,5.052906E-1,0E0,5.022949E-2,1.3597696E0,1.6638186E0,0E0,0E0,0E0,0E0,8.7661576E-1,8.538034E-1,1.2248545E0,2.4560535E0,4.3996245E-2,3.047824E-3,7.096865E-1,1.8676782E-1,1.2416267E0,1.1632259E0,1.9664581E-1,2.1968889E-1,0E0,0E0,0E0,0E0,0E0,0E0,0E0,0E0,0E0,0E0,0E0,0E0,0E0,0E0,0E0,0E0],"parents":[2147483647,0,0,1,1,2,2,3,3,4,4,6,6,7,7,8,8,13,13,14,14,15,15,16,16,17,17,18,18,19,19,20,20,21,21,22,22,23,23,24,24],"right_children":[2,4,6,8,10,-1,12,14,16,-1,-1,-1,-1,18,20,22,24,26,28,30,32,34,36,38,40,-1,-1,-1,-1,-1,-1,-1,-1,-1,-1,-1,-1,-1,-1,-1,-1],"split_conditions":[3.01E2,3.445E2,5.9E1,1.305E2,-5E-1,-9.440201E-1,5E-1,1.37E2,3.5E2,-1.9890368E-2,-8.6122817E-1,-3.9368868E-1,-6.435394E-2,2.855E2,1.875E2,2.365E2,1.16E2,0E0,-5E-1,0E0,5E-1,2.275E2,2.095E2,-5E-1,2.105E2,-1.9862056E-1,1.8892527E-2,1.3540888E-1,4.9363756E-1,-3.6214817E-1,2.3546046E-1,-7.03025E-1,-1.0197377E-1,8.3214425E-2,-3.933607E-1,2.6082069E-2,5.881866E-1,-4.7052646E-1,3.8311243E-2,3.2540688E-1,1.0028594E0],"split_indices":[27,19,18,21,2,0,0,19,23,0,0,0,0,16,22,21,20,0,3,3,13,21,20,0,16,0,0,0,0,0,0,0,0,0,0,0,0,0,0,0,0],"split_type":[0,0,0,0,0,0,0,0,0,0,0,0,0,0,0,0,0,0,0,0,0,0,0,0,0,0,0,0,0,0,0,0,0,0,0,0,0,0,0,0,0],"sum_hessian":[8.1E1,7.4E1,7E0,7.1E1,3E0,2E0,5E0,1.9E1,5.2E1,1E0,2E0,4E0,1E0,8E0,1.1E1,4.4E1,8E0,4E0,4E0,6E0,5E0,3E1,1.4E1,2E0,6E0,3E0,1E0,1E0,3E0,3E0,3E0,4E0,1E0,2.4E1,6E0,7E0,7E0,1E0,1E0,2E0,4E0],"tree_param":{"num_deleted":"0","num_feature":"32","num_nodes":"41","size_leaf_vector":"0"}},{"base_weights":[-1.9089967E-2,8.712198E-3,-2.7734903E-1,-2.2106662E-2,3.1125352E-1,5.2748084E-2,-3.320412E-1,-1.3324829E-3,-2.8774968E-1,5.931243E-1,-2.6228222E-1,-5.315749E-2,1.1793166E-1,1.8684769E-1,-4.5311093E-1,7.2299945E-1,3.681171E-2,1.9155502E-2,-4.1257882E-1,-7.2141856E-2,2.4299908E-1,1.957682E-1,-1.547316E-1,-1.2486482E-1,-5.209047E-1,-1.2117697E-2,-1.6676155E-1,3.2326373E-1,8.6944506E-2],"categories":[],"categories_nodes":[],"categories_segments":[],"categories_sizes":[],"default_left":[1,1,1,1,1,0,0,1,1,1,1,1,1,0,1,0,0,0,0,1,0,1,0,0,0,0,0,0,0],"id":4,"left_children":[1,3,5,7,9,-1,-1,11,13,15,17,19,21,-1,23,-1,-1,-1,-1,25,-1,27,-1,-1,-1,-1,-1,-1,-1],"loss_changes":[5.911895E-1,7.061792E-1,1.6194439E-1,3.8039416E-1,1.2872065E0,0E0,0E0,4.080252E-1,4.7706282E-1,3.3464098E-1,1.3480054E-1,2.7615827E-1,4.5475483E-1,0E0,2.3969471E-2,0E0,0E0,0E0,0E0,2.478758E-1,0E0,1.9388652E-1,0E0,0E0,0E0,0E0,0E0,0E0,0E0],"parents":[2147483647,0,0,1,1,2,2,3,3,4,4,7,7,8,8,9,9,10,10,11,11,12,12,14,14,19,19,21,21],"right_children":[2,4,6,8,10,-1,-1,12,14,16,18,20,22,-1,24,-1,-1,-1,-1,26,-1,28,-1,-1,-1,-1,-1,-1,-1],"split_conditions":[5E-1,2.8E2,-5E-1,3.065E2,3.315E2,5.2748084E-2,-3.320412E-1,1.74E2,-5E-1,5E-1,5E-1,2.2E2,2.75E2,1.8684769E-1,-5E-1,7.2299945E-1,3.681171E-2,1.9155502E-2,-4.1257882E-1,2E2,2.4299908E-1,-5E-1,-1.547316E-1,-1.2486482E-1,-5.209047E-1,-1.2117697E-2,-1.6676155E-1,3.2326373E-1,8.6944506E-2],"split_indices":[1,25,15,22,25,0,0,24,9,7,0,28,19,0,3,0,0,0,0,21,0,3,0,0,0,0,0,0,0],"split_type":[0,0,0,0,0,0,0,0,0,0,0,0,0,0,0,0,0,0,0,0,0,0,0,0,0,0,0,0,0],"sum_hessian":[8.1E1,7.4E1,7E0,6.8E1,6E0,1E0,6E0,6.4E1,4E0,4E0,2E0,4.5E1,1.9E1,1E0,3E0,3E0,1E0,1E0,1E0,4.3E1,2E0,1.5E1,4E0,1E0,2E0,2.7E1,1.6E1,6E0,9E0],"tree_param":{"num_deleted":"0","num_feature":"32","num_nodes":"29","size_leaf_vector":"0"}},{"base_weights":[-6.36989E-4,1.1223342E-2,-2.3471928E-1,-2.8251395E-2,1.0286342E-1,-1.0171633E-1,5.4422665E-2,1.5756297E-1,-8.749572E-2,-1.6734393E-1,7.000849E-2,-3.7215363E-2,1.023092E-1,-1.0614589E-2,2.565511E-1,-4.8977435E-3,-1.6846113E-1,9.654093E-2,-1.9855946E-1,2.3892574E-1,-1.12910464E-1,2.267232E-2,-8.0919206E-2,1.5968141E-1,-7.8794815E-2,1.3950328E-2,-5.6206226E-2,2.70636E-1,5.080861E-2,-1.3609131E-2,1.061821E-2,-2.6687258E-1,-8.5413136E-2,-1.925389E-2,-1.6893022E-1,3.9773464E-2,-1.9862652E-3,4.9859285E-4,-9.730248E-2,8.609947E-2,2.4344075E-1,-1.12659656E-1,-1.8665036E-2,-1.3893127E-2,2.2297645E-2,2.9184663E-1,1.16792046E-1,-1.6527414E-2,-3.8862824E-3],"categories":[],"categories_nodes":[],"categories_segments":[],"categories_sizes":[],"default_left":[1,1,0,1,1,1,1,1,1,1,1,1,1,1,1,1,0,0,1,0,1,1,1,1,1,1,0,1,0,1,0,0,0,0,0,0,0,0,0,0,0,0,0,0,0,0,0,0,0],"id":5,"left_children":[1,3,-1,5,7,9,11,13,15,17,19,21,23,25,27,29,-1,-1,31,-1,33,35,37,39,41,43,-1,45,-1,47,-1,-1,-1,-1,-1,-1,-1,-1,-1,-1,-1,-1,-1,-1,-1,-1,-1,-1,-1],"loss_changes":[2.302904E-1,2.88686E-1,0E0,3.456598E-1,2.6368752E-1,3.4981218E-1,1.2228963E-1,3.1902722E-1,3.9300386E-2,2.003898E-1,3.0506068E-1,2.8007844E-2,1.9960813E-1,9.743733E-3,2.102369E-2,6.8516657E-4,0E0,0E0,1.3179314E-1,0E0,2.2980519E-2,2.1874509E-3,8.051854E-3,6.532431E-2,8.078627E-3,1.7042928E-3,0E0,1.8091202E-3,0E0,2.0891894E-5,0E0,0E0,0E0,0E0,0E0,0E0,0E0,0E0,0E0,0E0,0E0,0E0,0E0,0E0,0E0,0E0,0E0,0E0,0E0],"parents":[2147483647,0,0,1,1,3,3,4,4,5,5,6,6,7,7,8,8,9,9,10,10,11,11,12,12,13,13,14,14,15,15,18,18,20,20,21,21,22,22,23,23,24,24,25,25,27,27,29,29],"right_children":[2,4,-1,6,8,10,12,14,16,18,20,22,24,26,28,30,-1,-1,32,-1,34,36,38,40,42,44,-1,46,-1,48,-1,-1,-1,-1,-1,-1,-1,-1,-1,-1,-1,-1,-1,-1,-1,-1,-1,-1,-1],"split_conditions":[3.295E2,2.625E2,-2.3471928E-1,8.25E1,3.29E2,5E-1,2.855E2,1.38E2,0E0,-5E-1,1.35E2,2.93E2,5E-1,5E-1,3.4E2,0E0,-1.6846113E-1,9.654093E-2,1.45E2,2.3892574E-1,0E0,0E0,-5E-1,5E-1,-5E-1,-5E-1,-5.6206226E-2,3.32E2,5.080861E-2,0E0,1.061821E-2,-2.6687258E-1,-8.5413136E-2,-1.925389E-2,-1.6893022E-1,3.9773464E-2,-1.9862652E-3,4.9859285E-4,-9.730248E-2,8.609947E-2,2.4344075E-1,-1.12659656E-1,-1.8665036E-2,-1.3893127E-2,2.2297645E-2,2.9184663E-1,1.16792046E-1,-1.6527414E-2,-3.8862824E-3],"split_indices":[20,19,0,18,19,9,16,21,3,15,19,23,11,12,26,2,0,0,24,0,8,2,10,5,14,2,0,23,0,0,0,0,0,0,0,0,0,0,0,0,0,0,0,0,0,0,0,0,0],"split_type":[0,0,0,0,0,0,0,0,0,0,0,0,0,0,0,0,0,0,0,0,0,0,0,0,0,0,0,0,0,0,0,0,0,0,0,0,0,0,0,0,0,0,0,0,0,0,0,0,0],"sum_hessian":[8.1E1,7.8E1,3E0,5.5E1,2.3E1,2.9E1,2.6E1,1.8E1,5E0,2.1E1,8E0,9E0,1.7E1,7E0,1.1E1,3E0,2E0,2E0,1.9E1,4E0,4E0,4E0,5E0,1.3E1,4E0,5E0,2E0,1E1,1E0,2E0,1E0,1.1E1,8E0,2E0,2E0,2E0,2E0,1E0,4E0,8E0,5E0,2E0,2E0,1E0,4E0,8E0,2E0,1E0,1E0],"tree_param":{"num_deleted":"0","num_feature":"32","num_nodes":"49","size_leaf_vector":"0"}},{"base_weights":[-8.1876863E-4,-5.6598354E-2,1.575359E-2,-1.670291E-2,-2.6380643E-1,1.0416535E-1,4.811591E-3,-3.521811E-2,2.3111304E-2,1.3898325E-1,1.14137335E-2,-2.8656455E-2,2.927893E-2,1.3957977E-2,-4.6449125E-2,-2.6503563E-2,3.8334988E-2,-1.4808178E-3,1.8601418E-2,4.614814E-2,-4.966501E-2,4.9621717E-4,7.036165E-2,-2.3026207E-2,-6.52668E-2,4.3578446E-2,8.680582E-3,-1.4081061E-2,-1.5360065E-1,2.4170794E-2,-3.3755526E-2,4.413349E-3,1.19271204E-1,-2.1332104E-3,-3.2939404E-2,-3.0334877E-2,4.2264104E-2,4.2867497E-2,-4.7866106E-3,-6.71587E-2,-1.4617665E-2,2.2965113E-2,-7.600379E-3,1.6048206E-1,-2.907594E-3],"categories":[],"categories_nodes":[],"categories_segments":[],"categories_sizes":[],"default_left":[1,1,1,1,0,1,1,1,1,0,1,1,1,0,1,0,1,0,0,0,1,1,1,1,0,0,0,1,0,1,1,1,1,0,0,0,0,0,0,0,0,0,0,0,0],"id":6,"left_children":[1,3,5,7,-1,9,11,13,15,-1,17,19,21,-1,23,-1,25,-1,-1,-1,27,29,31,33,-1,-1,-1,35,-1,37,39,41,43,-1,-1,-1,-1,-1,-1,-1,-1,-1,-1,-1,-1],"loss_changes":[7.669237E-2,1.5266016E-1,6.1412483E-2,1.3345795E-2,0E0,2.10196E-2,4.8333723E-2,7.2759055E-3,5.5479407E-3,0E0,3.0559118E-4,4.1580364E-2,4.0169135E-2,0E0,2.9048026E-3,0E0,3.9917184E-4,0E0,0E0,0E0,7.1805954E-2,1.7844705E-2,4.4630647E-2,1.1724315E-3,0E0,0E0,0E0,1.5935259E-2,0E0,7.243494E-3,4.7716843E-3,1.7346747E-3,4.0747367E-2,0E0,0E0,0E0,0E0,0E0,0E0,0E0,0E0,0E0,0E0,0E0,0E0],"parents":[2147483647,0,0,1,1,2,2,3,3,5,5,6,6,7,7,8,8,10,10,11,11,12,12,14,14,16,16,20,20,21,21,22,22,23,23,27,27,29,29,30,30,31,31,32,32],"right_children":[2,4,6,8,-1,10,12,14,16,-1,18,20,22,-1,24,-1,26,-1,-1,-1,28,30,32,34,-1,-1,-1,36,-1,38,40,42,44,-1,-1,-1,-1,-1,-1,-1,-1,-1,-1,-1,-1],"split_conditions":[1.45E2,5E-1,8.9E1,2.24E2,-2.6380643E-1,2.415E2,7.65E1,-5E-1,-5E-1,1.3898325E-1,0E0,2.215E2,2.29E2,1.3957977E-2,1.415E2,-2.6503563E-2,5E-1,-1.4808178E-3,1.8601418E-2,4.614814E-2,3.14E2,1.345E2,1.255E2,-5E-1,-6.52668E-2,4.3578446E-2,8.680582E-3,1.345E2,-1.5360065E-1,1.55E2,2.135E2,1.245E2,3.305E2,-2.1332104E-3,-3.2939404E-2,-3.0334877E-2,4.2264104E-2,4.2867497E-2,-4.7866106E-3,-6.71587E-2,-1.4617665E-2,2.2965113E-2,-7.600379E-3,1.6048206E-1,-2.907594E-3],"split_indices":[22,6,16,25,0,19,18,7,12,0,3,16,26,0,21,0,7,0,0,0,23,18,24,12,0,0,0,31,0,24,22,19,26,0,0,0,0,0,0,0,0,0,0,0,0],"split_type":[0,0,0,0,0,0,0,0,0,0,0,0,0,0,0,0,0,0,0,0,0,0,0,0,0,0,0,0,0,0,0,0,0,0,0,0,0,0,0,0,0,0,0,0,0],"sum_hessian":[8.1E1,1.8E1,6.3E1,1.6E1,2E0,6E0,5.7E1,1.1E1,5E0,4E0,2E0,2.4E1,3.3E1,2E0,9E0,1E0,4E0,1E0,1E0,5E0,1.9E1,2E1,1.3E1,5E0,4E0,3E0,1E0,1.5E1,4E0,1.2E1,8E0,6E0,7E0,2E0,3E0,1.2E1,3E0,7E0,5E0,2E0,6E0,2E0,4E0,5E0,2E0],"tree_param":{"num_deleted":"0","num_feature":"32","num_nodes":"45","size_leaf_vector":"0"}},{"base_weights":[-1.6415729E-3,1.395925E-2,-1.0910495E-2,4.691538E-2,-3.9682104E-3,-4.806239E-2,-3.0632778E-3,-8.446614E-3,6.0156558E-2,-3.4074035E-2,1.0345722E-2,-7.611736E-2,3.3420008E-2,-7.679179E-3,1.8668175E-2,-1.7010212E-2,4.340291E-3,9.352517E-2,3.726193E-2,4.2565665E-4,-4.795904E-2,1.8738598E-2,-1.7419338E-2,-2.5731534E-2,-1.0747385E-1,1.5809596E-2,-1.02167055E-2,2.4378443E-2,6.863296E-3,9.885073E-3,4.0177226E-2,-7.610321E-4,1.3995171E-3,2.2177707E-2,-9.545803E-3,-4.365444E-3,-2.0315489E-2,2.5763273E-2,3.9039452E-3,-2.1904498E-2,-3.6745227E-3,8.14271E-3,1.5125275E-3,4.3560363E-2,1.1630774E-2,2.734086E-2,6.306976E-3,-2.9083341E-2,-6.03745E-3,-1.0821128E-2,8.644766E-3],"categories":[],"categories_nodes":[],"categories_segments":[],"categories_sizes":[],"default_left":[1,1,1,1,1,1,1,1,1,1,1,1,0,1,1,0,0,0,1,1,0,1,1,0,0,1,1,0,1,0,1,0,0,1,0,0,0,0,0,1,1,0,0,0,0,0,0,0,0,0,0],"id":7,"left_children":[1,3,5,7,9,11,13,15,17,19,21,23,-1,25,27,-1,-1,-1,29,31,-1,33,35,-1,-1,37,39,-1,41,-1,43,-1,-1,45,-1,-1,-1,-1,-1,47,49,-1,-1,-1,-1,-1,-1,-1,-1,-1,-1],"loss_changes":[1.2009733E-2,1.850158E-2,1.5012801E-2,8.571761E-3,9.4021065E-3,2.311772E-2,4.557007E-3,4.0233502E-4,3.3907257E-3,3.3736136E-3,3.8218447E-3,8.29399E-3,0E0,2.3668476E-3,3.719558E-4,0E0,0E0,0E0,1.6152766E-4,4.532085E-6,0E0,1.3789823E-3,6.253808E-5,0E0,0E0,3.734416E-4,2.5192762E-3,0E0,1.5067315E-5,0E0,7.281918E-5,0E0,0E0,7.2893454E-4,0E0,0E0,0E0,0E0,0E0,1.1912952E-3,2.1184916E-3,0E0,0E0,0E0,0E0,0E0,0E0,0E0,0E0,0E0,0E0],"parents":[2147483647,0,0,1,1,2,2,3,3,4,4,5,5,6,6,7,7,8,8,9,9,10,10,11,11,13,13,14,14,18,18,19,19,21,21,22,22,25,25,26,26,28,28,30,30,33,33,39,39,40,40],"right_children":[2,4,6,8,10,12,14,16,18,20,22,24,-1,26,28,-1,-1,-1,30,32,-1,34,36,-1,-1,38,40,-1,42,-1,44,-1,-1,46,-1,-1,-1,-1,-1,48,50,-1,-1,-1,-1,-1,-1,-1,-1,-1,-1],"split_conditions":[1.77E2,1.82E2,2.07E2,1.2E2,2.185E2,5E-1,2.735E2,0E0,-5E-1,2.065E2,-5E-1,2E2,3.3420008E-2,-5E-1,5E-1,-1.7010212E-2,4.340291E-3,9.352517E-2,2.585E2,-5E-1,-4.795904E-2,3.67E2,-5E-1,-2.5731534E-2,-1.0747385E-1,0E0,-5E-1,2.4378443E-2,-5E-1,9.885073E-3,1.735E2,-7.610321E-4,1.3995171E-3,6.65E1,-9.545803E-3,-4.365444E-3,-2.0315489E-2,2.5763273E-2,3.9039452E-3,2.31E2,9.35E1,8.14271E-3,1.5125275E-3,4.3560363E-2,1.1630774E-2,2.734086E-2,6.306976E-3,-2.9083341E-2,-6.03745E-3,-1.0821128E-2,8.644766E-3],"split_indices":[19,20,19,21,20,14,22,0,7,20,6,21,0,1,7,0,0,0,16,1,0,27,1,0,0,0,0,0,0,0,20,0,0,29,0,0,0,0,0,26,28,0,0,0,0,0,0,0,0,0,0],"split_type":[0,0,0,0,0,0,0,0,0,0,0,0,0,0,0,0,0,0,0,0,0,0,0,0,0,0,0,0,0,0,0,0,0,0,0,0,0,0,0,0,0,0,0,0,0,0,0,0,0,0,0],"sum_hessian":[8.1E1,3E1,5.1E1,1E1,2E1,8E0,4.3E1,2E0,8E0,6E0,1.4E1,6E0,2E0,3.6E1,7E0,1E0,1E0,2E0,6E0,2E0,4E0,1.1E1,3E0,3E0,3E0,3E0,3.3E1,4E0,3E0,1E0,5E0,1E0,1E0,1E1,1E0,1E0,2E0,1E0,2E0,1.1E1,2.2E1,2E0,1E0,4E0,1E0,7E0,3E0,7E0,4E0,1.4E1,8E0],"tree_param":{"num_deleted":"0","num_feature":"32","num_nodes":"51","size_leaf_vector":"0"}},{"base_weights":[3.0065165E-4,-7.0753023E-3,5.1627685E-3,4.481896E-3,-1.5827022E-2,-1.6578317E-2,6.9032274E-3,-8.071661E-3,8.292924E-3,-3.7991475E-2,-7.383736E-3,-2.8632164E-2,-3.0163128E-3,8.051981E-3,-2.2969723E-2,-1.2072802E-2,-2.7136803E-3,4.221532E-3,1.5380323E-2,-5.90531E-3,-5.7413816E-2,-3.1194044E-3,-2.340126E-2,1.2932102E-2,2.609595E-3,7.263136E-3,3.3562182E-4,7.1718693E-3,2.0002842E-2,8.690357E-4,-9.727001E-3,-7.426858E-3,5.0111115E-4,1.677591E-2,-1.395305E-3,-9.686912E-3,7.5193574E-3,9.443839E-3,2.6613872E-3,3.9513907E-3,-3.392021E-3,-9.148836E-3,-2.6552677E-3,3.5032989E-3,-3.3769011E-3,1.9419745E-2,2.0065904E-3,-4.651785E-3,3.4117699E-3,-3.8051605E-4,-1.117456E-2,1.1153167E-2,7.348912E-4],"categories":[],"categories_nodes":[],"categories_segments":[],"categories_sizes":[],"default_left":[1,1,1,1,1,1,1,1,1,1,1,0,0,1,0,0,0,1,1,1,0,1,0,1,1,1,1,0,0,0,0,1,1,1,1,1,1,0,0,0,0,0,0,0,0,0,0,0,0,0,0,0,0],"id":8,"left_children":[1,3,5,7,9,11,13,15,17,19,21,-1,-1,23,-1,-1,-1,25,27,29,-1,31,-1,33,35,37,39,-1,-1,-1,-1,41,43,45,47,49,51,-1,-1,-1,-1,-1,-1,-1,-1,-1,-1,-1,-1,-1,-1,-1,-1],"loss_changes":[2.9772737E-3,3.4087317E-3,2.0064174E-3,7.845669E-4,3.2751565E-3,5.6753366E-4,1.7978349E-3,5.299042E-5,2.813384E-4,2.776896E-3,9.5156237E-4,0E0,0E0,1.1879897E-3,0E0,0E0,0E0,1.0393694E-4,8.317176E-6,8.612147E-5,0E0,2.0645931E-4,0E0,1.3451301E-3,1.4614167E-3,2.5041518E-5,8.079467E-5,0E0,0E0,0E0,0E0,2.5006826E-5,1.0497046E-4,7.0293806E-4,1.0979568E-4,9.266037E-5,4.1091238E-4,0E0,0E0,0E0,0E0,0E0,0E0,0E0,0E0,0E0,0E0,0E0,0E0,0E0,0E0,0E0,0E0],"parents":[2147483647,0,0,1,1,2,2,3,3,4,4,5,5,6,6,7,7,8,8,9,9,10,10,13,13,17,17,18,18,19,19,21,21,23,23,24,24,25,25,26,26,31,31,32,32,33,33,34,34,35,35,36,36],"right_children":[2,4,6,8,10,12,14,16,18,20,22,-1,-1,24,-1,-1,-1,26,28,30,-1,32,-1,34,36,38,40,-1,-1,-1,-1,42,44,46,48,50,52,-1,-1,-1,-1,-1,-1,-1,-1,-1,-1,-1,-1,-1,-1,-1,-1],"split_conditions":[1.85E2,-5E-1,2.45E1,2.1E1,-5E-1,5E-1,4.85E2,5E-1,5E-1,5E-1,5E-1,-2.8632164E-2,-3.0163128E-3,1.41E2,-2.2969723E-2,-1.2072802E-2,-2.7136803E-3,1.5E2,0E0,0E0,-5.7413816E-2,2.805E2,-2.340126E-2,2.58E2,1.615E2,-5E-1,0E0,7.1718693E-3,2.0002842E-2,8.690357E-4,-9.727001E-3,2.445E2,2.08E2,2.37E2,5E-1,-5E-1,2.44E2,9.443839E-3,2.6613872E-3,3.9513907E-3,-3.392021E-3,-9.148836E-3,-2.6552677E-3,3.5032989E-3,-3.3769011E-3,1.9419745E-2,2.0065904E-3,-4.651785E-3,3.4117699E-3,-3.8051605E-4,-1.117456E-2,1.1153167E-2,7.348912E-4],"split_indices":[22,4,24,27,9,1,23,3,6,6,3,0,0,24,0,0,0,21,5,3,0,16,0,20,24,5,2,0,0,0,0,20,27,21,0,1,22,0,0,0,0,0,0,0,0,0,0,0,0,0,0,0,0],"split_type":[0,0,0,0,0,0,0,0,0,0,0,0,0,0,0,0,0,0,0,0,0,0,0,0,0,0,0,0,0,0,0,0,0,0,0,0,0,0,0,0,0,0,0,0,0,0,0,0,0,0,0,0,0],"sum_hessian":[8.1E1,3.2E1,4.9E1,1.4E1,1.8E1,3E0,4.6E1,3E0,1.1E1,4E0,1.4E1,1E0,2E0,4.5E1,1E0,1E0,2E0,8E0,3E0,2E0,2E0,1.2E1,2E0,2.3E1,2.2E1,4E0,4E0,2E0,1E0,1E0,1E0,5E0,7E0,1.8E1,5E0,6E0,1.6E1,2E0,2E0,2E0,2E0,3E0,2E0,4E0,3E0,1.5E1,3E0,3E0,2E0,1E0,5E0,1E1,6E0],"tree_param":{"num_deleted":"0","num_feature":"32","num_nodes":"53","size_leaf_vector":"0"}},{"base_weights":[-1.3462966E-3,-1.7839001E-3,1.704979E-2,-1.0690494E-3,-1.054136E-2,-2.460153E-3,1.8672085E-3,2.8010947E-4,-7.6517663E-3,3.3456371E-3,-4.7156336E-3,-6.8155527E-3,1.1583138E-3,-1.9012641E-2,-3.0477557E-3,1.0001977E-2,2.1185498E-3,1.9936562E-3,-6.89137E-3,-1.5277863E-3,-8.068879E-3,-8.61004E-4,4.175856E-3,-7.9425174E-4,-3.0893484E-2,7.756816E-4,-8.274953E-3,9.0127834E-4,8.310239E-3],"categories":[],"categories_nodes":[],"categories_segments":[],"categories_sizes":[],"default_left":[1,1,0,1,0,1,1,1,1,1,1,1,1,1,1,0,1,0,0,0,0,0,0,0,0,0,0,0,0],"id":9,"left_children":[1,3,-1,5,-1,7,9,11,13,15,17,19,21,23,25,-1,27,-1,-1,-1,-1,-1,-1,-1,-1,-1,-1,-1,-1],"loss_changes":[6.905307E-4,4.958131E-4,0E0,3.150262E-4,0E0,7.4191525E-4,2.5908332E-4,2.25995E-4,8.835547E-4,1.5033642E-4,8.672726E-5,1.4181685E-5,1.9858344E-4,1.0577117E-3,2.8622075E-4,0E0,1.3571253E-4,0E0,0E0,0E0,0E0,0E0,0E0,0E0,0E0,0E0,0E0,0E0,0E0],"parents":[2147483647,0,0,1,1,3,3,5,5,6,6,7,7,8,8,9,9,10,10,11,11,12,12,13,13,14,14,16,16],"right_children":[2,4,-1,6,-1,8,10,12,14,16,18,20,22,24,26,-1,28,-1,-1,-1,-1,-1,-1,-1,-1,-1,-1,-1,-1],"split_conditions":[3.52E2,4.445E2,1.704979E-2,2.09E2,-1.054136E-2,5E-1,2E2,1.245E2,2.05E2,-5E-1,-5E-1,5E-1,3.355E2,-5E-1,3.28E2,1.0001977E-2,2.69E2,1.9936562E-3,-6.89137E-3,-1.5277863E-3,-8.068879E-3,-8.61004E-4,4.175856E-3,-7.9425174E-4,-3.0893484E-2,7.756816E-4,-8.274953E-3,9.0127834E-4,8.310239E-3],"split_indices":[25,23,0,25,0,11,24,20,27,7,1,2,16,12,16,0,21,0,0,0,0,0,0,0,0,0,0,0,0],"split_type":[0,0,0,0,0,0,0,0,0,0,0,0,0,0,0,0,0,0,0,0,0,0,0,0,0,0,0,0,0],"sum_hessian":[8.1E1,8E1,1E0,7.5E1,5E0,5.1E1,2.4E1,3.4E1,1.7E1,2E1,4E0,3E0,3.1E1,4E0,1.3E1,2E0,1.8E1,1E0,3E0,1E0,2E0,1.9E1,1.2E1,2E0,2E0,8E0,5E0,1.6E1,2E0],"tree_param":{"num_deleted":"0","num_feature":"32","num_nodes":"29","size_leaf_vector":"0"}},{"base_weights":[-3.005019E-4,-1.7990248E-3,2.0971596E-3,-2.6344955E-3,3.0209422E-3,2.565584E-3,-6.211996E-3,-5.8450955E-3,-1.0995634E-3,6.990433E-5,5.954504E-3,3.661747E-3,-1.7157963E-3,-1.5194654E-2,-3.0206144E-3,-1.6853085E-3,3.2755435E-3,1.4717976E-3,-1.3552904E-3,5.0641024E-3,1.977719E-3,1.5461445E-3,-4.548788E-3,-4.5057535E-3,1.0761023E-3,-1.9999056E-3,1.6029676E-3,3.9763846E-3,5.865097E-4,2.4879277E-3,7.654985E-3,-1.7926693E-3,2.4413068E-3,-7.608354E-3,-1.6863942E-3,3.4332275E-5,1.4119148E-3,-2.32701E-3,1.2835661E-3,3.055334E-3,-6.508827E-4,4.068613E-3,-1.09910965E-4,3.2774608E-3,9.024382E-3,1.5406847E-3,4.629612E-3],"categories":[],"categories_nodes":[],"categories_segments":[],"categories_sizes":[],"default_left":[1,1,1,1,1,1,0,1,1,1,0,1,1,0,1,1,1,0,0,1,1,0,0,1,1,1,1,0,0,1,1,0,1,0,0,0,0,0,0,0,0,0,0,0,0,0,0],"id":10,"left_children":[1,3,5,7,9,11,-1,13,15,17,-1,19,21,-1,23,25,27,-1,-1,29,31,-1,-1,33,35,37,39,-1,-1,41,43,-1,45,-1,-1,-1,-1,-1,-1,-1,-1,-1,-1,-1,-1,-1,-1],"loss_changes":[2.9839482E-4,2.1333265E-4,1.4048813E-4,2.1040725E-4,6.884018E-5,1.5176862E-4,0E0,3.2380997E-4,8.496392E-5,1.1984568E-5,0E0,4.902479E-5,7.172045E-5,0E0,7.785899E-5,3.2171265E-5,5.2061514E-6,0E0,5.5360806E-7,6.772429E-5,2.709925E-5,0E0,0E0,6.589542E-5,1.3508834E-6,3.0911877E-5,1.1808914E-5,0E0,0E0,3.329811E-5,6.390357E-6,0E0,1.651726E-5,0E0,0E0,0E0,0E0,0E0,0E0,0E0,0E0,0E0,0E0,0E0,0E0,0E0,0E0],"parents":[2147483647,0,0,1,1,2,2,3,3,4,4,5,5,7,7,8,8,9,9,11,11,12,12,14,14,15,15,16,16,19,19,20,20,23,23,24,24,25,25,26,26,29,29,30,30,32,32],"right_children":[2,4,6,8,10,12,-1,14,16,18,-1,20,22,-1,24,26,28,-1,-1,30,32,-1,-1,34,36,38,40,-1,-1,42,44,-1,46,-1,-1,-1,-1,-1,-1,-1,-1,-1,-1,-1,-1,-1,-1],"split_conditions":[2.28E2,2.665E2,3.67E2,-5E-1,0E0,2.825E2,-6.211996E-3,2.17E2,1.83E2,5E-1,5.954504E-3,0E0,2.405E2,-1.5194654E-2,5.35E1,1.055E2,0E0,1.4717976E-3,-1.3552904E-3,5E-1,1.275E2,1.5461445E-3,-4.548788E-3,2.515E2,0E0,2.475E2,-5E-1,3.9763846E-3,5.865097E-4,5E-1,0E0,-1.7926693E-3,3.755E2,-7.608354E-3,-1.6863942E-3,3.4332275E-5,1.4119148E-3,-2.32701E-3,1.2835661E-3,3.055334E-3,-6.508827E-4,4.068613E-3,-1.09910965E-4,3.2774608E-3,9.024382E-3,1.5406847E-3,4.629612E-3],"split_indices":[30,21,27,9,4,26,0,16,18,3,0,4,16,0,31,17,2,0,0,5,20,0,0,26,5,24,2,0,0,2,14,0,16,0,0,0,0,0,0,0,0,0,0,0,0,0,0],"split_type":[0,0,0,0,0,0,0,0,0,0,0,0,0,0,0,0,0,0,0,0,0,0,0,0,0,0,0,0,0,0,0,0,0,0,0,0,0,0,0,0,0,0,0,0,0,0,0],"sum_hessian":[8.1E1,5E1,3.1E1,4.3E1,7E0,3E1,1E0,1.3E1,3E1,4E0,3E0,2.4E1,6E0,2E0,1.1E1,2.7E1,3E0,2E0,2E0,1.2E1,1.2E1,3E0,3E0,8E0,3E0,2.5E1,2E0,2E0,1E0,7E0,5E0,1E0,1.1E1,3E0,5E0,1E0,2E0,2.3E1,2E0,1E0,1E0,4E0,3E0,2E0,3E0,9E0,2E0],"tree_param":{"num_deleted":"0","num_feature":"32","num_nodes":"47","size_leaf_vector":"0"}},{"base_weights":[4.567751E-6,-1.9075625E-4,3.0507087E-3,-1.4313984E-3,3.8714762E-4,4.8208237E-4,3.5723448E-3,-4.8204423E-3,-5.5632135E-4,5.7475566E-4,-1.5663623E-3,-1.5355349E-3,-8.980036E-3,1.7865896E-3,-1.0460615E-3,-6.790294E-4,8.297392E-4,-3.3311844E-3,-2.9236078E-4,9.4652176E-5,-2.1104813E-3,-5.300045E-4,2.7354558E-3,-4.6741962E-4,-2.4570464E-3,-1.6846418E-3,4.62389E-4,4.686594E-4,1.5991742E-3,4.1675568E-4,-6.676515E-4,-4.7028065E-5,-1.9931793E-3,1.3435682E-3,-5.7291985E-4,3.6478043E-5,1.3293743E-3,2.6385933E-3,-5.3246815E-5],"categories":[],"categories_nodes":[],"categories_segments":[],"categories_sizes":[],"default_left":[1,1,1,1,1,0,0,1,1,1,1,1,0,1,1,1,1,0,1,0,0,0,0,1,0,0,1,1,1,0,0,0,0,0,0,0,0,0,0],"id":11,"left_children":[1,3,5,7,9,-1,-1,11,13,15,17,19,-1,21,23,25,27,-1,29,-1,-1,-1,-1,31,-1,-1,33,35,37,-1,-1,-1,-1,-1,-1,-1,-1,-1,-1],"loss_changes":[4.9370672E-5,5.6477966E-5,4.9772752E-6,7.1460156E-5,2.0690963E-5,0E0,0E0,5.4530246E-5,2.5964651E-5,1.6548145E-5,1.0268022E-5,3.9488423E-6,0E0,1.0242355E-5,1.35477185E-5,1.1109381E-5,1.0919284E-5,0E0,1.3427468E-6,0E0,0E0,0E0,0E0,8.886096E-6,4.0426312E-7,4.9356277E-7,5.3312197E-6,1.1111055E-5,2.246875E-5,0E0,0E0,0E0,0E0,0E0,0E0,0E0,0E0,0E0,0E0],"parents":[2147483647,0,0,1,1,2,2,3,3,4,4,7,7,8,8,9,9,10,10,11,11,13,13,14,14,15,15,16,16,18,18,23,23,26,26,27,27,28,28],"right_children":[2,4,6,8,10,-1,-1,12,14,16,18,20,-1,22,24,26,28,-1,30,-1,-1,-1,-1,32,-1,-1,34,36,38,-1,-1,-1,-1,-1,-1,-1,-1,-1,-1],"split_conditions":[3.135E2,-5E-1,-5E-1,1.425E2,5.15E1,4.8208237E-4,3.5723448E-3,5E-1,5.65E1,4.35E1,-5E-1,-5E-1,-8.980036E-3,-5E-1,2.99E2,5E-1,1.665E2,-3.3311844E-3,-5E-1,9.4652176E-5,-2.1104813E-3,-5.300045E-4,2.7354558E-3,3.795E2,-2.4570464E-3,-1.6846418E-3,2.26E2,2.16E2,1.835E2,4.1675568E-4,-6.676515E-4,-4.7028065E-5,-1.9931793E-3,1.3435682E-3,-5.7291985E-4,3.6478043E-5,1.3293743E-3,2.6385933E-3,-5.3246815E-5],"split_indices":[25,9,3,22,31,0,0,6,21,22,2,3,0,1,30,11,24,0,3,0,0,0,0,16,0,0,16,25,25,0,0,0,0,0,0,0,0,0,0],"split_type":[0,0,0,0,0,0,0,0,0,0,0,0,0,0,0,0,0,0,0,0,0,0,0,0,0,0,0,0,0,0,0,0,0,0,0,0,0,0,0],"sum_hessian":[8.1E1,7.7E1,4E0,2.4E1,5.3E1,1E0,3E0,4E0,2E1,4.9E1,4E0,3E0,1E0,3E0,1.7E1,8E0,4.1E1,1E0,3E0,1E0,2E0,1E0,2E0,1.3E1,4E0,4E0,4E0,2.9E1,1.2E1,1E0,2E0,1.1E1,2E0,2E0,2E0,2E1,9E0,7E0,5E0],"tree_param":{"num_deleted":"0","num_feature":"32","num_nodes":"39","size_leaf_vector":"0"}},{"base_weights":[-1.1921947E-4,8.908766E-4,-3.2243866E-4,1.14123024E-4,1.9075274E-3,-4.490018E-3,-1.9512106E-4,4.4032506E-4,-6.8505603E-4,6.713867E-4,2.3577511E-3,-5.6368404E-5,-1.22872E-3,7.9631805E-5,8.947055E-4,3.3839275E-5,-1.8116633E-3,-6.3578286E-6,-1.6351143E-3,1.2215397E-4,-1.6554197E-3,-5.68072E-4,-2.0266175E-3,-9.921619E-5,6.95616E-4],"categories":[],"categories_nodes":[],"categories_segments":[],"categories_sizes":[],"default_left":[1,1,1,1,1,0,1,1,0,0,0,1,1,0,0,1,0,0,1,1,0,0,0,0,0],"id":12,"left_children":[1,3,5,7,9,-1,11,13,-1,-1,-1,15,17,-1,-1,19,-1,-1,21,23,-1,-1,-1,-1,-1],"loss_changes":[1.7119468E-5,1.083793E-5,3.5735735E-5,2.647892E-6,1.7562743E-6,0E0,9.682932E-6,1.0759965E-6,0E0,0E0,0E0,9.720111E-6,3.9636934E-6,4.23168E-8,0E0,9.004212E-6,0E0,2.4165902E-7,1.355238E-6,7.3050173E-6,0E0,0E0,0E0,0E0,0E0],"parents":[2147483647,0,0,1,1,2,2,3,3,4,4,6,6,7,7,11,11,12,12,15,15,18,18,19,19],"right_children":[2,4,6,8,10,-1,12,14,-1,-1,-1,16,18,-1,-1,20,-1,-1,22,24,-1,-1,-1,-1,-1],"split_conditions":[1.865E2,2.25E2,1.92E2,2.385E2,2.6E2,-4.490018E-3,1.94E2,2.845E2,-6.8505603E-4,6.713867E-4,2.3577511E-3,2.17E2,1.77E2,7.9631805E-5,8.947055E-4,3.67E2,-1.8116633E-3,-6.3578286E-6,-5E-1,5E-1,-1.6554197E-3,-5.68072E-4,-2.0266175E-3,-9.921619E-5,6.95616E-4],"split_indices":[16,23,16,21,22,0,28,27,0,0,0,18,20,0,0,27,0,0,7,3,0,0,0,0,0],"split_type":[0,0,0,0,0,0,0,0,0,0,0,0,0,0,0,0,0,0,0,0,0,0,0,0,0],"sum_hessian":[8.1E1,1.3E1,6.8E1,8E0,5E0,1E0,6.7E1,6E0,2E0,2E0,3E0,6E1,7E0,4E0,2E0,5.8E1,2E0,2E0,5E0,5.6E1,2E0,2E0,3E0,4.1E1,1.5E1],"tree_param":{"num_deleted":"0","num_feature":"32","num_nodes":"25","size_leaf_vector":"0"}},{"base_weights":[-8.103324E-5,-2.2580354E-4,3.5024257E-4,-5.326481E-4,1.4173162E-4,1.6125705E-4,1.1131167E-3,-9.1547717E-4,-4.4748187E-5,-7.9788944E-5,7.3319674E-4,-3.1200476E-4,4.2388836E-4,-3.6949912E-4,-1.6200095E-3,-9.191036E-4,3.232956E-4,4.277121E-4,-5.3834915E-4,1.0929108E-3,-2.3063023E-4,-8.443594E-5,-1.1965433E-3,-2.0290017E-3,-2.6202202E-4,1.0745525E-3,1.6457505E-4,3.2277108E-4,-1.0092556E-3],"categories":[],"categories_nodes":[],"categories_segments":[],"categories_sizes":[],"default_left":[1,1,1,1,1,1,0,1,1,1,1,0,0,1,1,0,0,1,1,0,0,0,0,0,0,0,0,0,0],"id":13,"left_children":[1,3,5,7,9,11,-1,13,15,17,19,-1,-1,21,23,-1,-1,25,27,-1,-1,-1,-1,-1,-1,-1,-1,-1,-1],"loss_changes":[5.1988322E-6,7.067616E-6,2.8481177E-6,6.3096304E-6,3.85813E-6,2.369536E-6,6.2544996E-7,6.7099318E-6,5.4459597E-6,5.3500935E-6,3.0256747E-6,4.4888833E-7,6.9259363E-7,2.7280876E-6,3.9116076E-6,0E0,9.1287166E-7,1.6954402E-6,5.191844E-6,0E0,1.6987319E-7,6.6695185E-7,0E0,0E0,0E0,0E0,3.9804414E-7,9.976468E-7,4.0892883E-7],"parents":[2147483647,0,0,1,1,2,2,3,3,4,4,5,5,7,7,8,8,9,9,10,10,13,13,14,14,17,17,18,18],"right_children":[2,4,6,8,10,12,-1,14,16,18,20,-1,-1,22,24,-1,-1,26,28,-1,-1,-1,-1,-1,-1,-1,-1,-1,-1],"split_conditions":[2.305E2,2.275E2,3.44E2,2.255E2,3.41E2,-5E-1,1.1131167E-3,1.72E2,1.445E2,2.615E2,5E-1,-3.1200476E-4,4.2388836E-4,5E-1,-5E-1,-9.191036E-4,3.232956E-4,-5E-1,-5E-1,1.0929108E-3,-2.3063023E-4,-8.443594E-5,-1.1965433E-3,-2.0290017E-3,-2.6202202E-4,1.0745525E-3,1.6457505E-4,3.2277108E-4,-1.0092556E-3],"split_indices":[21,30,26,26,16,2,0,21,21,16,3,0,0,14,3,0,0,7,5,0,0,0,0,0,0,0,0,0,0],"split_type":[0,0,0,0,0,0,0,0,0,0,0,0,0,0,0,0,0,0,0,0,0,0,0,0,0,0,0,0,0],"sum_hessian":[8.1E1,6.1E1,2E1,3.3E1,2.8E1,1.7E1,3E0,1.8E1,1.5E1,2.1E1,7E0,6E0,1.1E1,1.1E1,7E0,4E0,1.1E1,1E1,1.1E1,5E0,2E0,9E0,2E0,5E0,2E0,2E0,8E0,4E0,7E0],"tree_param":{"num_deleted":"0","num_feature":"32","num_nodes":"29","size_leaf_vector":"0"}},{"base_weights":[-1.8620636E-5,1.4023519E-4,-1.7325084E-4,-4.1713714E-4,2.1176564E-4,-5.921296E-4,-8.698967E-5,2.820026E-4,-1.9812584E-4,-1.1173884E-3,-1.5854836E-4,1.0764599E-4,-2.3114114E-4,3.4483342E-4,-2.4402142E-4],"categories":[],"categories_nodes":[],"categories_segments":[],"categories_sizes":[],"default_left":[1,1,1,0,1,1,1,1,0,0,0,0,0,0,0],"id":14,"left_children":[1,3,5,-1,7,9,11,13,-1,-1,-1,-1,-1,-1,-1],"loss_changes":[2.0385364E-6,1.7229681E-6,1.4660758E-6,4.4441947E-8,1.1210847E-6,1.4170362E-6,1.034934E-6,1.1417633E-6,3.0826732E-7,0E0,1.8903617E-7,5.460542E-7,5.7295426E-7,7.3807473E-7,5.675002E-7],"parents":[2147483647,0,0,1,1,2,2,4,4,5,5,6,6,7,7],"right_children":[2,4,6,-1,8,10,12,14,-1,-1,-1,-1,-1,-1,-1],"split_conditions":[1.36E2,-5E-1,1.405E2,-4.1713714E-4,1.815E2,1.805E2,1.76E2,3.425E2,-1.9812584E-4,-1.1173884E-3,-1.5854836E-4,1.0764599E-4,-2.3114114E-4,3.4483342E-4,-2.4402142E-4],"split_indices":[24,1,24,0,28,25,25,19,0,0,0,0,0,0,0],"split_type":[0,0,0,0,0,0,0,0,0,0,0,0,0,0,0],"sum_hessian":[8.1E1,4E1,4.1E1,4E0,3.6E1,6E0,3.5E1,3.1E1,5E0,2E0,4E0,1.5E1,2E1,2.8E1,3E0],"tree_param":{"num_deleted":"0","num_feature":"32","num_nodes":"15","size_leaf_vector":"0"}},{"base_weights":[-2.3359205E-5],"categories":[],"categories_nodes":[],"categories_segments":[],"categories_sizes":[],"default_left":[0],"id":15,"left_children":[-1],"loss_changes":[8.955095E-7],"parents":[2147483647],"right_children":[-1],"split_conditions":[-2.3359205E-5],"split_indices":[0],"split_type":[0],"sum_hessian":[8.1E1],"tree_param":{"num_deleted":"0","num_feature":"32","num_nodes":"1","size_leaf_vector":"0"}},{"base_weights":[-3.663505E-7],"categories":[],"categories_nodes":[],"categories_segments":[],"categories_sizes":[],"default_left":[0],"id":16,"left_children":[-1],"loss_changes":[8.829654E-7],"parents":[2147483647],"right_children":[-1],"split_conditions":[-3.663505E-7],"split_indices":[0],"split_type":[0],"sum_hessian":[8.1E1],"tree_param":{"num_deleted":"0","num_feature":"32","num_nodes":"1","size_leaf_vector":"0"}},{"base_weights":[5.815087E-9],"categories":[],"categories_nodes":[],"categories_segments":[],"categories_sizes":[],"default_left":[0],"id":17,"left_children":[-1],"loss_changes":[8.827427E-7],"parents":[2147483647],"right_children":[-1],"split_conditions":[5.815087E-9],"split_indices":[0],"split_type":[0],"sum_hessian":[8.1E1],"tree_param":{"num_deleted":"0","num_feature":"32","num_nodes":"1","size_leaf_vector":"0"}},{"base_weights":[5.815087E-9],"categories":[],"categories_nodes":[],"categories_segments":[],"categories_sizes":[],"default_left":[0],"id":18,"left_children":[-1],"loss_changes":[8.827427E-7],"parents":[2147483647],"right_children":[-1],"split_conditions":[5.815087E-9],"split_indices":[0],"split_type":[0],"sum_hessian":[8.1E1],"tree_param":{"num_deleted":"0","num_feature":"32","num_nodes":"1","size_leaf_vector":"0"}},{"base_weights":[5.815087E-9],"categories":[],"categories_nodes":[],"categories_segments":[],"categories_sizes":[],"default_left":[0],"id":19,"left_children":[-1],"loss_changes":[8.827427E-7],"parents":[2147483647],"right_children":[-1],"split_conditions":[5.815087E-9],"split_indices":[0],"split_type":[0],"sum_hessian":[8.1E1],"tree_param":{"num_deleted":"0","num_feature":"32","num_nodes":"1","size_leaf_vector":"0"}},{"base_weights":[5.815087E-9],"categories":[],"categories_nodes":[],"categories_segments":[],"categories_sizes":[],"default_left":[0],"id":20,"left_children":[-1],"loss_changes":[8.827427E-7],"parents":[2147483647],"right_children":[-1],"split_conditions":[5.815087E-9],"split_indices":[0],"split_type":[0],"sum_hessian":[8.1E1],"tree_param":{"num_deleted":"0","num_feature":"32","num_nodes":"1","size_leaf_vector":"0"}},{"base_weights":[5.815087E-9],"categories":[],"categories_nodes":[],"categories_segments":[],"categories_sizes":[],"default_left":[0],"id":21,"left_children":[-1],"loss_changes":[8.827427E-7],"parents":[2147483647],"right_children":[-1],"split_conditions":[5.815087E-9],"split_indices":[0],"split_type":[0],"sum_hessian":[8.1E1],"tree_param":{"num_deleted":"0","num_feature":"32","num_nodes":"1","size_leaf_vector":"0"}},{"base_weights":[5.815087E-9],"categories":[],"categories_nodes":[],"categories_segments":[],"categories_sizes":[],"default_left":[0],"id":22,"left_children":[-1],"loss_changes":[8.827427E-7],"parents":[2147483647],"right_children":[-1],"split_conditions":[5.815087E-9],"split_indices":[0],"split_type":[0],"sum_hessian":[8.1E1],"tree_param":{"num_deleted":"0","num_feature":"32","num_nodes":"1","size_leaf_vector":"0"}},{"base_weights":[5.815087E-9],"categories":[],"categories_nodes":[],"categories_segments":[],"categories_sizes":[],"default_left":[0],"id":23,"left_children":[-1],"loss_changes":[8.827427E-7],"parents":[2147483647],"right_children":[-1],"split_conditions":[5.815087E-9],"split_indices":[0],"split_type":[0],"sum_hessian":[8.1E1],"tree_param":{"num_deleted":"0","num_feature":"32","num_nodes":"1","size_leaf_vector":"0"}},{"base_weights":[5.815087E-9],"categories":[],"categories_nodes":[],"categories_segments":[],"categories_sizes":[],"default_left":[0],"id":24,"left_children":[-1],"loss_changes":[8.827427E-7],"parents":[2147483647],"right_children":[-1],"split_conditions":[5.815087E-9],"split_indices":[0],"split_type":[0],"sum_hessian":[8.1E1],"tree_param":{"num_deleted":"0","num_feature":"32","num_nodes":"1","size_leaf_vector":"0"}},{"base_weights":[5.815087E-9],"categories":[],"categories_nodes":[],"categories_segments":[],"categories_sizes":[],"default_left":[0],"id":25,"left_children":[-1],"loss_changes":[8.827427E-7],"parents":[2147483647],"right_children":[-1],"split_conditions":[5.815087E-9],"split_indices":[0],"split_type":[0],"sum_hessian":[8.1E1],"tree_param":{"num_deleted":"0","num_feature":"32","num_nodes":"1","size_leaf_vector":"0"}},{"base_weights":[5.815087E-9],"categories":[],"categories_nodes":[],"categories_segments":[],"categories_sizes":[],"default_left":[0],"id":26,"left_children":[-1],"loss_changes":[8.827427E-7],"parents":[2147483647],"right_children":[-1],"split_conditions":[5.815087E-9],"split_indices":[0],"split_type":[0],"sum_hessian":[8.1E1],"tree_param":{"num_deleted":"0","num_feature":"32","num_nodes":"1","size_leaf_vector":"0"}},{"base_weights":[5.815087E-9],"categories":[],"categories_nodes":[],"categories_segments":[],"categories_sizes":[],"default_left":[0],"id":27,"left_children":[-1],"loss_changes":[8.827427E-7],"parents":[2147483647],"right_children":[-1],"split_conditions":[5.815087E-9],"split_indices":[0],"split_type":[0],"sum_hessian":[8.1E1],"tree_param":{"num_deleted":"0","num_feature":"32","num_nodes":"1","size_leaf_vector":"0"}},{"base_weights":[5.815087E-9],"categories":[],"categories_nodes":[],"categories_segments":[],"categories_sizes":[],"default_left":[0],"id":28,"left_children":[-1],"loss_changes":[8.827427E-7],"parents":[2147483647],"right_children":[-1],"split_conditions":[5.815087E-9],"split_indices":[0],"split_type":[0],"sum_hessian":[8.1E1],"tree_param":{"num_deleted":"0","num_feature":"32","num_nodes":"1","size_leaf_vector":"0"}},{"base_weights":[5.815087E-9],"categories":[],"categories_nodes":[],"categories_segments":[],"categories_sizes":[],"default_left":[0],"id":29,"left_children":[-1],"loss_changes":[8.827427E-7],"parents":[2147483647],"right_children":[-1],"split_conditions":[5.815087E-9],"split_indices":[0],"split_type":[0],"sum_hessian":[8.1E1],"tree_param":{"num_deleted":"0","num_feature":"32","num_nodes":"1","size_leaf_vector":"0"}},{"base_weights":[5.815087E-9],"categories":[],"categories_nodes":[],"categories_segments":[],"categories_sizes":[],"default_left":[0],"id":30,"left_children":[-1],"loss_changes":[8.827427E-7],"parents":[2147483647],"right_children":[-1],"split_conditions":[5.815087E-9],"split_indices":[0],"split_type":[0],"sum_hessian":[8.1E1],"tree_param":{"num_deleted":"0","num_feature":"32","num_nodes":"1","size_leaf_vector":"0"}},{"base_weights":[5.815087E-9],"categories":[],"categories_nodes":[],"categories_segments":[],"categories_sizes":[],"default_left":[0],"id":31,"left_children":[-1],"loss_changes":[8.827427E-7],"parents":[2147483647],"right_children":[-1],"split_conditions":[5.815087E-9],"split_indices":[0],"split_type":[0],"sum_hessian":[8.1E1],"tree_param":{"num_deleted":"0","num_feature":"32","num_nodes":"1","size_leaf_vector":"0"}},{"base_weights":[5.815087E-9],"categories":[],"categories_nodes":[],"categories_segments":[],"categories_sizes":[],"default_left":[0],"id":32,"left_children":[-1],"loss_changes":[8.827427E-7],"parents":[2147483647],"right_children":[-1],"split_conditions":[5.815087E-9],"split_indices":[0],"split_type":[0],"sum_hessian":[8.1E1],"tree_param":{"num_deleted":"0","num_feature":"32","num_nodes":"1","size_leaf_vector":"0"}},{"base_weights":[5.815087E-9],"categories":[],"categories_nodes":[],"categories_segments":[],"categories_sizes":[],"default_left":[0],"id":33,"left_children":[-1],"loss_changes":[8.827427E-7],"parents":[2147483647],"right_children":[-1],"split_conditions":[5.815087E-9],"split_indices":[0],"split_type":[0],"sum_hessian":[8.1E1],"tree_param":{"num_deleted":"0","num_feature":"32","num_nodes":"1","size_leaf_vector":"0"}},{"base_weights":[5.815087E-9],"categories":[],"categories_nodes":[],"categories_segments":[],"categories_sizes":[],"default_left":[0],"id":34,"left_children":[-1],"loss_changes":[8.827427E-7],"parents":[2147483647],"right_children":[-1],"split_conditions":[5.815087E-9],"split_indices":[0],"split_type":[0],"sum_hessian":[8.1E1],"tree_param":{"num_deleted":"0","num_feature":"32","num_nodes":"1","size_leaf_vector":"0"}},{"base_weights":[5.815087E-9],"categories":[],"categories_nodes":[],"categories_segments":[],"categories_sizes":[],"default_left":[0],"id":35,"left_children":[-1],"loss_changes":[8.827427E-7],"parents":[2147483647],"right_children":[-1],"split_conditions":[5.815087E-9],"split_indices":[0],"split_type":[0],"sum_hessian":[8.1E1],"tree_param":{"num_deleted":"0","num_feature":"32","num_nodes":"1","size_leaf_vector":"0"}},{"base_weights":[5.815087E-9],"categories":[],"categories_nodes":[],"categories_segments":[],"categories_sizes":[],"default_left":[0],"id":36,"left_children":[-1],"loss_changes":[8.827427E-7],"parents":[2147483647],"right_children":[-1],"split_conditions":[5.815087E-9],"split_indices":[0],"split_type":[0],"sum_hessian":[8.1E1],"tree_param":{"num_deleted":"0","num_feature":"32","num_nodes":"1","size_leaf_vector":"0"}},{"base_weights":[5.815087E-9],"categories":[],"categories_nodes":[],"categories_segments":[],"categories_sizes":[],"default_left":[0],"id":37,"left_children":[-1],"loss_changes":[8.827427E-7],"parents":[2147483647],"right_children":[-1],"split_conditions":[5.815087E-9],"split_indices":[0],"split_type":[0],"sum_hessian":[8.1E1],"tree_param":{"num_deleted":"0","num_feature":"32","num_nodes":"1","size_leaf_vector":"0"}},{"base_weights":[5.815087E-9],"categories":[],"categories_nodes":[],"categories_segments":[],"categories_sizes":[],"default_left":[0],"id":38,"left_children":[-1],"loss_changes":[8.827427E-7],"parents":[2147483647],"right_children":[-1],"split_conditions":[5.815087E-9],"split_indices":[0],"split_type":[0],"sum_hessian":[8.1E1],"tree_param":{"num_deleted":"0","num_feature":"32","num_nodes":"1","size_leaf_vector":"0"}},{"base_weights":[5.815087E-9],"categories":[],"categories_nodes":[],"categories_segments":[],"categories_sizes":[],"default_left":[0],"id":39,"left_children":[-1],"loss_changes":[8.827427E-7],"parents":[2147483647],"right_children":[-1],"split_conditions":[5.815087E-9],"split_indices":[0],"split_type":[0],"sum_hessian":[8.1E1],"tree_param":{"num_deleted":"0","num_feature":"32","num_nodes":"1","size_leaf_vector":"0"}},{"base_weights":[5.815087E-9],"categories":[],"categories_nodes":[],"categories_segments":[],"categories_sizes":[],"default_left":[0],"id":40,"left_children":[-1],"loss_changes":[8.827427E-7],"parents":[2147483647],"right_children":[-1],"split_conditions":[5.815087E-9],"split_indices":[0],"split_type":[0],"sum_hessian":[8.1E1],"tree_param":{"num_deleted":"0","num_feature":"32","num_nodes":"1","size_leaf_vector":"0"}},{"base_weights":[5.815087E-9],"categories":[],"categories_nodes":[],"categories_segments":[],"categories_sizes":[],"default_left":[0],"id":41,"left_children":[-1],"loss_changes":[8.827427E-7],"parents":[2147483647],"right_children":[-1],"split_conditions":[5.815087E-9],"split_indices":[0],"split_type":[0],"sum_hessian":[8.1E1],"tree_param":{"num_deleted":"0","num_feature":"32","num_nodes":"1","size_leaf_vector":"0"}},{"base_weights":[5.815087E-9],"categories":[],"categories_nodes":[],"categories_segments":[],"categories_sizes":[],"default_left":[0],"id":42,"left_children":[-1],"loss_changes":[8.827427E-7],"parents":[2147483647],"right_children":[-1],"split_conditions":[5.815087E-9],"split_indices":[0],"split_type":[0],"sum_hessian":[8.1E1],"tree_param":{"num_deleted":"0","num_feature":"32","num_nodes":"1","size_leaf_vector":"0"}},{"base_weights":[5.815087E-9],"categories":[],"categories_nodes":[],"categories_segments":[],"categories_sizes":[],"default_left":[0],"id":43,"left_children":[-1],"loss_changes":[8.827427E-7],"parents":[2147483647],"right_children":[-1],"split_conditions":[5.815087E-9],"split_indices":[0],"split_type":[0],"sum_hessian":[8.1E1],"tree_param":{"num_deleted":"0","num_feature":"32","num_nodes":"1","size_leaf_vector":"0"}},{"base_weights":[5.815087E-9],"categories":[],"categories_nodes":[],"categories_segments":[],"categories_sizes":[],"default_left":[0],"id":44,"left_children":[-1],"loss_changes":[8.827427E-7],"parents":[2147483647],"right_children":[-1],"split_conditions":[5.815087E-9],"split_indices":[0],"split_type":[0],"sum_hessian":[8.1E1],"tree_param":{"num_deleted":"0","num_feature":"32","num_nodes":"1","size_leaf_vector":"0"}},{"base_weights":[5.815087E-9],"categories":[],"categories_nodes":[],"categories_segments":[],"categories_sizes":[],"default_left":[0],"id":45,"left_children":[-1],"loss_changes":[8.827427E-7],"parents":[2147483647],"right_children":[-1],"split_conditions":[5.815087E-9],"split_indices":[0],"split_type":[0],"sum_hessian":[8.1E1],"tree_param":{"num_deleted":"0","num_feature":"32","num_nodes":"1","size_leaf_vector":"0"}},{"base_weights":[5.815087E-9],"categories":[],"categories_nodes":[],"categories_segments":[],"categories_sizes":[],"default_left":[0],"id":46,"left_children":[-1],"loss_changes":[8.827427E-7],"parents":[2147483647],"right_children":[-1],"split_conditions":[5.815087E-9],"split_indices":[0],"split_type":[0],"sum_hessian":[8.1E1],"tree_param":{"num_deleted":"0","num_feature":"32","num_nodes":"1","size_leaf_vector":"0"}},{"base_weights":[5.815087E-9],"categories":[],"categories_nodes":[],"categories_segments":[],"categories_sizes":[],"default_left":[0],"id":47,"left_children":[-1],"loss_changes":[8.827427E-7],"parents":[2147483647],"right_children":[-1],"split_conditions":[5.815087E-9],"split_indices":[0],"split_type":[0],"sum_hessian":[8.1E1],"tree_param":{"num_deleted":"0","num_feature":"32","num_nodes":"1","size_leaf_vector":"0"}},{"base_weights":[5.815087E-9],"categories":[],"categories_nodes":[],"categories_segments":[],"categories_sizes":[],"default_left":[0],"id":48,"left_children":[-1],"loss_changes":[8.827427E-7],"parents":[2147483647],"right_children":[-1],"split_conditions":[5.815087E-9],"split_indices":[0],"split_type":[0],"sum_hessian":[8.1E1],"tree_param":{"num_deleted":"0","num_feature":"32","num_nodes":"1","size_leaf_vector":"0"}},{"base_weights":[5.815087E-9],"categories":[],"categories_nodes":[],"categories_segments":[],"categories_sizes":[],"default_left":[0],"id":49,"left_children":[-1],"loss_changes":[8.827427E-7],"parents":[2147483647],"right_children":[-1],"split_conditions":[5.815087E-9],"split_indices":[0],"split_type":[0],"sum_hessian":[8.1E1],"tree_param":{"num_deleted":"0","num_feature":"32","num_nodes":"1","size_leaf_vector":"0"}},{"base_weights":[5.815087E-9],"categories":[],"categories_nodes":[],"categories_segments":[],"categories_sizes":[],"default_left":[0],"id":50,"left_children":[-1],"loss_changes":[8.827427E-7],"parents":[2147483647],"right_children":[-1],"split_conditions":[5.815087E-9],"split_indices":[0],"split_type":[0],"sum_hessian":[8.1E1],"tree_param":{"num_deleted":"0","num_feature":"32","num_nodes":"1","size_leaf_vector":"0"}},{"base_weights":[5.815087E-9],"categories":[],"categories_nodes":[],"categories_segments":[],"categories_sizes":[],"default_left":[0],"id":51,"left_children":[-1],"loss_changes":[8.827427E-7],"parents":[2147483647],"right_children":[-1],"split_conditions":[5.815087E-9],"split_indices":[0],"split_type":[0],"sum_hessian":[8.1E1],"tree_param":{"num_deleted":"0","num_feature":"32","num_nodes":"1","size_leaf_vector":"0"}},{"base_weights":[5.815087E-9],"categories":[],"categories_nodes":[],"categories_segments":[],"categories_sizes":[],"default_left":[0],"id":52,"left_children":[-1],"loss_changes":[8.827427E-7],"parents":[2147483647],"right_children":[-1],"split_conditions":[5.815087E-9],"split_indices":[0],"split_type":[0],"sum_hessian":[8.1E1],"tree_param":{"num_deleted":"0","num_feature":"32","num_nodes":"1","size_leaf_vector":"0"}},{"base_weights":[5.815087E-9],"categories":[],"categories_nodes":[],"categories_segments":[],"categories_sizes":[],"default_left":[0],"id":53,"left_children":[-1],"loss_changes":[8.827427E-7],"parents":[2147483647],"right_children":[-1],"split_conditions":[5.815087E-9],"split_indices":[0],"split_type":[0],"sum_hessian":[8.1E1],"tree_param":{"num_deleted":"0","num_feature":"32","num_nodes":"1","size_leaf_vector":"0"}},{"base_weights":[5.815087E-9],"categories":[],"categories_nodes":[],"categories_segments":[],"categories_sizes":[],"default_left":[0],"id":54,"left_children":[-1],"loss_changes":[8.827427E-7],"parents":[2147483647],"right_children":[-1],"split_conditions":[5.815087E-9],"split_indices":[0],"split_type":[0],"sum_hessian":[8.1E1],"tree_param":{"num_deleted":"0","num_feature":"32","num_nodes":"1","size_leaf_vector":"0"}},{"base_weights":[5.815087E-9],"categories":[],"categories_nodes":[],"categories_segments":[],"categories_sizes":[],"default_left":[0],"id":55,"left_children":[-1],"loss_changes":[8.827427E-7],"parents":[2147483647],"right_children":[-1],"split_conditions":[5.815087E-9],"split_indices":[0],"split_type":[0],"sum_hessian":[8.1E1],"tree_param":{"num_deleted":"0","num_feature":"32","num_nodes":"1","size_leaf_vector":"0"}},{"base_weights":[5.815087E-9],"categories":[],"categories_nodes":[],"categories_segments":[],"categories_sizes":[],"default_left":[0],"id":56,"left_children":[-1],"loss_changes":[8.827427E-7],"parents":[2147483647],"right_children":[-1],"split_conditions":[5.815087E-9],"split_indices":[0],"split_type":[0],"sum_hessian":[8.1E1],"tree_param":{"num_deleted":"0","num_feature":"32","num_nodes":"1","size_leaf_vector":"0"}},{"base_weights":[5.815087E-9],"categories":[],"categories_nodes":[],"categories_segments":[],"categories_sizes":[],"default_left":[0],"id":57,"left_children":[-1],"loss_changes":[8.827427E-7],"parents":[2147483647],"right_children":[-1],"split_conditions":[5.815087E-9],"split_indices":[0],"split_type":[0],"sum_hessian":[8.1E1],"tree_param":{"num_deleted":"0","num_feature":"32","num_nodes":"1","size_leaf_vector":"0"}},{"base_weights":[5.815087E-9],"categories":[],"categories_nodes":[],"categories_segments":[],"categories_sizes":[],"default_left":[0],"id":58,"left_children":[-1],"loss_changes":[8.827427E-7],"parents":[2147483647],"right_children":[-1],"split_conditions":[5.815087E-9],"split_indices":[0],"split_type":[0],"sum_hessian":[8.1E1],"tree_param":{"num_deleted":"0","num_feature":"32","num_nodes":"1","size_leaf_vector":"0"}},{"base_weights":[5.815087E-9],"categories":[],"categories_nodes":[],"categories_segments":[],"categories_sizes":[],"default_left":[0],"id":59,"left_children":[-1],"loss_changes":[8.827427E-7],"parents":[2147483647],"right_children":[-1],"split_conditions":[5.815087E-9],"split_indices":[0],"split_type":[0],"sum_hessian":[8.1E1],"tree_param":{"num_deleted":"0","num_feature":"32","num_nodes":"1","size_leaf_vector":"0"}},{"base_weights":[5.815087E-9],"categories":[],"categories_nodes":[],"categories_segments":[],"categories_sizes":[],"default_left":[0],"id":60,"left_children":[-1],"loss_changes":[8.827427E-7],"parents":[2147483647],"right_children":[-1],"split_conditions":[5.815087E-9],"split_indices":[0],"split_type":[0],"sum_hessian":[8.1E1],"tree_param":{"num_deleted":"0","num_feature":"32","num_nodes":"1","size_leaf_vector":"0"}},{"base_weights":[5.815087E-9],"categories":[],"categories_nodes":[],"categories_segments":[],"categories_sizes":[],"default_left":[0],"id":61,"left_children":[-1],"loss_changes":[8.827427E-7],"parents":[2147483647],"right_children":[-1],"split_conditions":[5.815087E-9],"split_indices":[0],"split_type":[0],"sum_hessian":[8.1E1],"tree_param":{"num_deleted":"0","num_feature":"32","num_nodes":"1","size_leaf_vector":"0"}},{"base_weights":[5.815087E-9],"categories":[],"categories_nodes":[],"categories_segments":[],"categories_sizes":[],"default_left":[0],"id":62,"left_children":[-1],"loss_changes":[8.827427E-7],"parents":[2147483647],"right_children":[-1],"split_conditions":[5.815087E-9],"split_indices":[0],"split_type":[0],"sum_hessian":[8.1E1],"tree_param":{"num_deleted":"0","num_feature":"32","num_nodes":"1","size_leaf_vector":"0"}},{"base_weights":[5.815087E-9],"categories":[],"categories_nodes":[],"categories_segments":[],"categories_sizes":[],"default_left":[0],"id":63,"left_children":[-1],"loss_changes":[8.827427E-7],"parents":[2147483647],"right_children":[-1],"split_conditions":[5.815087E-9],"split_indices":[0],"split_type":[0],"sum_hessian":[8.1E1],"tree_param":{"num_deleted":"0","num_feature":"32","num_nodes":"1","size_leaf_vector":"0"}},{"base_weights":[5.815087E-9],"categories":[],"categories_nodes":[],"categories_segments":[],"categories_sizes":[],"default_left":[0],"id":64,"left_children":[-1],"loss_changes":[8.827427E-7],"parents":[2147483647],"right_children":[-1],"split_conditions":[5.815087E-9],"split_indices":[0],"split_type":[0],"sum_hessian":[8.1E1],"tree_param":{"num_deleted":"0","num_feature":"32","num_nodes":"1","size_leaf_vector":"0"}},{"base_weights":[5.815087E-9],"categories":[],"categories_nodes":[],"categories_segments":[],"categories_sizes":[],"default_left":[0],"id":65,"left_children":[-1],"loss_changes":[8.827427E-7],"parents":[2147483647],"right_children":[-1],"split_conditions":[5.815087E-9],"split_indices":[0],"split_type":[0],"sum_hessian":[8.1E1],"tree_param":{"num_deleted":"0","num_feature":"32","num_nodes":"1","size_leaf_vector":"0"}},{"base_weights":[5.815087E-9],"categories":[],"categories_nodes":[],"categories_segments":[],"categories_sizes":[],"default_left":[0],"id":66,"left_children":[-1],"loss_changes":[8.827427E-7],"parents":[2147483647],"right_children":[-1],"split_conditions":[5.815087E-9],"split_indices":[0],"split_type":[0],"sum_hessian":[8.1E1],"tree_param":{"num_deleted":"0","num_feature":"32","num_nodes":"1","size_leaf_vector":"0"}},{"base_weights":[5.815087E-9],"categories":[],"categories_nodes":[],"categories_segments":[],"categories_sizes":[],"default_left":[0],"id":67,"left_children":[-1],"loss_changes":[8.827427E-7],"parents":[2147483647],"right_children":[-1],"split_conditions":[5.815087E-9],"split_indices":[0],"split_type":[0],"sum_hessian":[8.1E1],"tree_param":{"num_deleted":"0","num_feature":"32","num_nodes":"1","size_leaf_vector":"0"}},{"base_weights":[5.815087E-9],"categories":[],"categories_nodes":[],"categories_segments":[],"categories_sizes":[],"default_left":[0],"id":68,"left_children":[-1],"loss_changes":[8.827427E-7],"parents":[2147483647],"right_children":[-1],"split_conditions":[5.815087E-9],"split_indices":[0],"split_type":[0],"sum_hessian":[8.1E1],"tree_param":{"num_deleted":"0","num_feature":"32","num_nodes":"1","size_leaf_vector":"0"}},{"base_weights":[5.815087E-9],"categories":[],"categories_nodes":[],"categories_segments":[],"categories_sizes":[],"default_left":[0],"id":69,"left_children":[-1],"loss_changes":[8.827427E-7],"parents":[2147483647],"right_children":[-1],"split_conditions":[5.815087E-9],"split_indices":[0],"split_type":[0],"sum_hessian":[8.1E1],"tree_param":{"num_deleted":"0","num_feature":"32","num_nodes":"1","size_leaf_vector":"0"}},{"base_weights":[5.815087E-9],"categories":[],"categories_nodes":[],"categories_segments":[],"categories_sizes":[],"default_left":[0],"id":70,"left_children":[-1],"loss_changes":[8.827427E-7],"parents":[2147483647],"right_children":[-1],"split_conditions":[5.815087E-9],"split_indices":[0],"split_type":[0],"sum_hessian":[8.1E1],"tree_param":{"num_deleted":"0","num_feature":"32","num_nodes":"1","size_leaf_vector":"0"}},{"base_weights":[5.815087E-9],"categories":[],"categories_nodes":[],"categories_segments":[],"categories_sizes":[],"default_left":[0],"id":71,"left_children":[-1],"loss_changes":[8.827427E-7],"parents":[2147483647],"right_children":[-1],"split_conditions":[5.815087E-9],"split_indices":[0],"split_type":[0],"sum_hessian":[8.1E1],"tree_param":{"num_deleted":"0","num_feature":"32","num_nodes":"1","size_leaf_vector":"0"}},{"base_weights":[5.815087E-9],"categories":[],"categories_nodes":[],"categories_segments":[],"categories_sizes":[],"default_left":[0],"id":72,"left_children":[-1],"loss_changes":[8.827427E-7],"parents":[2147483647],"right_children":[-1],"split_conditions":[5.815087E-9],"split_indices":[0],"split_type":[0],"sum_hessian":[8.1E1],"tree_param":{"num_deleted":"0","num_feature":"32","num_nodes":"1","size_leaf_vector":"0"}},{"base_weights":[5.815087E-9],"categories":[],"categories_nodes":[],"categories_segments":[],"categories_sizes":[],"default_left":[0],"id":73,"left_children":[-1],"loss_changes":[8.827427E-7],"parents":[2147483647],"right_children":[-1],"split_conditions":[5.815087E-9],"split_indices":[0],"split_type":[0],"sum_hessian":[8.1E1],"tree_param":{"num_deleted":"0","num_feature":"32","num_nodes":"1","size_leaf_vector":"0"}},{"base_weights":[5.815087E-9],"categories":[],"categories_nodes":[],"categories_segments":[],"categories_sizes":[],"default_left":[0],"id":74,"left_children":[-1],"loss_changes":[8.827427E-7],"parents":[2147483647],"right_children":[-1],"split_conditions":[5.815087E-9],"split_indices":[0],"split_type":[0],"sum_hessian":[8.1E1],"tree_param":{"num_deleted":"0","num_feature":"32","num_nodes":"1","size_leaf_vector":"0"}},{"base_weights":[5.815087E-9],"categories":[],"categories_nodes":[],"categories_segments":[],"categories_sizes":[],"default_left":[0],"id":75,"left_children":[-1],"loss_changes":[8.827427E-7],"parents":[2147483647],"right_children":[-1],"split_conditions":[5.815087E-9],"split_indices":[0],"split_type":[0],"sum_hessian":[8.1E1],"tree_param":{"num_deleted":"0","num_feature":"32","num_nodes":"1","size_leaf_vector":"0"}},{"base_weights":[5.815087E-9],"categories":[],"categories_nodes":[],"categories_segments":[],"categories_sizes":[],"default_left":[0],"id":76,"left_children":[-1],"loss_changes":[8.827427E-7],"parents":[2147483647],"right_children":[-1],"split_conditions":[5.815087E-9],"split_indices":[0],"split_type":[0],"sum_hessian":[8.1E1],"tree_param":{"num_deleted":"0","num_feature":"32","num_nodes":"1","size_leaf_vector":"0"}},{"base_weights":[5.815087E-9],"categories":[],"categories_nodes":[],"categories_segments":[],"categories_sizes":[],"default_left":[0],"id":77,"left_children":[-1],"loss_changes":[8.827427E-7],"parents":[2147483647],"right_children":[-1],"split_conditions":[5.815087E-9],"split_indices":[0],"split_type":[0],"sum_hessian":[8.1E1],"tree_param":{"num_deleted":"0","num_feature":"32","num_nodes":"1","size_leaf_vector":"0"}},{"base_weights":[5.815087E-9],"categories":[],"categories_nodes":[],"categories_segments":[],"categories_sizes":[],"default_left":[0],"id":78,"left_children":[-1],"loss_changes":[8.827427E-7],"parents":[2147483647],"right_children":[-1],"split_conditions":[5.815087E-9],"split_indices":[0],"split_type":[0],"sum_hessian":[8.1E1],"tree_param":{"num_deleted":"0","num_feature":"32","num_nodes":"1","size_leaf_vector":"0"}},{"base_weights":[5.815087E-9],"categories":[],"categories_nodes":[],"categories_segments":[],"categories_sizes":[],"default_left":[0],"id":79,"left_children":[-1],"loss_changes":[8.827427E-7],"parents":[2147483647],"right_children":[-1],"split_conditions":[5.815087E-9],"split_indices":[0],"split_type":[0],"sum_hessian":[8.1E1],"tree_param":{"num_deleted":"0","num_feature":"32","num_nodes":"1","size_leaf_vector":"0"}},{"base_weights":[5.815087E-9],"categories":[],"categories_nodes":[],"categories_segments":[],"categories_sizes":[],"default_left":[0],"id":80,"left_children":[-1],"loss_changes":[8.827427E-7],"parents":[2147483647],"right_children":[-1],"split_conditions":[5.815087E-9],"split_indices":[0],"split_type":[0],"sum_hessian":[8.1E1],"tree_param":{"num_deleted":"0","num_feature":"32","num_nodes":"1","size_leaf_vector":"0"}},{"base_weights":[5.815087E-9],"categories":[],"categories_nodes":[],"categories_segments":[],"categories_sizes":[],"default_left":[0],"id":81,"left_children":[-1],"loss_changes":[8.827427E-7],"parents":[2147483647],"right_children":[-1],"split_conditions":[5.815087E-9],"split_indices":[0],"split_type":[0],"sum_hessian":[8.1E1],"tree_param":{"num_deleted":"0","num_feature":"32","num_nodes":"1","size_leaf_vector":"0"}},{"base_weights":[5.815087E-9],"categories":[],"categories_nodes":[],"categories_segments":[],"categories_sizes":[],"default_left":[0],"id":82,"left_children":[-1],"loss_changes":[8.827427E-7],"parents":[2147483647],"right_children":[-1],"split_conditions":[5.815087E-9],"split_indices":[0],"split_type":[0],"sum_hessian":[8.1E1],"tree_param":{"num_deleted":"0","num_feature":"32","num_nodes":"1","size_leaf_vector":"0"}},{"base_weights":[5.815087E-9],"categories":[],"categories_nodes":[],"categories_segments":[],"categories_sizes":[],"default_left":[0],"id":83,"left_children":[-1],"loss_changes":[8.827427E-7],"parents":[2147483647],"right_children":[-1],"split_conditions":[5.815087E-9],"split_indices":[0],"split_type":[0],"sum_hessian":[8.1E1],"tree_param":{"num_deleted":"0","num_feature":"32","num_nodes":"1","size_leaf_vector":"0"}},{"base_weights":[5.815087E-9],"categories":[],"categories_nodes":[],"categories_segments":[],"categories_sizes":[],"default_left":[0],"id":84,"left_children":[-1],"loss_changes":[8.827427E-7],"parents":[2147483647],"right_children":[-1],"split_conditions":[5.815087E-9],"split_indices":[0],"split_type":[0],"sum_hessian":[8.1E1],"tree_param":{"num_deleted":"0","num_feature":"32","num_nodes":"1","size_leaf_vector":"0"}},{"base_weights":[5.815087E-9],"categories":[],"categories_nodes":[],"categories_segments":[],"categories_sizes":[],"default_left":[0],"id":85,"left_children":[-1],"loss_changes":[8.827427E-7],"parents":[2147483647],"right_children":[-1],"split_conditions":[5.815087E-9],"split_indices":[0],"split_type":[0],"sum_hessian":[8.1E1],"tree_param":{"num_deleted":"0","num_feature":"32","num_nodes":"1","size_leaf_vector":"0"}},{"base_weights":[5.815087E-9],"categories":[],"categories_nodes":[],"categories_segments":[],"categories_sizes":[],"default_left":[0],"id":86,"left_children":[-1],"loss_changes":[8.827427E-7],"parents":[2147483647],"right_children":[-1],"split_conditions":[5.815087E-9],"split_indices":[0],"split_type":[0],"sum_hessian":[8.1E1],"tree_param":{"num_deleted":"0","num_feature":"32","num_nodes":"1","size_leaf_vector":"0"}},{"base_weights":[5.815087E-9],"categories":[],"categories_nodes":[],"categories_segments":[],"categories_sizes":[],"default_left":[0],"id":87,"left_children":[-1],"loss_changes":[8.827427E-7],"parents":[2147483647],"right_children":[-1],"split_conditions":[5.815087E-9],"split_indices":[0],"split_type":[0],"sum_hessian":[8.1E1],"tree_param":{"num_deleted":"0","num_feature":"32","num_nodes":"1","size_leaf_vector":"0"}},{"base_weights":[5.815087E-9],"categories":[],"categories_nodes":[],"categories_segments":[],"categories_sizes":[],"default_left":[0],"id":88,"left_children":[-1],"loss_changes":[8.827427E-7],"parents":[2147483647],"right_children":[-1],"split_conditions":[5.815087E-9],"split_indices":[0],"split_type":[0],"sum_hessian":[8.1E1],"tree_param":{"num_deleted":"0","num_feature":"32","num_nodes":"1","size_leaf_vector":"0"}},{"base_weights":[5.815087E-9],"categories":[],"categories_nodes":[],"categories_segments":[],"categories_sizes":[],"default_left":[0],"id":89,"left_children":[-1],"loss_changes":[8.827427E-7],"parents":[2147483647],"right_children":[-1],"split_conditions":[5.815087E-9],"split_indices":[0],"split_type":[0],"sum_hessian":[8.1E1],"tree_param":{"num_deleted":"0","num_feature":"32","num_nodes":"1","size_leaf_vector":"0"}},{"base_weights":[5.815087E-9],"categories":[],"categories_nodes":[],"categories_segments":[],"categories_sizes":[],"default_left":[0],"id":90,"left_children":[-1],"loss_changes":[8.827427E-7],"parents":[2147483647],"right_children":[-1],"split_conditions":[5.815087E-9],"split_indices":[0],"split_type":[0],"sum_hessian":[8.1E1],"tree_param":{"num_deleted":"0","num_feature":"32","num_nodes":"1","size_leaf_vector":"0"}},{"base_weights":[5.815087E-9],"categories":[],"categories_nodes":[],"categories_segments":[],"categories_sizes":[],"default_left":[0],"id":91,"left_children":[-1],"loss_changes":[8.827427E-7],"parents":[2147483647],"right_children":[-1],"split_conditions":[5.815087E-9],"split_indices":[0],"split_type":[0],"sum_hessian":[8.1E1],"tree_param":{"num_deleted":"0","num_feature":"32","num_nodes":"1","size_leaf_vector":"0"}},{"base_weights":[5.815087E-9],"categories":[],"categories_nodes":[],"categories_segments":[],"categories_sizes":[],"default_left":[0],"id":92,"left_children":[-1],"loss_changes":[8.827427E-7],"parents":[2147483647],"right_children":[-1],"split_conditions":[5.815087E-9],"split_indices":[0],"split_type":[0],"sum_hessian":[8.1E1],"tree_param":{"num_deleted":"0","num_feature":"32","num_nodes":"1","size_leaf_vector":"0"}},{"base_weights":[5.815087E-9],"categories":[],"categories_nodes":[],"categories_segments":[],"categories_sizes":[],"default_left":[0],"id":93,"left_children":[-1],"loss_changes":[8.827427E-7],"parents":[2147483647],"right_children":[-1],"split_conditions":[5.815087E-9],"split_indices":[0],"split_type":[0],"sum_hessian":[8.1E1],"tree_param":{"num_deleted":"0","num_feature":"32","num_nodes":"1","size_leaf_vector":"0"}},{"base_weights":[5.815087E-9],"categories":[],"categories_nodes":[],"categories_segments":[],"categories_sizes":[],"default_left":[0],"id":94,"left_children":[-1],"loss_changes":[8.827427E-7],"parents":[2147483647],"right_children":[-1],"split_conditions":[5.815087E-9],"split_indices":[0],"split_type":[0],"sum_hessian":[8.1E1],"tree_param":{"num_deleted":"0","num_feature":"32","num_nodes":"1","size_leaf_vector":"0"}},{"base_weights":[5.815087E-9],"categories":[],"categories_nodes":[],"categories_segments":[],"categories_sizes":[],"default_left":[0],"id":95,"left_children":[-1],"loss_changes":[8.827427E-7],"parents":[2147483647],"right_children":[-1],"split_conditions":[5.815087E-9],"split_indices":[0],"split_type":[0],"sum_hessian":[8.1E1],"tree_param":{"num_deleted":"0","num_feature":"32","num_nodes":"1","size_leaf_vector":"0"}},{"base_weights":[5.815087E-9],"categories":[],"categories_nodes":[],"categories_segments":[],"categories_sizes":[],"default_left":[0],"id":96,"left_children":[-1],"loss_changes":[8.827427E-7],"parents":[2147483647],"right_children":[-1],"split_conditions":[5.815087E-9],"split_indices":[0],"split_type":[0],"sum_hessian":[8.1E1],"tree_param":{"num_deleted":"0","num_feature":"32","num_nodes":"1","size_leaf_vector":"0"}},{"base_weights":[5.815087E-9],"categories":[],"categories_nodes":[],"categories_segments":[],"categories_sizes":[],"default_left":[0],"id":97,"left_children":[-1],"loss_changes":[8.827427E-7],"parents":[2147483647],"right_children":[-1],"split_conditions":[5.815087E-9],"split_indices":[0],"split_type":[0],"sum_hessian":[8.1E1],"tree_param":{"num_deleted":"0","num_feature":"32","num_nodes":"1","size_leaf_vector":"0"}},{"base_weights":[5.815087E-9],"categories":[],"categories_nodes":[],"categories_segments":[],"categories_sizes":[],"default_left":[0],"id":98,"left_children":[-1],"loss_changes":[8.827427E-7],"parents":[2147483647],"right_children":[-1],"split_conditions":[5.815087E-9],"split_indices":[0],"split_type":[0],"sum_hessian":[8.1E1],"tree_param":{"num_deleted":"0","num_feature":"32","num_nodes":"1","size_leaf_vector":"0"}},{"base_weights":[5.815087E-9],"categories":[],"categories_nodes":[],"categories_segments":[],"categories_sizes":[],"default_left":[0],"id":99,"left_children":[-1],"loss_changes":[8.827427E-7],"parents":[2147483647],"right_children":[-1],"split_conditions":[5.815087E-9],"split_indices":[0],"split_type":[0],"sum_hessian":[8.1E1],"tree_param":{"num_deleted":"0","num_feature":"32","num_nodes":"1","size_leaf_vector":"0"}},{"base_weights":[5.815087E-9],"categories":[],"categories_nodes":[],"categories_segments":[],"categories_sizes":[],"default_left":[0],"id":100,"left_children":[-1],"loss_changes":[8.827427E-7],"parents":[2147483647],"right_children":[-1],"split_conditions":[5.815087E-9],"split_indices":[0],"split_type":[0],"sum_hessian":[8.1E1],"tree_param":{"num_deleted":"0","num_feature":"32","num_nodes":"1","size_leaf_vector":"0"}},{"base_weights":[5.815087E-9],"categories":[],"categories_nodes":[],"categories_segments":[],"categories_sizes":[],"default_left":[0],"id":101,"left_children":[-1],"loss_changes":[8.827427E-7],"parents":[2147483647],"right_children":[-1],"split_conditions":[5.815087E-9],"split_indices":[0],"split_type":[0],"sum_hessian":[8.1E1],"tree_param":{"num_deleted":"0","num_feature":"32","num_nodes":"1","size_leaf_vector":"0"}},{"base_weights":[5.815087E-9],"categories":[],"categories_nodes":[],"categories_segments":[],"categories_sizes":[],"default_left":[0],"id":102,"left_children":[-1],"loss_changes":[8.827427E-7],"parents":[2147483647],"right_children":[-1],"split_conditions":[5.815087E-9],"split_indices":[0],"split_type":[0],"sum_hessian":[8.1E1],"tree_param":{"num_deleted":"0","num_feature":"32","num_nodes":"1","size_leaf_vector":"0"}},{"base_weights":[5.815087E-9],"categories":[],"categories_nodes":[],"categories_segments":[],"categories_sizes":[],"default_left":[0],"id":103,"left_children":[-1],"loss_changes":[8.827427E-7],"parents":[2147483647],"right_children":[-1],"split_conditions":[5.815087E-9],"split_indices":[0],"split_type":[0],"sum_hessian":[8.1E1],"tree_param":{"num_deleted":"0","num_feature":"32","num_nodes":"1","size_leaf_vector":"0"}},{"base_weights":[5.815087E-9],"categories":[],"categories_nodes":[],"categories_segments":[],"categories_sizes":[],"default_left":[0],"id":104,"left_children":[-1],"loss_changes":[8.827427E-7],"parents":[2147483647],"right_children":[-1],"split_conditions":[5.815087E-9],"split_indices":[0],"split_type":[0],"sum_hessian":[8.1E1],"tree_param":{"num_deleted":"0","num_feature":"32","num_nodes":"1","size_leaf_vector":"0"}},{"base_weights":[5.815087E-9],"categories":[],"categories_nodes":[],"categories_segments":[],"categories_sizes":[],"default_left":[0],"id":105,"left_children":[-1],"loss_changes":[8.827427E-7],"parents":[2147483647],"right_children":[-1],"split_conditions":[5.815087E-9],"split_indices":[0],"split_type":[0],"sum_hessian":[8.1E1],"tree_param":{"num_deleted":"0","num_feature":"32","num_nodes":"1","size_leaf_vector":"0"}},{"base_weights":[5.815087E-9],"categories":[],"categories_nodes":[],"categories_segments":[],"categories_sizes":[],"default_left":[0],"id":106,"left_children":[-1],"loss_changes":[8.827427E-7],"parents":[2147483647],"right_children":[-1],"split_conditions":[5.815087E-9],"split_indices":[0],"split_type":[0],"sum_hessian":[8.1E1],"tree_param":{"num_deleted":"0","num_feature":"32","num_nodes":"1","size_leaf_vector":"0"}},{"base_weights":[5.815087E-9],"categories":[],"categories_nodes":[],"categories_segments":[],"categories_sizes":[],"default_left":[0],"id":107,"left_children":[-1],"loss_changes":[8.827427E-7],"parents":[2147483647],"right_children":[-1],"split_conditions":[5.815087E-9],"split_indices":[0],"split_type":[0],"sum_hessian":[8.1E1],"tree_param":{"num_deleted":"0","num_feature":"32","num_nodes":"1","size_leaf_vector":"0"}},{"base_weights":[5.815087E-9],"categories":[],"categories_nodes":[],"categories_segments":[],"categories_sizes":[],"default_left":[0],"id":108,"left_children":[-1],"loss_changes":[8.827427E-7],"parents":[2147483647],"right_children":[-1],"split_conditions":[5.815087E-9],"split_indices":[0],"split_type":[0],"sum_hessian":[8.1E1],"tree_param":{"num_deleted":"0","num_feature":"32","num_nodes":"1","size_leaf_vector":"0"}},{"base_weights":[5.815087E-9],"categories":[],"categories_nodes":[],"categories_segments":[],"categories_sizes":[],"default_left":[0],"id":109,"left_children":[-1],"loss_changes":[8.827427E-7],"parents":[2147483647],"right_children":[-1],"split_conditions":[5.815087E-9],"split_indices":[0],"split_type":[0],"sum_hessian":[8.1E1],"tree_param":{"num_deleted":"0","num_feature":"32","num_nodes":"1","size_leaf_vector":"0"}},{"base_weights":[5.815087E-9],"categories":[],"categories_nodes":[],"categories_segments":[],"categories_sizes":[],"default_left":[0],"id":110,"left_children":[-1],"loss_changes":[8.827427E-7],"parents":[2147483647],"right_children":[-1],"split_conditions":[5.815087E-9],"split_indices":[0],"split_type":[0],"sum_hessian":[8.1E1],"tree_param":{"num_deleted":"0","num_feature":"32","num_nodes":"1","size_leaf_vector":"0"}},{"base_weights":[5.815087E-9],"categories":[],"categories_nodes":[],"categories_segments":[],"categories_sizes":[],"default_left":[0],"id":111,"left_children":[-1],"loss_changes":[8.827427E-7],"parents":[2147483647],"right_children":[-1],"split_conditions":[5.815087E-9],"split_indices":[0],"split_type":[0],"sum_hessian":[8.1E1],"tree_param":{"num_deleted":"0","num_feature":"32","num_nodes":"1","size_leaf_vector":"0"}},{"base_weights":[5.815087E-9],"categories":[],"categories_nodes":[],"categories_segments":[],"categories_sizes":[],"default_left":[0],"id":112,"left_children":[-1],"loss_changes":[8.827427E-7],"parents":[2147483647],"right_children":[-1],"split_conditions":[5.815087E-9],"split_indices":[0],"split_type":[0],"sum_hessian":[8.1E1],"tree_param":{"num_deleted":"0","num_feature":"32","num_nodes":"1","size_leaf_vector":"0"}},{"base_weights":[5.815087E-9],"categories":[],"categories_nodes":[],"categories_segments":[],"categories_sizes":[],"default_left":[0],"id":113,"left_children":[-1],"loss_changes":[8.827427E-7],"parents":[2147483647],"right_children":[-1],"split_conditions":[5.815087E-9],"split_indices":[0],"split_type":[0],"sum_hessian":[8.1E1],"tree_param":{"num_deleted":"0","num_feature":"32","num_nodes":"1","size_leaf_vector":"0"}},{"base_weights":[5.815087E-9],"categories":[],"categories_nodes":[],"categories_segments":[],"categories_sizes":[],"default_left":[0],"id":114,"left_children":[-1],"loss_changes":[8.827427E-7],"parents":[2147483647],"right_children":[-1],"split_conditions":[5.815087E-9],"split_indices":[0],"split_type":[0],"sum_hessian":[8.1E1],"tree_param":{"num_deleted":"0","num_feature":"32","num_nodes":"1","size_leaf_vector":"0"}},{"base_weights":[5.815087E-9],"categories":[],"categories_nodes":[],"categories_segments":[],"categories_sizes":[],"default_left":[0],"id":115,"left_children":[-1],"loss_changes":[8.827427E-7],"parents":[2147483647],"right_children":[-1],"split_conditions":[5.815087E-9],"split_indices":[0],"split_type":[0],"sum_hessian":[8.1E1],"tree_param":{"num_deleted":"0","num_feature":"32","num_nodes":"1","size_leaf_vector":"0"}},{"base_weights":[5.815087E-9],"categories":[],"categories_nodes":[],"categories_segments":[],"categories_sizes":[],"default_left":[0],"id":116,"left_children":[-1],"loss_changes":[8.827427E-7],"parents":[2147483647],"right_children":[-1],"split_conditions":[5.815087E-9],"split_indices":[0],"split_type":[0],"sum_hessian":[8.1E1],"tree_param":{"num_deleted":"0","num_feature":"32","num_nodes":"1","size_leaf_vector":"0"}},{"base_weights":[5.815087E-9],"categories":[],"categories_nodes":[],"categories_segments":[],"categories_sizes":[],"default_left":[0],"id":117,"left_children":[-1],"loss_changes":[8.827427E-7],"parents":[2147483647],"right_children":[-1],"split_conditions":[5.815087E-9],"split_indices":[0],"split_type":[0],"sum_hessian":[8.1E1],"tree_param":{"num_deleted":"0","num_feature":"32","num_nodes":"1","size_leaf_vector":"0"}},{"base_weights":[5.815087E-9],"categories":[],"categories_nodes":[],"categories_segments":[],"categories_sizes":[],"default_left":[0],"id":118,"left_children":[-1],"loss_changes":[8.827427E-7],"parents":[2147483647],"right_children":[-1],"split_conditions":[5.815087E-9],"split_indices":[0],"split_type":[0],"sum_hessian":[8.1E1],"tree_param":{"num_deleted":"0","num_feature":"32","num_nodes":"1","size_leaf_vector":"0"}},{"base_weights":[5.815087E-9],"categories":[],"categories_nodes":[],"categories_segments":[],"categories_sizes":[],"default_left":[0],"id":119,"left_children":[-1],"loss_changes":[8.827427E-7],"parents":[2147483647],"right_children":[-1],"split_conditions":[5.815087E-9],"split_indices":[0],"split_type":[0],"sum_hessian":[8.1E1],"tree_param":{"num_deleted":"0","num_feature":"32","num_nodes":"1","size_leaf_vector":"0"}},{"base_weights":[5.815087E-9],"categories":[],"categories_nodes":[],"categories_segments":[],"categories_sizes":[],"default_left":[0],"id":120,"left_children":[-1],"loss_changes":[8.827427E-7],"parents":[2147483647],"right_children":[-1],"split_conditions":[5.815087E-9],"split_indices":[0],"split_type":[0],"sum_hessian":[8.1E1],"tree_param":{"num_deleted":"0","num_feature":"32","num_nodes":"1","size_leaf_vector":"0"}},{"base_weights":[5.815087E-9],"categories":[],"categories_nodes":[],"categories_segments":[],"categories_sizes":[],"default_left":[0],"id":121,"left_children":[-1],"loss_changes":[8.827427E-7],"parents":[2147483647],"right_children":[-1],"split_conditions":[5.815087E-9],"split_indices":[0],"split_type":[0],"sum_hessian":[8.1E1],"tree_param":{"num_deleted":"0","num_feature":"32","num_nodes":"1","size_leaf_vector":"0"}},{"base_weights":[5.815087E-9],"categories":[],"categories_nodes":[],"categories_segments":[],"categories_sizes":[],"default_left":[0],"id":122,"left_children":[-1],"loss_changes":[8.827427E-7],"parents":[2147483647],"right_children":[-1],"split_conditions":[5.815087E-9],"split_indices":[0],"split_type":[0],"sum_hessian":[8.1E1],"tree_param":{"num_deleted":"0","num_feature":"32","num_nodes":"1","size_leaf_vector":"0"}},{"base_weights":[5.815087E-9],"categories":[],"categories_nodes":[],"categories_segments":[],"categories_sizes":[],"default_left":[0],"id":123,"left_children":[-1],"loss_changes":[8.827427E-7],"parents":[2147483647],"right_children":[-1],"split_conditions":[5.815087E-9],"split_indices":[0],"split_type":[0],"sum_hessian":[8.1E1],"tree_param":{"num_deleted":"0","num_feature":"32","num_nodes":"1","size_leaf_vector":"0"}},{"base_weights":[5.815087E-9],"categories":[],"categories_nodes":[],"categories_segments":[],"categories_sizes":[],"default_left":[0],"id":124,"left_children":[-1],"loss_changes":[8.827427E-7],"parents":[2147483647],"right_children":[-1],"split_conditions":[5.815087E-9],"split_indices":[0],"split_type":[0],"sum_hessian":[8.1E1],"tree_param":{"num_deleted":"0","num_feature":"32","num_nodes":"1","size_leaf_vector":"0"}},{"base_weights":[5.815087E-9],"categories":[],"categories_nodes":[],"categories_segments":[],"categories_sizes":[],"default_left":[0],"id":125,"left_children":[-1],"loss_changes":[8.827427E-7],"parents":[2147483647],"right_children":[-1],"split_conditions":[5.815087E-9],"split_indices":[0],"split_type":[0],"sum_hessian":[8.1E1],"tree_param":{"num_deleted":"0","num_feature":"32","num_nodes":"1","size_leaf_vector":"0"}},{"base_weights":[5.815087E-9],"categories":[],"categories_nodes":[],"categories_segments":[],"categories_sizes":[],"default_left":[0],"id":126,"left_children":[-1],"loss_changes":[8.827427E-7],"parents":[2147483647],"right_children":[-1],"split_conditions":[5.815087E-9],"split_indices":[0],"split_type":[0],"sum_hessian":[8.1E1],"tree_param":{"num_deleted":"0","num_feature":"32","num_nodes":"1","size_leaf_vector":"0"}},{"base_weights":[5.815087E-9],"categories":[],"categories_nodes":[],"categories_segments":[],"categories_sizes":[],"default_left":[0],"id":127,"left_children":[-1],"loss_changes":[8.827427E-7],"parents":[2147483647],"right_children":[-1],"split_conditions":[5.815087E-9],"split_indices":[0],"split_type":[0],"sum_hessian":[8.1E1],"tree_param":{"num_deleted":"0","num_feature":"32","num_nodes":"1","size_leaf_vector":"0"}},{"base_weights":[5.815087E-9],"categories":[],"categories_nodes":[],"categories_segments":[],"categories_sizes":[],"default_left":[0],"id":128,"left_children":[-1],"loss_changes":[8.827427E-7],"parents":[2147483647],"right_children":[-1],"split_conditions":[5.815087E-9],"split_indices":[0],"split_type":[0],"sum_hessian":[8.1E1],"tree_param":{"num_deleted":"0","num_feature":"32","num_nodes":"1","size_leaf_vector":"0"}},{"base_weights":[5.815087E-9],"categories":[],"categories_nodes":[],"categories_segments":[],"categories_sizes":[],"default_left":[0],"id":129,"left_children":[-1],"loss_changes":[8.827427E-7],"parents":[2147483647],"right_children":[-1],"split_conditions":[5.815087E-9],"split_indices":[0],"split_type":[0],"sum_hessian":[8.1E1],"tree_param":{"num_deleted":"0","num_feature":"32","num_nodes":"1","size_leaf_vector":"0"}},{"base_weights":[5.815087E-9],"categories":[],"categories_nodes":[],"categories_segments":[],"categories_sizes":[],"default_left":[0],"id":130,"left_children":[-1],"loss_changes":[8.827427E-7],"parents":[2147483647],"right_children":[-1],"split_conditions":[5.815087E-9],"split_indices":[0],"split_type":[0],"sum_hessian":[8.1E1],"tree_param":{"num_deleted":"0","num_feature":"32","num_nodes":"1","size_leaf_vector":"0"}},{"base_weights":[5.815087E-9],"categories":[],"categories_nodes":[],"categories_segments":[],"categories_sizes":[],"default_left":[0],"id":131,"left_children":[-1],"loss_changes":[8.827427E-7],"parents":[2147483647],"right_children":[-1],"split_conditions":[5.815087E-9],"split_indices":[0],"split_type":[0],"sum_hessian":[8.1E1],"tree_param":{"num_deleted":"0","num_feature":"32","num_nodes":"1","size_leaf_vector":"0"}},{"base_weights":[5.815087E-9],"categories":[],"categories_nodes":[],"categories_segments":[],"categories_sizes":[],"default_left":[0],"id":132,"left_children":[-1],"loss_changes":[8.827427E-7],"parents":[2147483647],"right_children":[-1],"split_conditions":[5.815087E-9],"split_indices":[0],"split_type":[0],"sum_hessian":[8.1E1],"tree_param":{"num_deleted":"0","num_feature":"32","num_nodes":"1","size_leaf_vector":"0"}},{"base_weights":[5.815087E-9],"categories":[],"categories_nodes":[],"categories_segments":[],"categories_sizes":[],"default_left":[0],"id":133,"left_children":[-1],"loss_changes":[8.827427E-7],"parents":[2147483647],"right_children":[-1],"split_conditions":[5.815087E-9],"split_indices":[0],"split_type":[0],"sum_hessian":[8.1E1],"tree_param":{"num_deleted":"0","num_feature":"32","num_nodes":"1","size_leaf_vector":"0"}},{"base_weights":[5.815087E-9],"categories":[],"categories_nodes":[],"categories_segments":[],"categories_sizes":[],"default_left":[0],"id":134,"left_children":[-1],"loss_changes":[8.827427E-7],"parents":[2147483647],"right_children":[-1],"split_conditions":[5.815087E-9],"split_indices":[0],"split_type":[0],"sum_hessian":[8.1E1],"tree_param":{"num_deleted":"0","num_feature":"32","num_nodes":"1","size_leaf_vector":"0"}},{"base_weights":[5.815087E-9],"categories":[],"categories_nodes":[],"categories_segments":[],"categories_sizes":[],"default_left":[0],"id":135,"left_children":[-1],"loss_changes":[8.827427E-7],"parents":[2147483647],"right_children":[-1],"split_conditions":[5.815087E-9],"split_indices":[0],"split_type":[0],"sum_hessian":[8.1E1],"tree_param":{"num_deleted":"0","num_feature":"32","num_nodes":"1","size_leaf_vector":"0"}},{"base_weights":[5.815087E-9],"categories":[],"categories_nodes":[],"categories_segments":[],"categories_sizes":[],"default_left":[0],"id":136,"left_children":[-1],"loss_changes":[8.827427E-7],"parents":[2147483647],"right_children":[-1],"split_conditions":[5.815087E-9],"split_indices":[0],"split_type":[0],"sum_hessian":[8.1E1],"tree_param":{"num_deleted":"0","num_feature":"32","num_nodes":"1","size_leaf_vector":"0"}},{"base_weights":[5.815087E-9],"categories":[],"categories_nodes":[],"categories_segments":[],"categories_sizes":[],"default_left":[0],"id":137,"left_children":[-1],"loss_changes":[8.827427E-7],"parents":[2147483647],"right_children":[-1],"split_conditions":[5.815087E-9],"split_indices":[0],"split_type":[0],"sum_hessian":[8.1E1],"tree_param":{"num_deleted":"0","num_feature":"32","num_nodes":"1","size_leaf_vector":"0"}},{"base_weights":[5.815087E-9],"categories":[],"categories_nodes":[],"categories_segments":[],"categories_sizes":[],"default_left":[0],"id":138,"left_children":[-1],"loss_changes":[8.827427E-7],"parents":[2147483647],"right_children":[-1],"split_conditions":[5.815087E-9],"split_indices":[0],"split_type":[0],"sum_hessian":[8.1E1],"tree_param":{"num_deleted":"0","num_feature":"32","num_nodes":"1","size_leaf_vector":"0"}},{"base_weights":[5.815087E-9],"categories":[],"categories_nodes":[],"categories_segments":[],"categories_sizes":[],"default_left":[0],"id":139,"left_children":[-1],"loss_changes":[8.827427E-7],"parents":[2147483647],"right_children":[-1],"split_conditions":[5.815087E-9],"split_indices":[0],"split_type":[0],"sum_hessian":[8.1E1],"tree_param":{"num_deleted":"0","num_feature":"32","num_nodes":"1","size_leaf_vector":"0"}},{"base_weights":[5.815087E-9],"categories":[],"categories_nodes":[],"categories_segments":[],"categories_sizes":[],"default_left":[0],"id":140,"left_children":[-1],"loss_changes":[8.827427E-7],"parents":[2147483647],"right_children":[-1],"split_conditions":[5.815087E-9],"split_indices":[0],"split_type":[0],"sum_hessian":[8.1E1],"tree_param":{"num_deleted":"0","num_feature":"32","num_nodes":"1","size_leaf_vector":"0"}},{"base_weights":[5.815087E-9],"categories":[],"categories_nodes":[],"categories_segments":[],"categories_sizes":[],"default_left":[0],"id":141,"left_children":[-1],"loss_changes":[8.827427E-7],"parents":[2147483647],"right_children":[-1],"split_conditions":[5.815087E-9],"split_indices":[0],"split_type":[0],"sum_hessian":[8.1E1],"tree_param":{"num_deleted":"0","num_feature":"32","num_nodes":"1","size_leaf_vector":"0"}},{"base_weights":[5.815087E-9],"categories":[],"categories_nodes":[],"categories_segments":[],"categories_sizes":[],"default_left":[0],"id":142,"left_children":[-1],"loss_changes":[8.827427E-7],"parents":[2147483647],"right_children":[-1],"split_conditions":[5.815087E-9],"split_indices":[0],"split_type":[0],"sum_hessian":[8.1E1],"tree_param":{"num_deleted":"0","num_feature":"32","num_nodes":"1","size_leaf_vector":"0"}},{"base_weights":[5.815087E-9],"categories":[],"categories_nodes":[],"categories_segments":[],"categories_sizes":[],"default_left":[0],"id":143,"left_children":[-1],"loss_changes":[8.827427E-7],"parents":[2147483647],"right_children":[-1],"split_conditions":[5.815087E-9],"split_indices":[0],"split_type":[0],"sum_hessian":[8.1E1],"tree_param":{"num_deleted":"0","num_feature":"32","num_nodes":"1","size_leaf_vector":"0"}},{"base_weights":[5.815087E-9],"categories":[],"categories_nodes":[],"categories_segments":[],"categories_sizes":[],"default_left":[0],"id":144,"left_children":[-1],"loss_changes":[8.827427E-7],"parents":[2147483647],"right_children":[-1],"split_conditions":[5.815087E-9],"split_indices":[0],"split_type":[0],"sum_hessian":[8.1E1],"tree_param":{"num_deleted":"0","num_feature":"32","num_nodes":"1","size_leaf_vector":"0"}},{"base_weights":[5.815087E-9],"categories":[],"categories_nodes":[],"categories_segments":[],"categories_sizes":[],"default_left":[0],"id":145,"left_children":[-1],"loss_changes":[8.827427E-7],"parents":[2147483647],"right_children":[-1],"split_conditions":[5.815087E-9],"split_indices":[0],"split_type":[0],"sum_hessian":[8.1E1],"tree_param":{"num_deleted":"0","num_feature":"32","num_nodes":"1","size_leaf_vector":"0"}},{"base_weights":[5.815087E-9],"categories":[],"categories_nodes":[],"categories_segments":[],"categories_sizes":[],"default_left":[0],"id":146,"left_children":[-1],"loss_changes":[8.827427E-7],"parents":[2147483647],"right_children":[-1],"split_conditions":[5.815087E-9],"split_indices":[0],"split_type":[0],"sum_hessian":[8.1E1],"tree_param":{"num_deleted":"0","num_feature":"32","num_nodes":"1","size_leaf_vector":"0"}},{"base_weights":[5.815087E-9],"categories":[],"categories_nodes":[],"categories_segments":[],"categories_sizes":[],"default_left":[0],"id":147,"left_children":[-1],"loss_changes":[8.827427E-7],"parents":[2147483647],"right_children":[-1],"split_conditions":[5.815087E-9],"split_indices":[0],"split_type":[0],"sum_hessian":[8.1E1],"tree_param":{"num_deleted":"0","num_feature":"32","num_nodes":"1","size_leaf_vector":"0"}},{"base_weights":[5.815087E-9],"categories":[],"categories_nodes":[],"categories_segments":[],"categories_sizes":[],"default_left":[0],"id":148,"left_children":[-1],"loss_changes":[8.827427E-7],"parents":[2147483647],"right_children":[-1],"split_conditions":[5.815087E-9],"split_indices":[0],"split_type":[0],"sum_hessian":[8.1E1],"tree_param":{"num_deleted":"0","num_feature":"32","num_nodes":"1","size_leaf_vector":"0"}},{"base_weights":[5.815087E-9],"categories":[],"categories_nodes":[],"categories_segments":[],"categories_sizes":[],"default_left":[0],"id":149,"left_children":[-1],"loss_changes":[8.827427E-7],"parents":[2147483647],"right_children":[-1],"split_conditions":[5.815087E-9],"split_indices":[0],"split_type":[0],"sum_hessian":[8.1E1],"tree_param":{"num_deleted":"0","num_feature":"32","num_nodes":"1","size_leaf_vector":"0"}},{"base_weights":[5.815087E-9],"categories":[],"categories_nodes":[],"categories_segments":[],"categories_sizes":[],"default_left":[0],"id":150,"left_children":[-1],"loss_changes":[8.827427E-7],"parents":[2147483647],"right_children":[-1],"split_conditions":[5.815087E-9],"split_indices":[0],"split_type":[0],"sum_hessian":[8.1E1],"tree_param":{"num_deleted":"0","num_feature":"32","num_nodes":"1","size_leaf_vector":"0"}},{"base_weights":[5.815087E-9],"categories":[],"categories_nodes":[],"categories_segments":[],"categories_sizes":[],"default_left":[0],"id":151,"left_children":[-1],"loss_changes":[8.827427E-7],"parents":[2147483647],"right_children":[-1],"split_conditions":[5.815087E-9],"split_indices":[0],"split_type":[0],"sum_hessian":[8.1E1],"tree_param":{"num_deleted":"0","num_feature":"32","num_nodes":"1","size_leaf_vector":"0"}},{"base_weights":[5.815087E-9],"categories":[],"categories_nodes":[],"categories_segments":[],"categories_sizes":[],"default_left":[0],"id":152,"left_children":[-1],"loss_changes":[8.827427E-7],"parents":[2147483647],"right_children":[-1],"split_conditions":[5.815087E-9],"split_indices":[0],"split_type":[0],"sum_hessian":[8.1E1],"tree_param":{"num_deleted":"0","num_feature":"32","num_nodes":"1","size_leaf_vector":"0"}},{"base_weights":[5.815087E-9],"categories":[],"categories_nodes":[],"categories_segments":[],"categories_sizes":[],"default_left":[0],"id":153,"left_children":[-1],"loss_changes":[8.827427E-7],"parents":[2147483647],"right_children":[-1],"split_conditions":[5.815087E-9],"split_indices":[0],"split_type":[0],"sum_hessian":[8.1E1],"tree_param":{"num_deleted":"0","num_feature":"32","num_nodes":"1","size_leaf_vector":"0"}},{"base_weights":[5.815087E-9],"categories":[],"categories_nodes":[],"categories_segments":[],"categories_sizes":[],"default_left":[0],"id":154,"left_children":[-1],"loss_changes":[8.827427E-7],"parents":[2147483647],"right_children":[-1],"split_conditions":[5.815087E-9],"split_indices":[0],"split_type":[0],"sum_hessian":[8.1E1],"tree_param":{"num_deleted":"0","num_feature":"32","num_nodes":"1","size_leaf_vector":"0"}},{"base_weights":[5.815087E-9],"categories":[],"categories_nodes":[],"categories_segments":[],"categories_sizes":[],"default_left":[0],"id":155,"left_children":[-1],"loss_changes":[8.827427E-7],"parents":[2147483647],"right_children":[-1],"split_conditions":[5.815087E-9],"split_indices":[0],"split_type":[0],"sum_hessian":[8.1E1],"tree_param":{"num_deleted":"0","num_feature":"32","num_nodes":"1","size_leaf_vector":"0"}},{"base_weights":[5.815087E-9],"categories":[],"categories_nodes":[],"categories_segments":[],"categories_sizes":[],"default_left":[0],"id":156,"left_children":[-1],"loss_changes":[8.827427E-7],"parents":[2147483647],"right_children":[-1],"split_conditions":[5.815087E-9],"split_indices":[0],"split_type":[0],"sum_hessian":[8.1E1],"tree_param":{"num_deleted":"0","num_feature":"32","num_nodes":"1","size_leaf_vector":"0"}},{"base_weights":[5.815087E-9],"categories":[],"categories_nodes":[],"categories_segments":[],"categories_sizes":[],"default_left":[0],"id":157,"left_children":[-1],"loss_changes":[8.827427E-7],"parents":[2147483647],"right_children":[-1],"split_conditions":[5.815087E-9],"split_indices":[0],"split_type":[0],"sum_hessian":[8.1E1],"tree_param":{"num_deleted":"0","num_feature":"32","num_nodes":"1","size_leaf_vector":"0"}},{"base_weights":[5.815087E-9],"categories":[],"categories_nodes":[],"categories_segments":[],"categories_sizes":[],"default_left":[0],"id":158,"left_children":[-1],"loss_changes":[8.827427E-7],"parents":[2147483647],"right_children":[-1],"split_conditions":[5.815087E-9],"split_indices":[0],"split_type":[0],"sum_hessian":[8.1E1],"tree_param":{"num_deleted":"0","num_feature":"32","num_nodes":"1","size_leaf_vector":"0"}},{"base_weights":[5.815087E-9],"categories":[],"categories_nodes":[],"categories_segments":[],"categories_sizes":[],"default_left":[0],"id":159,"left_children":[-1],"loss_changes":[8.827427E-7],"parents":[2147483647],"right_children":[-1],"split_conditions":[5.815087E-9],"split_indices":[0],"split_type":[0],"sum_hessian":[8.1E1],"tree_param":{"num_deleted":"0","num_feature":"32","num_nodes":"1","size_leaf_vector":"0"}},{"base_weights":[5.815087E-9],"categories":[],"categories_nodes":[],"categories_segments":[],"categories_sizes":[],"default_left":[0],"id":160,"left_children":[-1],"loss_changes":[8.827427E-7],"parents":[2147483647],"right_children":[-1],"split_conditions":[5.815087E-9],"split_indices":[0],"split_type":[0],"sum_hessian":[8.1E1],"tree_param":{"num_deleted":"0","num_feature":"32","num_nodes":"1","size_leaf_vector":"0"}},{"base_weights":[5.815087E-9],"categories":[],"categories_nodes":[],"categories_segments":[],"categories_sizes":[],"default_left":[0],"id":161,"left_children":[-1],"loss_changes":[8.827427E-7],"parents":[2147483647],"right_children":[-1],"split_conditions":[5.815087E-9],"split_indices":[0],"split_type":[0],"sum_hessian":[8.1E1],"tree_param":{"num_deleted":"0","num_feature":"32","num_nodes":"1","size_leaf_vector":"0"}},{"base_weights":[5.815087E-9],"categories":[],"categories_nodes":[],"categories_segments":[],"categories_sizes":[],"default_left":[0],"id":162,"left_children":[-1],"loss_changes":[8.827427E-7],"parents":[2147483647],"right_children":[-1],"split_conditions":[5.815087E-9],"split_indices":[0],"split_type":[0],"sum_hessian":[8.1E1],"tree_param":{"num_deleted":"0","num_feature":"32","num_nodes":"1","size_leaf_vector":"0"}},{"base_weights":[5.815087E-9],"categories":[],"categories_nodes":[],"categories_segments":[],"categories_sizes":[],"default_left":[0],"id":163,"left_children":[-1],"loss_changes":[8.827427E-7],"parents":[2147483647],"right_children":[-1],"split_conditions":[5.815087E-9],"split_indices":[0],"split_type":[0],"sum_hessian":[8.1E1],"tree_param":{"num_deleted":"0","num_feature":"32","num_nodes":"1","size_leaf_vector":"0"}},{"base_weights":[5.815087E-9],"categories":[],"categories_nodes":[],"categories_segments":[],"categories_sizes":[],"default_left":[0],"id":164,"left_children":[-1],"loss_changes":[8.827427E-7],"parents":[2147483647],"right_children":[-1],"split_conditions":[5.815087E-9],"split_indices":[0],"split_type":[0],"sum_hessian":[8.1E1],"tree_param":{"num_deleted":"0","num_feature":"32","num_nodes":"1","size_leaf_vector":"0"}},{"base_weights":[5.815087E-9],"categories":[],"categories_nodes":[],"categories_segments":[],"categories_sizes":[],