{"learner":{"attributes":{"best_iteration":"299","best_ntree_limit":"300","scikit_learn":"{\"n_estimators\": 300, \"objective\": \"reg:squarederror\", \"max_depth\": null, \"max_leaves\": null, \"max_bin\": null, \"grow_policy\": null, \"learning_rate\": 1, \"verbosity\": null, \"booster\": null, \"tree_method\": null, \"gamma\": null, \"min_child_weight\": null, \"max_delta_step\": null, \"subsample\": null, \"sampling_method\": null, \"colsample_bytree\": null, \"colsample_bylevel\": null, \"colsample_bynode\": null, \"reg_alpha\": null, \"reg_lambda\": null, \"scale_pos_weight\": null, \"base_score\": null, \"missing\": NaN, \"num_parallel_tree\": null, \"random_state\": null, \"n_jobs\": null, \"monotone_constraints\": null, \"interaction_constraints\": null, \"importance_type\": null, \"gpu_id\": null, \"validate_parameters\": null, \"predictor\": null, \"enable_categorical\": false, \"feature_types\": null, \"max_cat_to_onehot\": null, \"max_cat_threshold\": null, \"eval_metric\": \"rmse\", \"early_stopping_rounds\": null, \"callbacks\": null, \"kwargs\": {\"nthread\": -1, \"seed\": 500}, \"_estimator_type\": \"regressor\"}"},"feature_names":["andy","brandon","bree","brian","cade","darwin","josh","lindsey","sophie","steve","steven","sun","susi","susu","tang","yang","andy_acs","brandon_acs","bree_acs","brian_acs","cade_acs","darwin_acs","josh_acs","lindsey_acs","sophie_acs","steve_acs","steven_acs","sun_acs","susi_acs","susu_acs","tang_acs","yang_acs"],"feature_types":["int","int","int","int","int","int","int","int","int","int","int","int","int","int","int","int","int","int","int","int","int","int","int","int","int","int","int","int","int","int","int","int"],"gradient_booster":{"model":{"gbtree_model_param":{"num_parallel_tree":"1","num_trees":"300","size_leaf_vector":"0"},"tree_info":[0,0,0,0,0,0,0,0,0,0,0,0,0,0,0,0,0,0,0,0,0,0,0,0,0,0,0,0,0,0,0,0,0,0,0,0,0,0,0,0,0,0,0,0,0,0,0,0,0,0,0,0,0,0,0,0,0,0,0,0,0,0,0,0,0,0,0,0,0,0,0,0,0,0,0,0,0,0,0,0,0,0,0,0,0,0,0,0,0,0,0,0,0,0,0,0,0,0,0,0,0,0,0,0,0,0,0,0,0,0,0,0,0,0,0,0,0,0,0,0,0,0,0,0,0,0,0,0,0,0,0,0,0,0,0,0,0,0,0,0,0,0,0,0,0,0,0,0,0,0,0,0,0,0,0,0,0,0,0,0,0,0,0,0,0,0,0,0,0,0,0,0,0,0,0,0,0,0,0,0,0,0,0,0,0,0,0,0,0,0,0,0,0,0,0,0,0,0,0,0,0,0,0,0,0,0,0,0,0,0,0,0,0,0,0,0,0,0,0,0,0,0,0,0,0,0,0,0,0,0,0,0,0,0,0,0,0,0,0,0,0,0,0,0,0,0,0,0,0,0,0,0,0,0,0,0,0,0,0,0,0,0,0,0,0,0,0,0,0,0,0,0,0,0,0,0,0,0,0,0,0,0,0,0,0,0,0,0,0,0,0,0,0,0,0,0,0,0,0,0],"trees":[{"base_weights":[-4.3229166E-1,-1.0738636E0,5.888889E0,-2.0149255E0,1.8409091E0,6.571429E0,2.3333333E0,1.0769231E0,-2.709091E0,-2.4375E0,4E0,1.75E0,7.0833335E0,4.6E0,-1E0,-4.0285716E0,-3.809524E-1,-5.4E0,1.875E0,6.111111E0,7.1428573E-1,5.125E0,1.25E0,-4.625E0,1.5833334E0,-4.397059E0,4.25E0,3.55E0,-3.625E0,-3E0,2.8E0,-5.3333335E0,-1.25E0,2.875E0,-6.666667E-1,-6.5333333E0,-2.575E0,4.285714E0,1.375E0,-6.6E0,-1.3125E0,1E0,3.6666667E0],"categories":[],"categories_nodes":[],"categories_segments":[],"categories_sizes":[],"default_left":[1,1,1,1,1,1,0,1,1,1,1,0,0,1,1,1,1,0,0,0,1,0,0,1,1,1,0,1,1,0,1,0,0,0,0,0,0,0,0,0,0,0,0],"id":0,"left_children":[1,3,5,7,9,11,-1,13,15,17,19,-1,-1,21,23,25,27,-1,-1,-1,29,-1,-1,31,33,35,-1,37,39,-1,41,-1,-1,-1,-1,-1,-1,-1,-1,-1,-1,-1,-1],"loss_changes":[3.9565112E2,2.4509164E2,6.5079346E0,1.4671655E2,2.1297443E2,4.880951E0,0E0,9.972308E1,1.6742163E2,1.1233125E2,9.9682556E1,0E0,0E0,2.387497E0,9.1604164E1,1.25456726E2,2.806649E2,0E0,0E0,0E0,6.2628567E1,0E0,0E0,2.8958359E0,1.9354164E1,1.1551886E2,0E0,1.0108925E1,7.389375E1,0E0,4.1333313E0,0E0,0E0,0E0,0E0,0E0,0E0,0E0,0E0,0E0,0E0,0E0,0E0],"parents":[2147483647,0,0,1,1,2,2,3,3,4,4,5,5,7,7,8,8,9,9,10,10,13,13,14,14,15,15,16,16,20,20,23,23,24,24,25,25,27,27,28,28,30,30],"right_children":[2,4,6,8,10,12,-1,14,16,18,20,-1,-1,22,24,26,28,-1,-1,-1,30,-1,-1,32,34,36,-1,38,40,-1,42,-1,-1,-1,-1,-1,-1,-1,-1,-1,-1,-1,-1],"split_conditions":[3.315E2,2.32E2,9.3E1,-5E-1,1.99E2,0E0,2.3333333E0,5.3E1,1.46E2,2.325E2,2.965E2,1.75E0,7.0833335E0,0E0,1.81E2,2.97E2,1.99E2,-5.4E0,1.875E0,6.111111E0,7.2E1,5.125E0,1.25E0,5E-1,0E0,-5E-1,4.25E0,9E1,-5E-1,-3E0,3.265E2,-5.3333335E0,-1.25E0,2.875E0,-6.666667E-1,-6.5333333E0,-2.575E0,4.285714E0,1.375E0,-6.6E0,-1.3125E0,1E0,3.6666667E0],"split_indices":[30,25,19,11,22,8,0,20,28,16,16,0,0,7,23,24,28,0,0,0,26,0,0,3,5,7,0,19,6,0,16,0,0,0,0,0,0,0,0,0,0,0,0],"split_type":[0,0,0,0,0,0,0,0,0,0,0,0,0,0,0,0,0,0,0,0,0,0,0,0,0,0,0,0,0,0,0,0,0,0,0,0,0,0,0,0,0,0,0],"sum_hessian":[9.5E1,8.7E1,8E0,6.6E1,2.1E1,6E0,2E0,1.2E1,5.4E1,7E0,1.4E1,1E0,5E0,4E0,8E0,3.4E1,2E1,4E0,3E0,8E0,6E0,3E0,1E0,3E0,5E0,3.3E1,1E0,9E0,1.1E1,2E0,4E0,2E0,1E0,3E0,2E0,1.4E1,1.9E1,6E0,3E0,4E0,7E0,2E0,2E0],"tree_param":{"num_deleted":"0","num_feature":"32","num_nodes":"43","size_leaf_vector":"0"}},{"base_weights":[1.0738879E-1,2.6299384E-1,-2.7772222E0,-1.840398E-1,1.3460023E0,-1.1703705E0,-3.4583333E0,2.089061E-1,-1.658475E0,7.0555516E-2,2.714133E0,-7.598545E-1,6.874835E-1,1.1547619E0,-2.223578E0,1.1208333E0,-1.6916667E0,3.4636242E0,8.222221E-1,2.2840135E-1,-3.375E0,1.2468503E0,-3.9807692E-1,-2.916314E0,-1.090278E-1,2.4074073E0,4.9826387E-1,-2.2366667E0,5.1666665E-1,3.6424108E0,1.0166667E0,1.0740739E0,2.9629627E-1,1.6761905E0,-1.0669643E0,1.4300466E0,-1.4833333E0,1.40625E0,-6.65625E-1,-1.6576984E0,-3.5916667E0,1.5462963E-1,-4.5000005E-1,1.0044444E0,-2.5902778E-1],"categories":[],"categories_nodes":[],"categories_segments":[],"categories_sizes":[],"default_left":[1,1,1,1,1,0,0,1,1,1,1,1,1,0,1,1,1,1,1,1,0,1,1,1,1,0,1,0,0,0,0,0,0,0,0,0,0,0,0,0,0,0,0,0,0],"id":1,"left_children":[1,3,5,7,9,-1,-1,11,13,15,17,19,21,-1,23,25,27,29,31,33,-1,35,37,39,41,-1,43,-1,-1,-1,-1,-1,-1,-1,-1,-1,-1,-1,-1,-1,-1,-1,-1,-1,-1],"loss_changes":[4.382096E1,4.478871E1,1.4246941E0,3.858511E1,4.69229E1,0E0,0E0,2.5094614E1,2.482446E1,2.9658419E1,1.5585762E1,4.7290646E1,2.235649E1,0E0,1.7259937E1,6.8102922E0,8.3768635E0,2.3422241E-1,3.4403253E-1,2.8044262E1,0E0,1.41250725E1,7.211709E0,1.6961899E0,4.2918283E-1,0E0,3.3267894E0,0E0,0E0,0E0,0E0,0E0,0E0,0E0,0E0,0E0,0E0,0E0,0E0,0E0,0E0,0E0,0E0,0E0,0E0],"parents":[2147483647,0,0,1,1,2,2,3,3,4,4,7,7,8,8,9,9,10,10,11,11,12,12,14,14,15,15,16,16,17,17,18,18,19,19,21,21,22,22,23,23,24,24,26,26],"right_children":[2,4,6,8,10,-1,-1,12,14,16,18,20,22,-1,24,26,28,30,32,34,-1,36,38,40,42,-1,44,-1,-1,-1,-1,-1,-1,-1,-1,-1,-1,-1,-1,-1,-1,-1,-1,-1,-1],"split_conditions":[2.675E2,2.22E2,-5E-1,1.965E2,-5E-1,-1.1703705E0,-3.4583333E0,1.275E2,-5E-1,2.73E2,2.2E2,1.09E2,2.52E2,1.1547619E0,2.555E2,-5E-1,5E-1,3.97E2,-5E-1,1.875E2,-3.375E0,4.16E2,1.525E2,2.08E2,0E0,2.4074073E0,5E-1,-2.2366667E0,5.1666665E-1,3.6424108E0,1.0166667E0,1.0740739E0,2.9629627E-1,1.6761905E0,-1.0669643E0,1.4300466E0,-1.4833333E0,1.40625E0,-6.65625E-1,-1.6576984E0,-3.5916667E0,1.5462963E-1,-4.5000005E-1,1.0044444E0,-2.5902778E-1],"split_indices":[28,22,14,22,8,0,0,24,15,20,25,24,20,0,30,3,11,16,13,23,0,16,21,22,0,0,7,0,0,0,0,0,0,0,0,0,0,0,0,0,0,0,0,0,0],"split_type":[0,0,0,0,0,0,0,0,0,0,0,0,0,0,0,0,0,0,0,0,0,0,0,0,0,0,0,0,0,0,0,0,0,0,0,0,0,0,0,0,0,0,0,0,0],"sum_hessian":[9.5E1,9.1E1,4E0,6.5E1,2.6E1,2E0,2E0,5.2E1,1.3E1,1.4E1,1.2E1,1.7E1,3.5E1,2E0,1.1E1,9E0,5E0,8E0,4E0,1.3E1,4E0,2.3E1,1.2E1,8E0,3E0,2E0,7E0,4E0,1E0,7E0,1E0,2E0,2E0,6E0,7E0,2.2E1,1E0,1E0,1.1E1,4E0,4E0,2E0,1E0,4E0,3E0],"tree_param":{"num_deleted":"0","num_feature":"32","num_nodes":"45","size_leaf_vector":"0"}},{"base_weights":[-3.7862957E-2,1.3038267E-1,-6.449489E-1,6.817479E-1,-1.6996223E-1,1.6565509E-1,-1.2667065E0,1.5167341E0,3.7095502E-1,-4.8007977E-1,5.1904255E-1,-5.292824E-1,9.664491E-1,-5.576043E-1,-1.6935502E0,2.0742996E0,5.79985E-1,-2.1643046E-1,7.490715E-1,-8.7973535E-1,-5.3753093E-2,1.295171E0,-2.2852089E-1,-1.0838348E0,1.8952489E-2,1.4444351E-2,1.2008392E0,-1.0350349E0,2.648379E-1,-1.760416E-1,-1.9171281E0,-1.2400945E-2,1.1785715E0,-5.2852684E-1,3.0582172E-1,5.2497506E-2,9.527939E-1,-1.3989683E0,-3.2445204E-1,-5.722268E-1,8.4273803E-1,4.0619716E-1,2.0825956E0,7.923734E-2,-8.704498E-1,1.0551691E-1,-1.2037039E-1,4.7777653E-2,3.494792E-1,-7.196925E-1,-2.3359227E0,1.3541651E-1,-1.5401793E-1,-5.8603776E-1,-1.2048614E-1,-1.7687829E-1,3.7031245E-1,1.2137004E0,2.5800917E-1,-2.8962198E-1,-1.6745499E0,5.4251426E-1,-6.090079E-1,-1.08194605E-1,-1.200233E0,3.272869E-1,1.4209105E0,4.6296358E-2,4.8459828E-1,2.4618096E0,4.7247672E-1,2.4680379E-1,-1.0813844E-1],"categories":[],"categories_nodes":[],"categories_segments":[],"categories_sizes":[],"default_left":[1,1,1,1,1,1,1,1,1,1,1,1,1,1,1,0,1,1,1,1,1,1,1,0,1,0,0,0,1,0,1,1,0,1,0,1,1,1,1,1,1,1,1,1,0,0,0,0,0,0,0,0,0,0,0,0,0,0,0,0,0,0,0,0,0,0,0,0,0,0,0,0,0],"id":2,"left_children":[1,3,5,7,9,11,13,15,17,19,21,23,25,27,29,-1,31,33,35,37,39,41,43,-1,45,-1,-1,-1,47,-1,49,51,-1,53,-1,55,57,59,61,63,65,67,69,71,-1,-1,-1,-1,-1,-1,-1,-1,-1,-1,-1,-1,-1,-1,-1,-1,-1,-1,-1,-1,-1,-1,-1,-1,-1,-1,-1,-1,-1],"loss_changes":[9.889487E0,1.270145E1,1.0793818E1,6.444072E0,1.0932805E1,6.0765424E0,2.6877785E0,2.4530315E0,4.8262243E0,5.9161463E0,9.579258E0,1.8446912E0,1.0983567E0,2.6300712E0,2.0374775E0,0E0,1.4329922E0,1.6285721E0,1.7947807E0,4.7358856E0,8.848764E0,4.754053E0,1.8470021E0,0E0,6.0942728E-2,0E0,0E0,0E0,3.8419485E-2,0E0,1.3277302E0,8.365696E-2,0E0,7.0191145E-2,0E0,3.570965E-1,1.4995928E0,2.266451E0,2.7973988E0,3.3671222E0,1.6210918E0,1.1864793E-1,1.279171E0,2.4647424E-1,0E0,0E0,0E0,0E0,0E0,0E0,0E0,0E0,0E0,0E0,0E0,0E0,0E0,0E0,0E0,0E0,0E0,0E0,0E0,0E0,0E0,0E0,0E0,0E0,0E0,0E0,0E0,0E0,0E0],"parents":[2147483647,0,0,1,1,2,2,3,3,4,4,5,5,6,6,7,7,8,8,9,9,10,10,11,11,12,12,13,13,14,14,16,16,17,17,18,18,19,19,20,20,21,21,22,22,24,24,28,28,30,30,31,31,33,33,35,35,36,36,37,37,38,38,39,39,40,40,41,41,42,42,43,43],"right_children":[2,4,6,8,10,12,14,16,18,20,22,24,26,28,30,-1,32,34,36,38,40,42,44,-1,46,-1,-1,-1,48,-1,50,52,-1,54,-1,56,58,60,62,64,66,68,70,72,-1,-1,-1,-1,-1,-1,-1,-1,-1,-1,-1,-1,-1,-1,-1,-1,-1,-1,-1,-1,-1,-1,-1,-1,-1,-1,-1,-1,-1],"split_conditions":[1.3E2,6.9E1,2.025E2,1.57E2,5E-1,1.9E2,-5E-1,0E0,2.255E2,2.645E2,1.685E2,-5E-1,0E0,5E-1,-5E-1,2.0742996E0,0E0,3.92E2,1.58E2,2.645E2,1.91E2,0E0,1.62E2,-1.0838348E0,0E0,1.4444351E-2,1.2008392E0,-1.0350349E0,-5E-1,-1.760416E-1,1.595E2,-5E-1,1.1785715E0,5E-1,3.0582172E-1,5E-1,2.69E2,-5E-1,-5E-1,5E-1,2.625E2,-5E-1,5E-1,1.58E2,-8.704498E-1,1.0551691E-1,-1.2037039E-1,4.7777653E-2,3.494792E-1,-7.196925E-1,-2.3359227E0,1.3541651E-1,-1.5401793E-1,-5.8603776E-1,-1.2048614E-1,-1.7687829E-1,3.7031245E-1,1.2137004E0,2.5800917E-1,-2.8962198E-1,-1.6745499E0,5.4251426E-1,-6.090079E-1,-1.08194605E-1,-1.200233E0,3.272869E-1,1.4209105E0,4.6296358E-2,4.8459828E-1,2.4618096E0,4.7247672E-1,2.4680379E-1,-1.0813844E-1],"split_indices":[29,30,21,22,10,24,0,4,21,30,23,14,7,3,9,0,0,16,23,16,20,14,24,0,0,0,0,0,1,0,22,1,0,15,0,2,22,12,9,3,20,1,3,22,0,0,0,0,0,0,0,0,0,0,0,0,0,0,0,0,0,0,0,0,0,0,0,0,0,0,0,0,0],"split_type":[0,0,0,0,0,0,0,0,0,0,0,0,0,0,0,0,0,0,0,0,0,0,0,0,0,0,0,0,0,0,0,0,0,0,0,0,0,0,0,0,0,0,0,0,0,0,0,0,0,0,0,0,0,0,0,0,0,0,0,0,0,0,0,0,0,0,0,0,0,0,0,0,0],"sum_hessian":[9.5E1,7.5E1,2E1,2.6E1,4.9E1,9E0,1.1E1,6E0,2E1,3.4E1,1.5E1,5E0,4E0,5E0,6E0,3E0,3E0,8E0,1.2E1,1.7E1,1.7E1,7E0,8E0,2E0,3E0,1E0,3E0,3E0,2E0,1E0,5E0,2E0,1E0,5E0,3E0,3E0,9E0,8E0,9E0,1.1E1,6E0,4E0,3E0,6E0,2E0,2E0,1E0,1E0,1E0,2E0,3E0,1E0,1E0,4E0,1E0,2E0,1E0,6E0,3E0,2E0,6E0,2E0,7E0,7E0,4E0,4E0,2E0,1E0,3E0,2E0,1E0,3E0,3E0],"tree_param":{"num_deleted":"0","num_feature":"32","num_nodes":"73","size_leaf_vector":"0"}},{"base_weights":[1.9670568E-2,1.2522791E-1,-1.856428E-1,2.9995292E-1,-4.7997188E-2,1.41861E-1,-2.9611844E-1,2.1189733E-1,8.6336786E-1,-2.7859265E-1,1.15819484E-1,3.1395215E-1,-5.8602355E-2,-5.983382E-1,-1.1870103E-1,3.012883E-1,-1.8098283E-1,1.4512579E-2,-4.4304138E-1,2.990035E-1,-6.124049E-2,3.8343084E-1,1.8018723E-2,-1.24605656E-1,1.0270542E-1,-5.524546E-2,-7.4561536E-1,-4.7023598E-2,-4.375212E-1,5.554075E-1,1.3951573E-1,2.6491582E-2,-3.9728776E-1,9.9375546E-2,-1.0347557E-1,-5.6221783E-1,-1.7282486E-2,8.197658E-2,4.3002537E-1,-2.4042511E-1,3.6006883E-2,2.7583271E-2,-1.1045146E-1,-8.732907E-2,-9.91464E-1,8.224067E-2,-1.7040992E-1,7.1279156E-1,3.0423005E-3,2.2568734E-1,-9.51993E-2,5.342388E-2,-2.7152658E-2,1.4282584E-2,1.2297901E-1,-2.592516E-2,-6.472791E-1,7.259321E-2,-9.851694E-2,1.1508331E-1,-2.5225163E-2,5.546831E-1,2.2902572E-1,1.1476678E-1,-3.4202408E-2,-2.7060533E-1,-1.1040274E0,-4.1380882E-2,1.3034467E-1,-1.8852404E-1,-2.1805525E-2],"categories":[],"categories_nodes":[],"categories_segments":[],"categories_sizes":[],"default_left":[1,1,1,1,1,1,1,1,0,1,1,1,1,1,1,1,1,1,1,1,1,0,0,0,0,1,1,1,0,1,1,1,0,1,0,1,1,1,1,0,1,0,0,0,1,1,1,0,0,0,0,0,0,0,0,0,0,0,0,0,0,0,0,0,0,0,0,0,0,0,0],"id":3,"left_children":[1,3,5,7,9,11,13,15,-1,17,19,21,23,25,27,29,31,33,35,37,39,-1,-1,-1,-1,41,43,45,-1,47,49,51,-1,53,-1,55,57,59,61,-1,63,-1,-1,-1,65,67,69,-1,-1,-1,-1,-1,-1,-1,-1,-1,-1,-1,-1,-1,-1,-1,-1,-1,-1,-1,-1,-1,-1,-1,-1],"loss_changes":[2.103792E0,1.9514695E0,1.2359872E0,1.4046335E0,1.2788539E0,3.288801E-1,1.2694528E0,1.0730063E0,0E0,6.812407E-1,6.6700226E-1,9.589636E-2,6.60319E-2,6.786747E-1,3.6791372E-1,9.091406E-1,2.7979118E-1,7.0359886E-2,4.4694746E-1,2.4910069E-1,2.0033453E-1,0E0,0E0,0E0,0E0,1.676454E-2,1.046288E0,2.5325626E-1,0E0,7.8023267E-1,3.4509766E-1,7.2296504E-3,0E0,6.277494E-3,0E0,3.0254316E-1,2.905467E-2,2.064849E-2,2.330029E-2,0E0,4.816271E-2,0E0,0E0,0E0,1.0695553E-1,5.2967303E-2,1.7423853E-2,0E0,0E0,0E0,0E0,0E0,0E0,0E0,0E0,0E0,0E0,0E0,0E0,0E0,0E0,0E0,0E0,0E0,0E0,0E0,0E0,0E0,0E0,0E0,0E0],"parents":[2147483647,0,0,1,1,2,2,3,3,4,4,5,5,6,6,7,7,9,9,10,10,11,11,12,12,13,13,14,14,15,15,16,16,17,17,18,18,19,19,20,20,25,25,26,26,27,27,29,29,30,30,31,31,33,33,35,35,36,36,37,37,38,38,40,40,44,44,45,45,46,46],"right_children":[2,4,6,8,10,12,14,16,-1,18,20,22,24,26,28,30,32,34,36,38,40,-1,-1,-1,-1,42,44,46,-1,48,50,52,-1,54,-1,56,58,60,62,-1,64,-1,-1,-1,66,68,70,-1,-1,-1,-1,-1,-1,-1,-1,-1,-1,-1,-1,-1,-1,-1,-1,-1,-1,-1,-1,-1,-1,-1,-1],"split_conditions":[1.22E2,7.8E1,1.72E2,1.37E2,2.41E2,1.345E2,2.175E2,4.7E1,8.6336786E-1,1.775E2,1.205E2,0E0,5E-1,-5E-1,3.86E2,1.72E2,-5E-1,0E0,1.145E2,2.135E2,1.67E2,3.8343084E-1,1.8018723E-2,-1.24605656E-1,1.0270542E-1,0E0,-5E-1,1.945E2,-4.375212E-1,1.945E2,2.725E2,0E0,-3.9728776E-1,-5E-1,-1.0347557E-1,3.075E2,0E0,5E-1,2.595E2,-2.4042511E-1,2.28E2,2.7583271E-2,-1.1045146E-1,-8.732907E-2,0E0,-5E-1,3.025E2,7.1279156E-1,3.0423005E-3,2.2568734E-1,-9.51993E-2,5.342388E-2,-2.7152658E-2,1.4282584E-2,1.2297901E-1,-2.592516E-2,-6.472791E-1,7.259321E-2,-9.851694E-2,1.1508331E-1,-2.5225163E-2,5.546831E-1,2.2902572E-1,1.1476678E-1,-3.4202408E-2,-2.7060533E-1,-1.1040274E0,-4.1380882E-2,1.3034467E-1,-1.8852404E-1,-2.1805525E-2],"split_indices":[28,19,21,31,20,24,21,17,0,23,27,7,3,10,16,23,6,14,17,21,22,0,0,0,0,0,11,23,0,22,20,0,0,1,0,16,1,1,16,0,27,0,0,0,4,14,21,0,0,0,0,0,0,0,0,0,0,0,0,0,0,0,0,0,0,0,0,0,0,0,0],"split_type":[0,0,0,0,0,0,0,0,0,0,0,0,0,0,0,0,0,0,0,0,0,0,0,0,0,0,0,0,0,0,0,0,0,0,0,0,0,0,0,0,0,0,0,0,0,0,0,0,0,0,0,0,0,0,0,0,0,0,0,0,0,0,0,0,0,0,0,0,0,0,0],"sum_hessian":[9.5E1,6.3E1,3.2E1,3.1E1,3.2E1,8E0,2.4E1,2.8E1,3E0,1.3E1,1.9E1,4E0,4E0,8E0,1.6E1,2.3E1,5E0,5E0,8E0,9E0,1E1,3E0,1E0,3E0,1E0,2E0,6E0,1.4E1,2E0,8E0,1.5E1,3E0,2E0,3E0,2E0,6E0,2E0,4E0,5E0,3E0,7E0,1E0,1E0,2E0,4E0,7E0,7E0,6E0,2E0,1.1E1,4E0,2E0,1E0,1E0,2E0,1E0,5E0,1E0,1E0,3E0,1E0,2E0,3E0,3E0,4E0,1E0,3E0,2E0,5E0,6E0,1E0],"tree_param":{"num_deleted":"0","num_feature":"32","num_nodes":"71","size_leaf_vector":"0"}},{"base_weights":[-3.5117746E-3,-4.199926E-2,6.790656E-2,-5.408451E-2,3.5364306E-1,1.5613234E-1,-2.9503472E-2,-4.0347405E-2,-2.0261803E-1,3.3206258E-3,2.3226148E-1,-4.9479596E-2,8.021164E-2,4.384005E-2,-6.564245E-2,-2.8433052E-1,-5.3366184E-2,-5.8919728E-2,6.473082E-2,3.023308E-1,7.369828E-2,2.5282443E-2,-1.18056685E-1,7.741001E-2,-1.3821562E-2,-3.0924309E-2,-1.2100619E-1,-6.543636E-2,-1.4612913E-2,7.485843E-2,1.7174006E-2,3.8149357E-3,3.4443092E-1,1.6744184E-1,8.40193E-3,6.890631E-2,-1.4673138E-2,1.0787725E-2,-1.9752088E-1,4.853213E-2,1.5421653E-1,1.3129592E-2,-4.5149248E-2,-6.644107E-2,2.990346E-1,-1.4891103E-1,6.912321E-3,4.044384E-1,1.2960815E-1,-8.935849E-3,3.0207634E-2,1.4815807E-2,-2.5749326E-2,5.135274E-2,-1.9851526E-2,-4.8561096E-2,-2.2262055E-1],"categories":[],"categories_nodes":[],"categories_segments":[],"categories_sizes":[],"default_left":[1,1,1,1,0,1,1,1,1,1,1,1,0,1,1,0,1,0,1,1,1,1,1,1,1,1,1,0,0,0,0,0,1,0,1,0,1,1,1,0,0,0,0,0,0,0,0,0,0,0,0,0,0,0,0,0,0],"id":4,"left_children":[1,3,5,7,-1,9,11,13,15,17,19,21,-1,23,25,-1,27,-1,29,31,33,35,37,39,41,43,45,-1,-1,-1,-1,-1,47,-1,49,-1,51,53,55,-1,-1,-1,-1,-1,-1,-1,-1,-1,-1,-1,-1,-1,-1,-1,-1,-1,-1],"loss_changes":[2.667284E-1,3.2035708E-1,2.9680505E-1,1.1833094E-1,0E0,2.0863041E-1,4.1227445E-2,1.2639022E-1,4.5805067E-2,3.0569268E-2,1.1104369E-1,7.988921E-2,0E0,2.8169697E-2,8.275367E-2,0E0,4.470609E-4,0E0,6.409269E-4,9.9226415E-2,2.9198729E-2,1.4955206E-2,8.4038936E-2,1.2477625E-2,5.6586945E-3,3.5972118E-1,6.171161E-2,0E0,0E0,0E0,0E0,0E0,3.7818372E-2,0E0,1.7821807E-3,0E0,2.0146226E-3,5.990957E-3,7.883504E-3,0E0,0E0,0E0,0E0,0E0,0E0,0E0,0E0,0E0,0E0,0E0,0E0,0E0,0E0,0E0,0E0,0E0,0E0],"parents":[2147483647,0,0,1,1,2,2,3,3,5,5,6,6,7,7,8,8,9,9,10,10,11,11,13,13,14,14,16,16,18,18,19,19,20,20,21,21,22,22,23,23,24,24,25,25,26,26,32,32,34,34,36,36,37,37,38,38],"right_children":[2,4,6,8,-1,10,12,14,16,18,20,22,-1,24,26,-1,28,-1,30,32,34,36,38,40,42,44,46,-1,-1,-1,-1,-1,48,-1,50,-1,52,54,56,-1,-1,-1,-1,-1,-1,-1,-1,-1,-1,-1,-1,-1,-1,-1,-1,-1,-1],"split_conditions":[2.575E2,3.8E2,1.36E2,2.945E2,3.5364306E-1,-5E-1,3.335E2,-5E-1,5E-1,2.195E2,2.25E2,5.9E1,8.021164E-2,2.59E2,2.375E2,-2.8433052E-1,-5E-1,-5.8919728E-2,0E0,-5E-1,5E-1,5E-1,1.825E2,2.455E2,5E-1,2.275E2,5E-1,-6.543636E-2,-1.4612913E-2,7.485843E-2,1.7174006E-2,3.8149357E-3,5E-1,1.6744184E-1,0E0,6.890631E-2,0E0,-5E-1,2.75E2,4.853213E-2,1.5421653E-1,1.3129592E-2,-4.5149248E-2,-6.644107E-2,2.990346E-1,-1.4891103E-1,6.912321E-3,4.044384E-1,1.2960815E-1,-8.935849E-3,3.0207634E-2,1.4815807E-2,-2.5749326E-2,5.135274E-2,-1.9851526E-2,-4.8561096E-2,-2.2262055E-1],"split_indices":[20,23,24,23,0,0,30,14,8,21,23,29,0,25,30,0,3,0,4,14,0,3,21,22,3,30,5,0,0,0,0,0,6,0,3,0,9,0,20,0,0,0,0,0,0,0,0,0,0,0,0,0,0,0,0,0,0],"split_type":[0,0,0,0,0,0,0,0,0,0,0,0,0,0,0,0,0,0,0,0,0,0,0,0,0,0,0,0,0,0,0,0,0,0,0,0,0,0,0,0,0,0,0,0,0,0,0,0,0,0,0,0,0,0,0,0,0],"sum_hessian":[9.5E1,6.2E1,3.3E1,6.1E1,1E0,1.7E1,1.6E1,5.7E1,4E0,6E0,1.1E1,1.4E1,2E0,1.3E1,4.4E1,2E0,2E0,3E0,3E0,7E0,4E0,7E0,7E0,8E0,5E0,2.8E1,1.6E1,1E0,1E0,2E0,1E0,1E0,6E0,1E0,3E0,3E0,4E0,3E0,4E0,7E0,1E0,3E0,2E0,2.6E1,2E0,1.3E1,3E0,4E0,2E0,2E0,1E0,1E0,3E0,1E0,2E0,1E0,3E0],"tree_param":{"num_deleted":"0","num_feature":"32","num_nodes":"57","size_leaf_vector":"0"}},{"base_weights":[9.46648E-3,-2.0168427E-2,3.4930028E-2,-1.0502024E-2,-1.519974E-1,5.14953E-2,-1.3711095E-2,-5.135483E-2,1.0990877E-2,-5.2387477E-3,6.8690136E-2,-6.156283E-2,6.035169E-2,-7.693287E-2,-1.6562144E-4,-6.1239313E-2,2.4997279E-2,4.0304065E-3,-2.8210243E-2,1.01236835E-1,3.3884477E-2,-2.0479599E-2,-1.0779697E-1,2.954324E-3,8.831179E-2,-1.1547387E-2,-1.4000888E-1,-1.5700698E-2,2.0603022E-2,-1.7124712E-2,-6.798679E-2,1.1330886E-2,7.7396676E-2,1.0637283E-2,-2.1108866E-2,1.5935126E-1,6.5617844E-2,7.278395E-2,-4.457772E-3,7.97534E-3,-2.7765656E-2,-8.478403E-3,1.2909889E-2,3.990078E-3,-4.4617355E-2,-3.8318515E-2,-1.5585184E-1,-2.3039773E-2,3.0161913E-2,1.6996194E-2,-3.5066605E-3,-1.0464747E-2,8.3687834E-2,1.0275253E-1,-1.1414528E-2,1.2280176E-2,-2.845025E-2,-7.5232983E-3,-3.094542E-2],"categories":[],"categories_nodes":[],"categories_segments":[],"categories_sizes":[],"default_left":[1,1,1,1,0,1,1,1,1,1,1,1,1,1,1,1,1,1,0,1,1,1,0,1,0,1,1,0,0,0,0,1,0,1,0,0,1,1,1,0,1,0,0,0,0,0,0,0,0,0,0,0,0,0,0,0,0,0,0],"id":5,"left_children":[1,3,5,7,-1,9,11,13,15,17,19,21,23,25,27,29,31,33,-1,35,37,39,-1,41,-1,43,45,-1,-1,-1,-1,47,-1,49,-1,-1,51,53,55,-1,57,-1,-1,-1,-1,-1,-1,-1,-1,-1,-1,-1,-1,-1,-1,-1,-1,-1,-1],"loss_changes":[7.314703E-2,5.574777E-2,4.2605244E-2,3.832038E-2,0E0,3.840562E-2,5.333188E-2,1.9627053E-2,3.0869685E-2,2.2429621E-3,3.0553937E-2,1.48873925E-2,9.368114E-3,3.9625816E-2,2.2593364E-3,3.2405742E-4,1.7025799E-2,1.5532776E-3,0E0,2.059336E-2,2.4188343E-2,1.465386E-3,0E0,4.50913E-4,0E0,3.260967E-3,2.0833686E-3,0E0,0E0,0E0,0E0,1.4286854E-2,0E0,6.891804E-4,0E0,0E0,1.599871E-2,2.1359343E-2,3.9636376E-3,0E0,8.901814E-5,0E0,0E0,0E0,0E0,0E0,0E0,0E0,0E0,0E0,0E0,0E0,0E0,0E0,0E0,0E0,0E0,0E0,0E0],"parents":[2147483647,0,0,1,1,2,2,3,3,5,5,6,6,7,7,8,8,9,9,10,10,11,11,12,12,13,13,14,14,15,15,16,16,17,17,19,19,20,20,21,21,23,23,25,25,26,26,31,31,33,33,36,36,37,37,38,38,40,40],"right_children":[2,4,6,8,-1,10,12,14,16,18,20,22,24,26,28,30,32,34,-1,36,38,40,-1,42,-1,44,46,-1,-1,-1,-1,48,-1,50,-1,-1,52,54,56,-1,58,-1,-1,-1,-1,-1,-1,-1,-1,-1,-1,-1,-1,-1,-1,-1,-1,-1,-1],"split_conditions":[1.675E2,1.9E1,1.74E2,2.61E2,-1.519974E-1,-5E-1,2.775E2,2.63E2,6.3E1,2.64E2,4.75E1,5E-1,-5E-1,2.025E2,5E-1,0E0,2.245E2,2.6E2,-2.8210243E-2,1.835E2,2.205E2,-5E-1,-1.0779697E-1,0E0,8.831179E-2,5E-1,-5E-1,-1.5700698E-2,2.0603022E-2,-1.7124712E-2,-6.798679E-2,1.785E2,7.7396676E-2,2.47E2,-2.1108866E-2,1.5935126E-1,1.9E2,5E-1,5E-1,7.97534E-3,-5E-1,-8.478403E-3,1.2909889E-2,3.990078E-3,-4.4617355E-2,-3.8318515E-2,-1.5585184E-1,-2.3039773E-2,3.0161913E-2,1.6996194E-2,-3.5066605E-3,-1.0464747E-2,8.3687834E-2,1.0275253E-1,-1.1414528E-2,1.2280176E-2,-2.845025E-2,-7.5232983E-3,-3.094542E-2],"split_indices":[25,18,24,16,0,14,16,21,20,21,19,0,7,21,4,0,24,20,0,22,23,6,0,0,0,0,10,0,0,0,0,23,0,27,0,0,25,6,4,0,3,0,0,0,0,0,0,0,0,0,0,0,0,0,0,0,0,0,0],"split_type":[0,0,0,0,0,0,0,0,0,0,0,0,0,0,0,0,0,0,0,0,0,0,0,0,0,0,0,0,0,0,0,0,0,0,0,0,0,0,0,0,0,0,0,0,0,0,0,0,0,0,0,0,0,0,0,0,0,0,0],"sum_hessian":[9.5E1,4.4E1,5.1E1,4.2E1,2E0,3.8E1,1.3E1,1.4E1,2.8E1,9E0,2.9E1,8E0,5E0,9E0,5E0,4E0,2.4E1,7E0,2E0,1.4E1,1.5E1,5E0,3E0,2E0,3E0,5E0,4E0,3E0,2E0,1E0,3E0,2E1,4E0,6E0,1E0,4E0,1E1,7E0,8E0,1E0,4E0,1E0,1E0,4E0,1E0,1E0,3E0,7E0,1.3E1,4E0,2E0,2E0,8E0,5E0,2E0,5E0,3E0,1E0,3E0],"tree_param":{"num_deleted":"0","num_feature":"32","num_nodes":"59","size_leaf_vector":"0"}},{"base_weights":[-1.6262438E-3,-3.6885368E-3,9.7145796E-2,-8.615815E-3,1.647404E-2,-1.5375584E-2,2.4870099E-3,7.8507304E-2,8.66623E-3,-1.9171175E-2,9.594475E-3,9.236971E-3,-3.311019E-2,3.8402937E-2,-2.573039E-3,-3.4401335E-2,-1.3975032E-2,-1.8502474E-2,1.7361045E-2,1.534767E-2,-2.8208792E-2,-4.4323366E-2,-1.0860284E-2,4.6222687E-2,3.5619736E-3,3.4055493E-3,-1.8370897E-2,-4.0866807E-2,-5.692959E-3,-3.4376025E-2,-8.168291E-3,7.984579E-3,2.4075985E-2,-1.9511183E-3,3.1367484E-2,-2.941966E-3,-3.5650413E-2,1.0452748E-3,1.35041475E-2],"categories":[],"categories_nodes":[],"categories_segments":[],"categories_sizes":[],"default_left":[1,1,0,1,1,1,1,0,1,1,1,1,1,1,1,1,1,0,1,1,1,0,0,0,0,1,0,0,0,0,0,0,0,0,0,0,0,0,0],"id":6,"left_children":[1,3,-1,5,7,9,11,-1,13,15,17,19,21,23,25,27,29,-1,31,33,35,-1,-1,-1,-1,37,-1,-1,-1,-1,-1,-1,-1,-1,-1,-1,-1,-1,-1],"loss_changes":[1.9913228E-2,9.579867E-3,0E0,5.8172853E-3,8.5221715E-3,4.733191E-3,7.5142286E-3,0E0,6.1147516E-3,2.84304E-3,1.8487409E-3,6.3822544E-3,7.660962E-4,1.1975951E-3,1.3848474E-3,1.6234796E-3,3.6284951E-3,0E0,1.8553773E-4,6.435039E-3,6.4722216E-4,0E0,0E0,0E0,0E0,2.4807456E-4,0E0,0E0,0E0,0E0,0E0,0E0,0E0,0E0,0E0,0E0,0E0,0E0,0E0],"parents":[2147483647,0,0,1,1,3,3,4,4,5,5,6,6,8,8,9,9,10,10,11,11,12,12,13,13,14,14,15,15,16,16,18,18,19,19,20,20,25,25],"right_children":[2,4,-1,6,8,10,12,-1,14,16,18,20,22,24,26,28,30,-1,32,34,36,-1,-1,-1,-1,38,-1,-1,-1,-1,-1,-1,-1,-1,-1,-1,-1,-1,-1],"split_conditions":[3.8E2,3.055E2,9.7145796E-2,5E-1,3.135E2,2.215E2,3.04E2,7.8507304E-2,1.54E2,1.18E2,-5E-1,2.185E2,5E-1,-5E-1,2.055E2,3.2E1,1.565E2,-1.8502474E-2,5.25E1,2.25E2,-5E-1,-4.4323366E-2,-1.0860284E-2,4.6222687E-2,3.5619736E-3,1.18E2,-1.8370897E-2,-4.0866807E-2,-5.692959E-3,-3.4376025E-2,-8.168291E-3,7.984579E-3,2.4075985E-2,-1.9511183E-3,3.1367484E-2,-2.941966E-3,-3.5650413E-2,1.0452748E-3,1.35041475E-2],"split_indices":[23,26,0,4,26,24,20,0,21,24,10,24,6,0,24,17,21,0,27,16,1,0,0,0,0,17,0,0,0,0,0,0,0,0,0,0,0,0,0],"split_type":[0,0,0,0,0,0,0,0,0,0,0,0,0,0,0,0,0,0,0,0,0,0,0,0,0,0,0,0,0,0,0,0,0,0,0,0,0,0,0],"sum_hessian":[9.5E1,9.4E1,1E0,7.6E1,1.8E1,4.7E1,2.9E1,1E0,1.7E1,4.1E1,6E0,2.5E1,4E0,4E0,1.3E1,9E0,3.2E1,1E0,5E0,2.2E1,3E0,2E0,2E0,3E0,1E0,1E1,3E0,7E0,2E0,6E0,2.6E1,3E0,2E0,1.1E1,1.1E1,1E0,2E0,9E0,1E0],"tree_param":{"num_deleted":"0","num_feature":"32","num_nodes":"39","size_leaf_vector":"0"}},{"base_weights":[8.5118413E-4,-6.3103245E-4,3.5099924E-2,-7.7800564E-3,5.1553147E-3,4.8572898E-2,1.4417966E-2,-1.3423162E-2,4.8981444E-4,1.1357017E-2,-1.4323409E-2,-2.0728717E-2,-3.781418E-3,4.2944867E-3,-1.3900161E-2,2.2205671E-2,3.1993438E-3,-6.122854E-3,-2.6219726E-2,-5.185008E-3,-2.6427697E-2,1.8599987E-3,-2.1325668E-2,7.307085E-3,-3.1921268E-3,-9.689331E-4,-1.7887592E-2,1.3985634E-3,3.0758753E-2,1.0928577E-2,-3.1021493E-3,-1.1235595E-2,-1.6938845E-3,-8.890152E-3,2.484719E-4,-3.2711882E-2,-8.823454E-3,-3.2777786E-3,4.5301574E-3,1.5989542E-2,2.052471E-3,-4.800439E-3,1.6205609E-3,-3.194809E-3,7.056872E-3,4.0888567E-2,2.7698278E-4,1.8465498E-2,1.5702248E-3,-8.041218E-3,2.9856649E-3,-3.0745268E-3,7.116E-4],"categories":[],"categories_nodes":[],"categories_segments":[],"categories_sizes":[],"default_left":[1,1,1,1,1,0,0,1,1,1,1,1,1,1,1,1,1,1,0,1,1,1,0,1,1,0,0,1,1,1,1,0,1,0,0,0,0,0,0,0,0,0,0,0,0,0,0,0,0,0,0,0,0],"id":7,"left_children":[1,3,5,7,9,-1,-1,11,13,15,17,19,21,23,25,27,29,31,-1,33,35,37,-1,39,41,-1,-1,43,45,47,49,-1,51,-1,-1,-1,-1,-1,-1,-1,-1,-1,-1,-1,-1,-1,-1,-1,-1,-1,-1,-1,-1],"loss_changes":[4.8954976E-3,3.887215E-3,4.1426765E-4,1.9666203E-3,6.4443364E-3,0E0,0E0,1.6825735E-3,1.0451786E-3,3.468948E-3,1.1076936E-3,1.1031386E-3,1.2273588E-3,3.616375E-4,1.8891768E-4,2.9823845E-3,1.202839E-3,1.8476578E-4,0E0,1.02868085E-4,8.176509E-4,1.5203565E-4,0E0,4.6903448E-4,4.6480916E-5,0E0,0E0,1.7848967E-4,3.6939718E-3,7.4686995E-4,4.4496224E-4,0E0,2.2114516E-5,0E0,0E0,0E0,0E0,0E0,0E0,0E0,0E0,0E0,0E0,0E0,0E0,0E0,0E0,0E0,0E0,0E0,0E0,0E0,0E0],"parents":[2147483647,0,0,1,1,2,2,3,3,4,4,7,7,8,8,9,9,10,10,11,11,12,12,13,13,14,14,15,15,16,16,17,17,19,19,20,20,21,21,23,23,24,24,27,27,28,28,29,29,30,30,32,32],"right_children":[2,4,6,8,10,-1,-1,12,14,16,18,20,22,24,26,28,30,32,-1,34,36,38,-1,40,42,-1,-1,44,46,48,50,-1,52,-1,-1,-1,-1,-1,-1,-1,-1,-1,-1,-1,-1,-1,-1,-1,-1,-1,-1,-1,-1],"split_conditions":[3.23E2,1.69E2,-5E-1,2.05E2,5.9E1,4.8572898E-2,1.4417966E-2,1.57E2,2.085E2,1.34E2,5E-1,2.1E2,1.53E2,0E0,-5E-1,5.3E1,1.965E2,1.005E2,-2.6219726E-2,0E0,3.445E2,-5E-1,-2.1325668E-2,2.305E2,0E0,-9.689331E-4,-1.7887592E-2,5E-1,2.62E2,1.83E2,2.05E2,-1.1235595E-2,0E0,-8.890152E-3,2.484719E-4,-3.2711882E-2,-8.823454E-3,-3.2777786E-3,4.5301574E-3,1.5989542E-2,2.052471E-3,-4.800439E-3,1.6205609E-3,-3.194809E-3,7.056872E-3,4.0888567E-2,2.7698278E-4,1.8465498E-2,1.5702248E-3,-8.041218E-3,2.9856649E-3,-3.0745268E-3,7.116E-4],"split_indices":[23,22,0,23,29,0,0,24,27,24,0,16,29,7,0,20,20,23,0,0,16,7,0,21,0,0,0,8,23,27,25,0,13,0,0,0,0,0,0,0,0,0,0,0,0,0,0,0,0,0,0,0,0],"split_type":[0,0,0,0,0,0,0,0,0,0,0,0,0,0,0,0,0,0,0,0,0,0,0,0,0,0,0,0,0,0,0,0,0,0,0,0,0,0,0,0,0,0,0,0,0,0,0,0,0,0,0,0,0],"sum_hessian":[9.5E1,9.2E1,3E0,4.1E1,5.1E1,1E0,2E0,2.4E1,1.7E1,3.9E1,1.2E1,1.3E1,1.1E1,1.4E1,3E0,1.6E1,2.3E1,8E0,4E0,4E0,9E0,9E0,2E0,1E1,4E0,1E0,2E0,5E0,1.1E1,1E1,1.3E1,3E0,5E0,2E0,2E0,6E0,3E0,3E0,6E0,3E0,7E0,3E0,1E0,3E0,2E0,8E0,3E0,5E0,5E0,7E0,6E0,3E0,2E0],"tree_param":{"num_deleted":"0","num_feature":"32","num_nodes":"53","size_leaf_vector":"0"}},{"base_weights":[9.3117356E-5,-3.7463591E-3,3.5543488E-3,2.2625686E-3,-8.0586625E-3,2.6539755E-3,2.4286509E-2,7.938027E-3,7.940741E-4,-1.9755482E-3,-1.4457744E-2,-2.6200295E-3,5.970947E-3,5.545616E-4,1.0214329E-2,3.0566996E-3,-2.8749194E-3,6.0537184E-4,-7.2584627E-3,-1.836703E-2,4.6955547E-3,-8.173823E-3,-7.20717E-4,-1.254252E-3,7.755165E-3,4.3671727E-3,-3.284216E-4,9.7990036E-5,-5.129099E-3,-3.3639867E-3,4.473835E-3,-8.888066E-3,-3.7002563E-4,-3.3307076E-3,-2.1338357E-2,-1.382947E-3,8.426279E-3,-1.5880167E-3,1.5049458E-3,1.8767516E-4,-4.9529076E-3,4.8918836E-3,1.8229913E-2,5.6552887E-4,4.8294747E-3,-8.9724857E-4,6.890297E-4,7.9711276E-4,-9.996891E-4,-6.1691604E-3,-4.1911006E-4,5.093181E-3,6.8855286E-4,-2.6881695E-3,-1.0058641E-2,-4.1184425E-3,-8.776188E-4,-2.645731E-2,-1.1951732E-2,1.2656152E-3,-2.6798514E-3,-1.3251304E-4,8.943081E-4,5.533719E-3,-3.972411E-3,2.7478615E-2,2.9045742E-3],"categories":[],"categories_nodes":[],"categories_segments":[],"categories_sizes":[],"default_left":[1,1,1,1,1,1,0,1,1,1,1,1,1,0,0,1,1,1,1,1,1,0,1,1,1,1,1,1,0,1,1,1,0,1,1,0,0,1,0,1,0,1,1,0,0,0,0,0,0,0,0,0,0,0,0,0,0,0,0,0,0,0,0,0,0,0,0],"id":8,"left_children":[1,3,5,7,9,11,-1,13,15,17,19,21,23,-1,-1,25,27,29,31,33,35,-1,37,39,41,43,45,47,-1,49,51,53,-1,55,57,-1,-1,59,-1,61,-1,63,65,-1,-1,-1,-1,-1,-1,-1,-1,-1,-1,-1,-1,-1,-1,-1,-1,-1,-1,-1,-1,-1,-1,-1,-1],"loss_changes":[1.2890904E-3,1.2102001E-3,8.875451E-4,1.6038421E-4,1.0224492E-3,8.903303E-4,0E0,6.156348E-5,1.4991424E-4,2.089158E-4,1.0596279E-3,2.0507677E-4,4.093583E-4,0E0,0E0,5.0231494E-5,4.741291E-5,1.8395843E-4,5.2838266E-5,4.203841E-4,7.9684745E-5,0E0,3.3274948E-5,3.826188E-5,6.6062494E-4,1.1328855E-5,2.933246E-6,3.866515E-6,0E0,4.697978E-5,1.0559459E-5,1.99044E-6,0E0,2.182729E-6,1.1623651E-4,0E0,0E0,4.077999E-5,6.6475786E-7,1.4760407E-6,0E0,1.4145998E-4,6.2888395E-4,0E0,0E0,0E0,0E0,0E0,0E0,0E0,0E0,0E0,0E0,0E0,0E0,0E0,0E0,0E0,0E0,0E0,0E0,0E0,0E0,0E0,0E0,0E0,0E0],"parents":[2147483647,0,0,1,1,2,2,3,3,4,4,5,5,7,7,8,8,9,9,10,10,11,11,12,12,15,15,16,16,17,17,18,18,19,19,20,20,22,22,23,23,24,24,25,25,26,26,27,27,29,29,30,30,31,31,33,33,34,34,37,37,39,39,41,41,42,42],"right_children":[2,4,6,8,10,12,-1,14,16,18,20,22,24,-1,-1,26,28,30,32,34,36,-1,38,40,42,44,46,48,-1,50,52,54,-1,56,58,-1,-1,60,-1,62,-1,64,66,-1,-1,-1,-1,-1,-1,-1,-1,-1,-1,-1,-1,-1,-1,-1,-1,-1,-1,-1,-1,-1,-1,-1,-1],"split_conditions":[1.7E2,-5E-1,3.58E2,1.905E2,1.77E2,1.765E2,2.4286509E-2,-5E-1,5E-1,2.155E2,2.105E2,-5E-1,1.45E2,5.545616E-4,1.0214329E-2,2.37E2,2.055E2,0E0,0E0,7.55E1,-5E-1,-8.173823E-3,1.83E2,2.765E2,2.575E2,-5E-1,5E-1,0E0,-5.129099E-3,5E-1,5E-1,1.67E2,-3.7002563E-4,-5E-1,2.37E2,-1.382947E-3,8.426279E-3,-5E-1,1.5049458E-3,2.675E2,-4.9529076E-3,2.205E2,2.655E2,5.6552887E-4,4.8294747E-3,-8.9724857E-4,6.890297E-4,7.9711276E-4,-9.996891E-4,-6.1691604E-3,-4.1911006E-4,5.093181E-3,6.8855286E-4,-2.6881695E-3,-1.0058641E-2,-4.1184425E-3,-8.776188E-4,-2.645731E-2,-1.1951732E-2,1.2656152E-3,-2.6798514E-3,-1.3251304E-4,8.943081E-4,5.533719E-3,-3.972411E-3,2.7478615E-2,2.9045742E-3],"split_indices":[25,4,23,20,22,22,0,3,14,28,27,10,23,0,0,24,21,5,0,24,1,0,27,20,20,3,3,0,0,4,6,21,0,1,21,0,0,4,0,20,0,28,16,0,0,0,0,0,0,0,0,0,0,0,0,0,0,0,0,0,0,0,0,0,0,0,0],"split_type":[0,0,0,0,0,0,0,0,0,0,0,0,0,0,0,0,0,0,0,0,0,0,0,0,0,0,0,0,0,0,0,0,0,0,0,0,0,0,0,0,0,0,0,0,0,0,0,0,0,0,0,0,0,0,0,0,0,0,0,0,0,0,0,0,0,0,0],"sum_hessian":[9.5E1,4.5E1,5E1,1.9E1,2.6E1,4.9E1,1E0,3E0,1.6E1,1.4E1,1.2E1,1.9E1,3E1,1E0,2E0,1E1,6E0,1E1,4E0,1E1,2E0,4E0,1.5E1,6E0,2.4E1,7E0,3E0,3E0,3E0,5E0,5E0,3E0,1E0,2E0,8E0,1E0,1E0,1.1E1,4E0,5E0,1E0,2E1,4E0,1E0,6E0,2E0,1E0,2E0,1E0,2E0,3E0,4E0,1E0,1E0,2E0,1E0,1E0,4E0,4E0,3E0,8E0,4E0,1E0,1.9E1,1E0,2E0,2E0],"tree_param":{"num_deleted":"0","num_feature":"32","num_nodes":"67","size_leaf_vector":"0"}},{"base_weights":[4.4758122E-5,-2.104182E-4,1.2143254E-2,-2.6333332E-3,2.7679504E-4,1.5985966E-4,-4.8235785E-3,4.6364567E-4,-7.2422028E-3,9.013176E-4,-8.069277E-4,-1.2755394E-4,-7.150332E-3,-2.2812287E-4,2.515769E-3,-8.042765E-3,-1.3440847E-3,8.129583E-4,-1.530665E-3,1.3639065E-3,8.588354E-3,2.3349624E-3,-1.6476797E-5,-3.4755638E-3,-8.094765E-4,2.7898366E-3,-1.9529263E-3],"categories":[],"categories_nodes":[],"categories_segments":[],"categories_sizes":[],"default_left":[1,1,0,1,1,1,1,1,0,0,0,0,1,1,1,0,0,1,1,1,0,0,0,0,0,0,0],"id":9,"left_children":[1,3,-1,5,7,9,11,13,-1,-1,-1,-1,15,17,19,-1,-1,21,23,25,-1,-1,-1,-1,-1,-1,-1],"loss_changes":[2.9893115E-4,1.12874135E-4,0E0,9.8655546E-5,1.1575218E-4,6.4619553E-6,9.742635E-5,1.1272186E-4,0E0,5.581419E-7,0E0,7.208371E-7,2.0279957E-5,8.260748E-5,1.2818194E-4,0E0,0E0,4.2960193E-5,3.5057856E-5,9.058063E-5,0E0,0E0,0E0,0E0,0E0,0E0,0E0],"parents":[2147483647,0,0,1,1,3,3,4,4,5,5,6,6,7,7,12,12,13,13,14,14,17,17,18,18,19,19],"right_children":[2,4,-1,6,8,10,12,14,-1,-1,-1,-1,16,18,20,-1,-1,22,24,26,-1,-1,-1,-1,-1,-1,-1],"split_conditions":[3.8E2,-5E-1,1.2143254E-2,1.53E2,3.225E2,1.305E2,-5E-1,2.25E2,-7.2422028E-3,9.013176E-4,-8.069277E-4,-1.2755394E-4,5E-1,2.465E2,2.63E2,-8.042765E-3,-1.3440847E-3,1.735E2,-5E-1,1.99E2,8.588354E-3,2.3349624E-3,-1.6476797E-5,-3.4755638E-3,-8.094765E-4,2.7898366E-3,-1.9529263E-3],"split_indices":[23,13,0,29,22,29,4,22,0,0,0,0,3,30,27,0,0,23,10,27,0,0,0,0,0,0,0],"split_type":[0,0,0,0,0,0,0,0,0,0,0,0,0,0,0,0,0,0,0,0,0,0,0,0,0,0,0],"sum_hessian":[9.5E1,9.4E1,1E0,1.5E1,7.9E1,7E0,8E0,7.8E1,1E0,4E0,3E0,3E0,5E0,5.9E1,1.9E1,4E0,1E0,3.3E1,2.6E1,1.7E1,2E0,1.1E1,2.2E1,6E0,2E1,1.2E1,5E0],"tree_param":{"num_deleted":"0","num_feature":"32","num_nodes":"27","size_leaf_vector":"0"}},{"base_weights":[3.0650448E-5,-9.684939E-5,6.0715675E-3,-1.3525665E-3,2.348768E-4,-1.9487888E-3,8.258581E-4,5.095385E-4,-2.16344E-3,-2.7604236E-3,-7.92101E-4,-1.2747447E-4,1.5039047E-3,2.3451848E-4,6.4818063E-3,-1.9192696E-4,-4.0869713E-3,-1.1910796E-3,2.6988983E-4,-2.8675317E-3,4.7699042E-4,-3.225406E-4,-4.456679E-3,1.3355325E-3,-1.6240493E-4],"categories":[],"categories_nodes":[],"categories_segments":[],"categories_sizes":[],"default_left":[1,1,0,1,1,1,1,1,1,0,1,0,0,1,0,0,0,0,0,1,1,0,0,0,0],"id":10,"left_children":[1,3,-1,5,7,9,11,13,15,-1,17,-1,-1,19,-1,-1,-1,-1,-1,21,23,-1,-1,-1,-1],"loss_changes":[7.452876E-5,3.989034E-5,0E0,2.7585931E-5,5.1165513E-5,1.2834393E-5,3.4237287E-6,1.1181193E-4,2.9553732E-5,0E0,3.711153E-6,2.6443755E-7,0E0,5.176252E-5,0E0,8.572143E-7,0E0,2.9099738E-7,1.14710474E-7,1.8784369E-5,3.480061E-5,0E0,0E0,0E0,0E0],"parents":[2147483647,0,0,1,1,3,3,4,4,5,5,6,6,7,7,8,8,10,10,13,13,19,19,20,20],"right_children":[2,4,-1,6,8,10,12,14,16,-1,18,-1,-1,20,-1,-1,-1,-1,-1,22,24,-1,-1,-1,-1],"split_conditions":[3.8E2,1.375E2,6.0715675E-3,2.95E2,3.01E2,1.62E2,0E0,2.865E2,1.975E2,-2.7604236E-3,1.185E2,-1.2747447E-4,1.5039047E-3,-5E-1,6.4818063E-3,-1.9192696E-4,-4.0869713E-3,-1.1910796E-3,2.6988983E-4,2.445E2,2.015E2,-3.225406E-4,-4.456679E-3,1.3355325E-3,-1.6240493E-4],"split_indices":[23,23,0,30,27,24,5,27,23,0,29,0,0,15,0,0,0,0,0,16,20,0,0,0,0],"split_type":[0,0,0,0,0,0,0,0,0,0,0,0,0,0,0,0,0,0,0,0,0,0,0,0,0],"sum_hessian":[9.5E1,9.4E1,1E0,1.9E1,7.5E1,1.5E1,4E0,6.8E1,7E0,8E0,7E0,2E0,2E0,6.6E1,2E0,4E0,3E0,5E0,2E0,4E0,6.2E1,2E0,2E0,2.6E1,3.6E1],"tree_param":{"num_deleted":"0","num_feature":"32","num_nodes":"25","size_leaf_vector":"0"}},{"base_weights":[2.4623549E-5,7.0218294E-4,-4.5128874E-4,-5.379157E-4,1.1334796E-3,-8.166199E-4,9.867549E-4,1.1882782E-4,-9.3017303E-4,2.4172117E-3,2.630447E-4,-1.0402094E-3,2.7348995E-3,1.8059678E-3,-1.1031628E-3,4.4703484E-5,-1.6725063E-3,6.1000587E-4,3.244564E-3,3.0357838E-3,-5.9651004E-5,-1.5553832E-3,-3.4423172E-4,4.5838355E-4,2.7923584E-3,-2.3126602E-5,-1.4554659E-3,3.8167436E-3,1.0186831E-3,-3.742501E-4,1.6380945E-3,-1.0569185E-3,-2.9577017E-3,-1.5277416E-5,-1.3280392E-3,-2.9492378E-4,7.2044134E-4,-4.4006567E-5,-1.3539791E-3,-3.4372013E-6,-1.758953E-3,-3.2901287E-3,-6.477833E-4,-5.52088E-4,4.6358505E-4],"categories":[],"categories_nodes":[],"categories_segments":[],"categories_sizes":[],"default_left":[1,1,1,1,1,1,1,0,1,1,1,1,0,1,1,0,0,0,1,0,1,1,1,1,0,0,0,0,0,1,0,1,1,1,0,0,0,0,0,0,0,0,0,0,0],"id":11,"left_children":[1,3,5,7,9,11,13,-1,15,17,19,21,-1,23,25,-1,-1,-1,27,-1,29,31,33,35,-1,-1,-1,-1,-1,37,-1,39,41,43,-1,-1,-1,-1,-1,-1,-1,-1,-1,-1,-1],"loss_changes":[3.1272935E-5,2.2003736E-5,3.075145E-5,2.944268E-6,3.2886317E-5,3.9372666E-5,2.2537326E-5,1.5717565E-7,5.1405495E-6,1.5963145E-5,1.7181357E-5,1.5240763E-5,0E0,1.06832285E-5,1.4883408E-6,2.1940849E-7,0E0,0E0,6.300783E-6,0E0,1.0227023E-5,1.43491125E-5,6.4522656E-6,1.1995256E-6,0E0,0E0,0E0,0E0,0E0,5.117203E-6,0E0,1.4785555E-5,2.475983E-6,4.368875E-6,0E0,0E0,0E0,0E0,0E0,0E0,0E0,0E0,0E0,0E0,0E0],"parents":[2147483647,0,0,1,1,2,2,3,3,4,4,5,5,6,6,8,8,9,9,10,10,11,11,13,13,14,14,18,18,20,20,21,21,22,22,23,23,29,29,31,31,32,32,33,33],"right_children":[2,4,6,8,10,12,14,-1,16,18,20,22,-1,24,26,-1,-1,-1,28,-1,30,32,34,36,-1,-1,-1,-1,-1,38,-1,40,42,44,-1,-1,-1,-1,-1,-1,-1,-1,-1,-1,-1],"split_conditions":[-5E-1,2.255E2,2.575E2,1.57E2,2.87E2,5E-1,3.695E2,1.1882782E-4,2.04E2,1.415E2,-5E-1,6.05E1,2.7348995E-3,2.385E2,-5E-1,4.4703484E-5,-1.6725063E-3,6.1000587E-4,5E-1,3.0357838E-3,1.835E2,2.22E2,2.185E2,-5E-1,2.7923584E-3,-2.3126602E-5,-1.4554659E-3,3.8167436E-3,1.0186831E-3,2.715E2,1.6380945E-3,2.98E2,5E-1,2.94E2,-1.3280392E-3,-2.9492378E-4,7.2044134E-4,-4.4006567E-5,-1.3539791E-3,-3.4372013E-6,-1.758953E-3,-3.2901287E-3,-6.477833E-4,-5.52088E-4,4.6358505E-4],"split_indices":[4,16,25,23,16,2,26,0,21,22,15,27,0,23,1,0,0,0,11,0,19,22,21,6,0,0,0,0,0,25,0,16,3,16,0,0,0,0,0,0,0,0,0,0,0],"split_type":[0,0,0,0,0,0,0,0,0,0,0,0,0,0,0,0,0,0,0,0,0,0,0,0,0,0,0,0,0,0,0,0,0,0,0,0,0,0,0,0,0,0,0,0,0],"sum_hessian":[9.5E1,3.9E1,5.6E1,1E1,2.9E1,4.5E1,1.1E1,4E0,6E0,1.1E1,1.8E1,4.3E1,2E0,8E0,3E0,3E0,3E0,4E0,7E0,1E0,1.7E1,2.4E1,1.9E1,4E0,4E0,1E0,2E0,5E0,2E0,1.5E1,2E0,1.9E1,5E0,1.5E1,4E0,1E0,3E0,1.2E1,3E0,8E0,1.1E1,4E0,1E0,7E0,8E0],"tree_param":{"num_deleted":"0","num_feature":"32","num_nodes":"45","size_leaf_vector":"0"}},{"base_weights":[4.7604863E-5,-2.1383651E-4,2.5490808E-4,-2.7302126E-4,6.663005E-4,7.956666E-5,8.6197257E-4,-5.8045983E-4,-7.3327465E-5,-1.7682569E-4,5.2328035E-4,-2.4034579E-4,1.6836779E-3,-9.028216E-4,3.0930043E-4,2.4682283E-4,-2.573378E-4,-6.474786E-4,4.3809414E-5,1.2826523E-3,6.150657E-5,3.8115183E-4,-6.4638257E-4,1.9895632E-3,-7.581711E-5,-5.335361E-4,-1.3131142E-3,4.917383E-7,8.2143146E-4,7.8350306E-5,-1.0234514E-3,-3.6487976E-4,5.838606E-4,2.1274884E-3,3.28362E-4,-4.1770935E-4,3.95017E-4,2.401173E-3,7.7756244E-4,9.544691E-5,-7.073198E-4],"categories":[],"categories_nodes":[],"categories_segments":[],"categories_sizes":[],"default_left":[1,1,1,1,0,1,1,1,1,1,1,1,1,1,0,1,0,1,1,1,1,0,0,1,0,0,0,0,0,0,0,1,0,0,0,0,0,0,0,0,0],"id":12,"left_children":[1,3,5,7,-1,9,11,13,15,17,19,21,23,25,-1,27,-1,29,31,33,35,-1,-1,37,-1,-1,-1,-1,-1,-1,-1,39,-1,-1,-1,-1,-1,-1,-1,-1,-1],"loss_changes":[5.2574824E-6,2.4218132E-6,5.6793674E-6,2.474573E-6,0E0,4.9844157E-6,1.1274036E-5,4.8684387E-6,1.5952019E-6,2.9359576E-6,5.5316364E-6,1.7604752E-6,3.9182705E-6,1.1175871E-6,5.480274E-10,1.4150359E-6,7.5907303E-7,2.536215E-6,4.6273008E-6,4.1387275E-6,1.9230608E-6,0E0,0E0,1.1261673E-6,0E0,1.0230474E-7,4.6321657E-7,4.0848835E-7,0E0,9.417576E-8,2.2447921E-7,1.959123E-6,4.5354432E-7,0E0,1.4711452E-7,3.972134E-7,2.6310772E-7,0E0,0E0,0E0,0E0],"parents":[2147483647,0,0,1,1,2,2,3,3,5,5,6,6,7,7,8,8,9,9,10,10,11,11,12,12,13,13,15,15,17,17,18,18,19,19,20,20,23,23,31,31],"right_children":[2,4,6,8,-1,10,12,14,16,18,20,22,24,26,-1,28,-1,30,32,34,36,-1,-1,38,-1,-1,-1,-1,-1,-1,-1,40,-1,-1,-1,-1,-1,-1,-1,-1,-1],"split_conditions":[7.2E1,1.91E2,3.525E2,7.55E1,6.663005E-4,5E-1,-5E-1,2.595E2,1.83E2,1.675E2,6.9E1,3.83E2,5E-1,2.005E2,3.0930043E-4,2.595E2,-2.573378E-4,9.65E1,1.915E2,5E-1,2.51E2,3.8115183E-4,-6.4638257E-4,2.21E2,-7.581711E-5,-5.335361E-4,-1.3131142E-3,4.917383E-7,8.2143146E-4,7.8350306E-5,-1.0234514E-3,2.43E2,5.838606E-4,2.1274884E-3,3.28362E-4,-4.1770935E-4,3.95017E-4,2.401173E-3,7.7756244E-4,9.544691E-5,-7.073198E-4],"split_indices":[26,19,16,25,0,8,5,23,25,21,30,16,11,28,0,30,0,25,25,9,30,0,0,26,0,0,0,0,0,0,0,26,0,0,0,0,0,0,0,0,0],"split_type":[0,0,0,0,0,0,0,0,0,0,0,0,0,0,0,0,0,0,0,0,0,0,0,0,0,0,0,0,0,0,0,0,0,0,0,0,0,0,0,0,0],"sum_hessian":[9.5E1,4.2E1,5.3E1,4E1,2E0,4.2E1,1.1E1,1.5E1,2.5E1,2.7E1,1.5E1,5E0,6E0,1.1E1,4E0,9E0,1.6E1,8E0,1.9E1,5E0,1E1,2E0,3E0,5E0,1E0,7E0,4E0,7E0,2E0,3E0,5E0,1.1E1,8E0,2E0,3E0,4E0,6E0,3E0,2E0,5E0,6E0],"tree_param":{"num_deleted":"0","num_feature":"32","num_nodes":"41","size_leaf_vector":"0"}},{"base_weights":[4.1579828E-5,6.350715E-5,-4.786253E-4],"categories":[],"categories_nodes":[],"categories_segments":[],"categories_sizes":[],"default_left":[1,0,0],"id":13,"left_children":[1,-1,-1],"loss_changes":[1.1254398E-6,9.542041E-7,6.0824675E-8],"parents":[2147483647,0,0],"right_children":[2,-1,-1],"split_conditions":[5E-1,6.350715E-5,-4.786253E-4],"split_indices":[15,0,0],"split_type":[0,0,0],"sum_hessian":[9.5E1,9.2E1,3E0],"tree_param":{"num_deleted":"0","num_feature":"32","num_nodes":"3","size_leaf_vector":"0"}},{"base_weights":[-4.3256828E-6],"categories":[],"categories_nodes":[],"categories_segments":[],"categories_sizes":[],"default_left":[0],"id":14,"left_children":[-1],"loss_changes":[7.841301E-7],"parents":[2147483647],"right_children":[-1],"split_conditions":[-4.3256828E-6],"split_indices":[0],"split_type":[0],"sum_hessian":[9.5E1],"tree_param":{"num_deleted":"0","num_feature":"32","num_nodes":"1","size_leaf_vector":"0"}},{"base_weights":[1.8626451E-9],"categories":[],"categories_nodes":[],"categories_segments":[],"categories_sizes":[],"default_left":[0],"id":15,"left_children":[-1],"loss_changes":[7.844769E-7],"parents":[2147483647],"right_children":[-1],"split_conditions":[1.8626451E-9],"split_indices":[0],"split_type":[0],"sum_hessian":[9.5E1],"tree_param":{"num_deleted":"0","num_feature":"32","num_nodes":"1","size_leaf_vector":"0"}},{"base_weights":[1.8626451E-9],"categories":[],"categories_nodes":[],"categories_segments":[],"categories_sizes":[],"default_left":[0],"id":16,"left_children":[-1],"loss_changes":[7.844769E-7],"parents":[2147483647],"right_children":[-1],"split_conditions":[1.8626451E-9],"split_indices":[0],"split_type":[0],"sum_hessian":[9.5E1],"tree_param":{"num_deleted":"0","num_feature":"32","num_nodes":"1","size_leaf_vector":"0"}},{"base_weights":[1.8626451E-9],"categories":[],"categories_nodes":[],"categories_segments":[],"categories_sizes":[],"default_left":[0],"id":17,"left_children":[-1],"loss_changes":[7.844769E-7],"parents":[2147483647],"right_children":[-1],"split_conditions":[1.8626451E-9],"split_indices":[0],"split_type":[0],"sum_hessian":[9.5E1],"tree_param":{"num_deleted":"0","num_feature":"32","num_nodes":"1","size_leaf_vector":"0"}},{"base_weights":[1.8626451E-9],"categories":[],"categories_nodes":[],"categories_segments":[],"categories_sizes":[],"default_left":[0],"id":18,"left_children":[-1],"loss_changes":[7.844769E-7],"parents":[2147483647],"right_children":[-1],"split_conditions":[1.8626451E-9],"split_indices":[0],"split_type":[0],"sum_hessian":[9.5E1],"tree_param":{"num_deleted":"0","num_feature":"32","num_nodes":"1","size_leaf_vector":"0"}},{"base_weights":[1.8626451E-9],"categories":[],"categories_nodes":[],"categories_segments":[],"categories_sizes":[],"default_left":[0],"id":19,"left_children":[-1],"loss_changes":[7.844769E-7],"parents":[2147483647],"right_children":[-1],"split_conditions":[1.8626451E-9],"split_indices":[0],"split_type":[0],"sum_hessian":[9.5E1],"tree_param":{"num_deleted":"0","num_feature":"32","num_nodes":"1","size_leaf_vector":"0"}},{"base_weights":[1.8626451E-9],"categories":[],"categories_nodes":[],"categories_segments":[],"categories_sizes":[],"default_left":[0],"id":20,"left_children":[-1],"loss_changes":[7.844769E-7],"parents":[2147483647],"right_children":[-1],"split_conditions":[1.8626451E-9],"split_indices":[0],"split_type":[0],"sum_hessian":[9.5E1],"tree_param":{"num_deleted":"0","num_feature":"32","num_nodes":"1","size_leaf_vector":"0"}},{"base_weights":[1.8626451E-9],"categories":[],"categories_nodes":[],"categories_segments":[],"categories_sizes":[],"default_left":[0],"id":21,"left_children":[-1],"loss_changes":[7.844769E-7],"parents":[2147483647],"right_children":[-1],"split_conditions":[1.8626451E-9],"split_indices":[0],"split_type":[0],"sum_hessian":[9.5E1],"tree_param":{"num_deleted":"0","num_feature":"32","num_nodes":"1","size_leaf_vector":"0"}},{"base_weights":[1.8626451E-9],"categories":[],"categories_nodes":[],"categories_segments":[],"categories_sizes":[],"default_left":[0],"id":22,"left_children":[-1],"loss_changes":[7.844769E-7],"parents":[2147483647],"right_children":[-1],"split_conditions":[1.8626451E-9],"split_indices":[0],"split_type":[0],"sum_hessian":[9.5E1],"tree_param":{"num_deleted":"0","num_feature":"32","num_nodes":"1","size_leaf_vector":"0"}},{"base_weights":[1.8626451E-9],"categories":[],"categories_nodes":[],"categories_segments":[],"categories_sizes":[],"default_left":[0],"id":23,"left_children":[-1],"loss_changes":[7.844769E-7],"parents":[2147483647],"right_children":[-1],"split_conditions":[1.8626451E-9],"split_indices":[0],"split_type":[0],"sum_hessian":[9.5E1],"tree_param":{"num_deleted":"0","num_feature":"32","num_nodes":"1","size_leaf_vector":"0"}},{"base_weights":[1.8626451E-9],"categories":[],"categories_nodes":[],"categories_segments":[],"categories_sizes":[],"default_left":[0],"id":24,"left_children":[-1],"loss_changes":[7.844769E-7],"parents":[2147483647],"right_children":[-1],"split_conditions":[1.8626451E-9],"split_indices":[0],"split_type":[0],"sum_hessian":[9.5E1],"tree_param":{"num_deleted":"0","num_feature":"32","num_nodes":"1","size_leaf_vector":"0"}},{"base_weights":[1.8626451E-9],"categories":[],"categories_nodes":[],"categories_segments":[],"categories_sizes":[],"default_left":[0],"id":25,"left_children":[-1],"loss_changes":[7.844769E-7],"parents":[2147483647],"right_children":[-1],"split_conditions":[1.8626451E-9],"split_indices":[0],"split_type":[0],"sum_hessian":[9.5E1],"tree_param":{"num_deleted":"0","num_feature":"32","num_nodes":"1","size_leaf_vector":"0"}},{"base_weights":[1.8626451E-9],"categories":[],"categories_nodes":[],"categories_segments":[],"categories_sizes":[],"default_left":[0],"id":26,"left_children":[-1],"loss_changes":[7.844769E-7],"parents":[2147483647],"right_children":[-1],"split_conditions":[1.8626451E-9],"split_indices":[0],"split_type":[0],"sum_hessian":[9.5E1],"tree_param":{"num_deleted":"0","num_feature":"32","num_nodes":"1","size_leaf_vector":"0"}},{"base_weights":[1.8626451E-9],"categories":[],"categories_nodes":[],"categories_segments":[],"categories_sizes":[],"default_left":[0],"id":27,"left_children":[-1],"loss_changes":[7.844769E-7],"parents":[2147483647],"right_children":[-1],"split_conditions":[1.8626451E-9],"split_indices":[0],"split_type":[0],"sum_hessian":[9.5E1],"tree_param":{"num_deleted":"0","num_feature":"32","num_nodes":"1","size_leaf_vector":"0"}},{"base_weights":[1.8626451E-9],"categories":[],"categories_nodes":[],"categories_segments":[],"categories_sizes":[],"default_left":[0],"id":28,"left_children":[-1],"loss_changes":[7.844769E-7],"parents":[2147483647],"right_children":[-1],"split_conditions":[1.8626451E-9],"split_indices":[0],"split_type":[0],"sum_hessian":[9.5E1],"tree_param":{"num_deleted":"0","num_feature":"32","num_nodes":"1","size_leaf_vector":"0"}},{"base_weights":[1.8626451E-9],"categories":[],"categories_nodes":[],"categories_segments":[],"categories_sizes":[],"default_left":[0],"id":29,"left_children":[-1],"loss_changes":[7.844769E-7],"parents":[2147483647],"right_children":[-1],"split_conditions":[1.8626451E-9],"split_indices":[0],"split_type":[0],"sum_hessian":[9.5E1],"tree_param":{"num_deleted":"0","num_feature":"32","num_nodes":"1","size_leaf_vector":"0"}},{"base_weights":[1.8626451E-9],"categories":[],"categories_nodes":[],"categories_segments":[],"categories_sizes":[],"default_left":[0],"id":30,"left_children":[-1],"loss_changes":[7.844769E-7],"parents":[2147483647],"right_children":[-1],"split_conditions":[1.8626451E-9],"split_indices":[0],"split_type":[0],"sum_hessian":[9.5E1],"tree_param":{"num_deleted":"0","num_feature":"32","num_nodes":"1","size_leaf_vector":"0"}},{"base_weights":[1.8626451E-9],"categories":[],"categories_nodes":[],"categories_segments":[],"categories_sizes":[],"default_left":[0],"id":31,"left_children":[-1],"loss_changes":[7.844769E-7],"parents":[2147483647],"right_children":[-1],"split_conditions":[1.8626451E-9],"split_indices":[0],"split_type":[0],"sum_hessian":[9.5E1],"tree_param":{"num_deleted":"0","num_feature":"32","num_nodes":"1","size_leaf_vector":"0"}},{"base_weights":[1.8626451E-9],"categories":[],"categories_nodes":[],"categories_segments":[],"categories_sizes":[],"default_left":[0],"id":32,"left_children":[-1],"loss_changes":[7.844769E-7],"parents":[2147483647],"right_children":[-1],"split_conditions":[1.8626451E-9],"split_indices":[0],"split_type":[0],"sum_hessian":[9.5E1],"tree_param":{"num_deleted":"0","num_feature":"32","num_nodes":"1","size_leaf_vector":"0"}},{"base_weights":[1.8626451E-9],"categories":[],"categories_nodes":[],"categories_segments":[],"categories_sizes":[],"default_left":[0],"id":33,"left_children":[-1],"loss_changes":[7.844769E-7],"parents":[2147483647],"right_children":[-1],"split_conditions":[1.8626451E-9],"split_indices":[0],"split_type":[0],"sum_hessian":[9.5E1],"tree_param":{"num_deleted":"0","num_feature":"32","num_nodes":"1","size_leaf_vector":"0"}},{"base_weights":[1.8626451E-9],"categories":[],"categories_nodes":[],"categories_segments":[],"categories_sizes":[],"default_left":[0],"id":34,"left_children":[-1],"loss_changes":[7.844769E-7],"parents":[2147483647],"right_children":[-1],"split_conditions":[1.8626451E-9],"split_indices":[0],"split_type":[0],"sum_hessian":[9.5E1],"tree_param":{"num_deleted":"0","num_feature":"32","num_nodes":"1","size_leaf_vector":"0"}},{"base_weights":[1.8626451E-9],"categories":[],"categories_nodes":[],"categories_segments":[],"categories_sizes":[],"default_left":[0],"id":35,"left_children":[-1],"loss_changes":[7.844769E-7],"parents":[2147483647],"right_children":[-1],"split_conditions":[1.8626451E-9],"split_indices":[0],"split_type":[0],"sum_hessian":[9.5E1],"tree_param":{"num_deleted":"0","num_feature":"32","num_nodes":"1","size_leaf_vector":"0"}},{"base_weights":[1.8626451E-9],"categories":[],"categories_nodes":[],"categories_segments":[],"categories_sizes":[],"default_left":[0],"id":36,"left_children":[-1],"loss_changes":[7.844769E-7],"parents":[2147483647],"right_children":[-1],"split_conditions":[1.8626451E-9],"split_indices":[0],"split_type":[0],"sum_hessian":[9.5E1],"tree_param":{"num_deleted":"0","num_feature":"32","num_nodes":"1","size_leaf_vector":"0"}},{"base_weights":[1.8626451E-9],"categories":[],"categories_nodes":[],"categories_segments":[],"categories_sizes":[],"default_left":[0],"id":37,"left_children":[-1],"loss_changes":[7.844769E-7],"parents":[2147483647],"right_children":[-1],"split_conditions":[1.8626451E-9],"split_indices":[0],"split_type":[0],"sum_hessian":[9.5E1],"tree_param":{"num_deleted":"0","num_feature":"32","num_nodes":"1","size_leaf_vector":"0"}},{"base_weights":[1.8626451E-9],"categories":[],"categories_nodes":[],"categories_segments":[],"categories_sizes":[],"default_left":[0],"id":38,"left_children":[-1],"loss_changes":[7.844769E-7],"parents":[2147483647],"right_children":[-1],"split_conditions":[1.8626451E-9],"split_indices":[0],"split_type":[0],"sum_hessian":[9.5E1],"tree_param":{"num_deleted":"0","num_feature":"32","num_nodes":"1","size_leaf_vector":"0"}},{"base_weights":[1.8626451E-9],"categories":[],"categories_nodes":[],"categories_segments":[],"categories_sizes":[],"default_left":[0],"id":39,"left_children":[-1],"loss_changes":[7.844769E-7],"parents":[2147483647],"right_children":[-1],"split_conditions":[1.8626451E-9],"split_indices":[0],"split_type":[0],"sum_hessian":[9.5E1],"tree_param":{"num_deleted":"0","num_feature":"32","num_nodes":"1","size_leaf_vector":"0"}},{"base_weights":[1.8626451E-9],"categories":[],"categories_nodes":[],"categories_segments":[],"categories_sizes":[],"default_left":[0],"id":40,"left_children":[-1],"loss_changes":[7.844769E-7],"parents":[2147483647],"right_children":[-1],"split_conditions":[1.8626451E-9],"split_indices":[0],"split_type":[0],"sum_hessian":[9.5E1],"tree_param":{"num_deleted":"0","num_feature":"32","num_nodes":"1","size_leaf_vector":"0"}},{"base_weights":[1.8626451E-9],"categories":[],"categories_nodes":[],"categories_segments":[],"categories_sizes":[],"default_left":[0],"id":41,"left_children":[-1],"loss_changes":[7.844769E-7],"parents":[2147483647],"right_children":[-1],"split_conditions":[1.8626451E-9],"split_indices":[0],"split_type":[0],"sum_hessian":[9.5E1],"tree_param":{"num_deleted":"0","num_feature":"32","num_nodes":"1","size_leaf_vector":"0"}},{"base_weights":[1.8626451E-9],"categories":[],"categories_nodes":[],"categories_segments":[],"categories_sizes":[],"default_left":[0],"id":42,"left_children":[-1],"loss_changes":[7.844769E-7],"parents":[2147483647],"right_children":[-1],"split_conditions":[1.8626451E-9],"split_indices":[0],"split_type":[0],"sum_hessian":[9.5E1],"tree_param":{"num_deleted":"0","num_feature":"32","num_nodes":"1","size_leaf_vector":"0"}},{"base_weights":[1.8626451E-9],"categories":[],"categories_nodes":[],"categories_segments":[],"categories_sizes":[],"default_left":[0],"id":43,"left_children":[-1],"loss_changes":[7.844769E-7],"parents":[2147483647],"right_children":[-1],"split_conditions":[1.8626451E-9],"split_indices":[0],"split_type":[0],"sum_hessian":[9.5E1],"tree_param":{"num_deleted":"0","num_feature":"32","num_nodes":"1","size_leaf_vector":"0"}},{"base_weights":[1.8626451E-9],"categories":[],"categories_nodes":[],"categories_segments":[],"categories_sizes":[],"default_left":[0],"id":44,"left_children":[-1],"loss_changes":[7.844769E-7],"parents":[2147483647],"right_children":[-1],"split_conditions":[1.8626451E-9],"split_indices":[0],"split_type":[0],"sum_hessian":[9.5E1],"tree_param":{"num_deleted":"0","num_feature":"32","num_nodes":"1","size_leaf_vector":"0"}},{"base_weights":[1.8626451E-9],"categories":[],"categories_nodes":[],"categories_segments":[],"categories_sizes":[],"default_left":[0],"id":45,"left_children":[-1],"loss_changes":[7.844769E-7],"parents":[2147483647],"right_children":[-1],"split_conditions":[1.8626451E-9],"split_indices":[0],"split_type":[0],"sum_hessian":[9.5E1],"tree_param":{"num_deleted":"0","num_feature":"32","num_nodes":"1","size_leaf_vector":"0"}},{"base_weights":[1.8626451E-9],"categories":[],"categories_nodes":[],"categories_segments":[],"categories_sizes":[],"default_left":[0],"id":46,"left_children":[-1],"loss_changes":[7.844769E-7],"parents":[2147483647],"right_children":[-1],"split_conditions":[1.8626451E-9],"split_indices":[0],"split_type":[0],"sum_hessian":[9.5E1],"tree_param":{"num_deleted":"0","num_feature":"32","num_nodes":"1","size_leaf_vector":"0"}},{"base_weights":[1.8626451E-9],"categories":[],"categories_nodes":[],"categories_segments":[],"categories_sizes":[],"default_left":[0],"id":47,"left_children":[-1],"loss_changes":[7.844769E-7],"parents":[2147483647],"right_children":[-1],"split_conditions":[1.8626451E-9],"split_indices":[0],"split_type":[0],"sum_hessian":[9.5E1],"tree_param":{"num_deleted":"0","num_feature":"32","num_nodes":"1","size_leaf_vector":"0"}},{"base_weights":[1.8626451E-9],"categories":[],"categories_nodes":[],"categories_segments":[],"categories_sizes":[],"default_left":[0],"id":48,"left_children":[-1],"loss_changes":[7.844769E-7],"parents":[2147483647],"right_children":[-1],"split_conditions":[1.8626451E-9],"split_indices":[0],"split_type":[0],"sum_hessian":[9.5E1],"tree_param":{"num_deleted":"0","num_feature":"32","num_nodes":"1","size_leaf_vector":"0"}},{"base_weights":[1.8626451E-9],"categories":[],"categories_nodes":[],"categories_segments":[],"categories_sizes":[],"default_left":[0],"id":49,"left_children":[-1],"loss_changes":[7.844769E-7],"parents":[2147483647],"right_children":[-1],"split_conditions":[1.8626451E-9],"split_indices":[0],"split_type":[0],"sum_hessian":[9.5E1],"tree_param":{"num_deleted":"0","num_feature":"32","num_nodes":"1","size_leaf_vector":"0"}},{"base_weights":[1.8626451E-9],"categories":[],"categories_nodes":[],"categories_segments":[],"categories_sizes":[],"default_left":[0],"id":50,"left_children":[-1],"loss_changes":[7.844769E-7],"parents":[2147483647],"right_children":[-1],"split_conditions":[1.8626451E-9],"split_indices":[0],"split_type":[0],"sum_hessian":[9.5E1],"tree_param":{"num_deleted":"0","num_feature":"32","num_nodes":"1","size_leaf_vector":"0"}},{"base_weights":[1.8626451E-9],"categories":[],"categories_nodes":[],"categories_segments":[],"categories_sizes":[],"default_left":[0],"id":51,"left_children":[-1],"loss_changes":[7.844769E-7],"parents":[2147483647],"right_children":[-1],"split_conditions":[1.8626451E-9],"split_indices":[0],"split_type":[0],"sum_hessian":[9.5E1],"tree_param":{"num_deleted":"0","num_feature":"32","num_nodes":"1","size_leaf_vector":"0"}},{"base_weights":[1.8626451E-9],"categories":[],"categories_nodes":[],"categories_segments":[],"categories_sizes":[],"default_left":[0],"id":52,"left_children":[-1],"loss_changes":[7.844769E-7],"parents":[2147483647],"right_children":[-1],"split_conditions":[1.8626451E-9],"split_indices":[0],"split_type":[0],"sum_hessian":[9.5E1],"tree_param":{"num_deleted":"0","num_feature":"32","num_nodes":"1","size_leaf_vector":"0"}},{"base_weights":[1.8626451E-9],"categories":[],"categories_nodes":[],"categories_segments":[],"categories_sizes":[],"default_left":[0],"id":53,"left_children":[-1],"loss_changes":[7.844769E-7],"parents":[2147483647],"right_children":[-1],"split_conditions":[1.8626451E-9],"split_indices":[0],"split_type":[0],"sum_hessian":[9.5E1],"tree_param":{"num_deleted":"0","num_feature":"32","num_nodes":"1","size_leaf_vector":"0"}},{"base_weights":[1.8626451E-9],"categories":[],"categories_nodes":[],"categories_segments":[],"categories_sizes":[],"default_left":[0],"id":54,"left_children":[-1],"loss_changes":[7.844769E-7],"parents":[2147483647],"right_children":[-1],"split_conditions":[1.8626451E-9],"split_indices":[0],"split_type":[0],"sum_hessian":[9.5E1],"tree_param":{"num_deleted":"0","num_feature":"32","num_nodes":"1","size_leaf_vector":"0"}},{"base_weights":[1.8626451E-9],"categories":[],"categories_nodes":[],"categories_segments":[],"categories_sizes":[],"default_left":[0],"id":55,"left_children":[-1],"loss_changes":[7.844769E-7],"parents":[2147483647],"right_children":[-1],"split_conditions":[1.8626451E-9],"split_indices":[0],"split_type":[0],"sum_hessian":[9.5E1],"tree_param":{"num_deleted":"0","num_feature":"32","num_nodes":"1","size_leaf_vector":"0"}},{"base_weights":[1.8626451E-9],"categories":[],"categories_nodes":[],"categories_segments":[],"categories_sizes":[],"default_left":[0],"id":56,"left_children":[-1],"loss_changes":[7.844769E-7],"parents":[2147483647],"right_children":[-1],"split_conditions":[1.8626451E-9],"split_indices":[0],"split_type":[0],"sum_hessian":[9.5E1],"tree_param":{"num_deleted":"0","num_feature":"32","num_nodes":"1","size_leaf_vector":"0"}},{"base_weights":[1.8626451E-9],"categories":[],"categories_nodes":[],"categories_segments":[],"categories_sizes":[],"default_left":[0],"id":57,"left_children":[-1],"loss_changes":[7.844769E-7],"parents":[2147483647],"right_children":[-1],"split_conditions":[1.8626451E-9],"split_indices":[0],"split_type":[0],"sum_hessian":[9.5E1],"tree_param":{"num_deleted":"0","num_feature":"32","num_nodes":"1","size_leaf_vector":"0"}},{"base_weights":[1.8626451E-9],"categories":[],"categories_nodes":[],"categories_segments":[],"categories_sizes":[],"default_left":[0],"id":58,"left_children":[-1],"loss_changes":[7.844769E-7],"parents":[2147483647],"right_children":[-1],"split_conditions":[1.8626451E-9],"split_indices":[0],"split_type":[0],"sum_hessian":[9.5E1],"tree_param":{"num_deleted":"0","num_feature":"32","num_nodes":"1","size_leaf_vector":"0"}},{"base_weights":[1.8626451E-9],"categories":[],"categories_nodes":[],"categories_segments":[],"categories_sizes":[],"default_left":[0],"id":59,"left_children":[-1],"loss_changes":[7.844769E-7],"parents":[2147483647],"right_children":[-1],"split_conditions":[1.8626451E-9],"split_indices":[0],"split_type":[0],"sum_hessian":[9.5E1],"tree_param":{"num_deleted":"0","num_feature":"32","num_nodes":"1","size_leaf_vector":"0"}},{"base_weights":[1.8626451E-9],"categories":[],"categories_nodes":[],"categories_segments":[],"categories_sizes":[],"default_left":[0],"id":60,"left_children":[-1],"loss_changes":[7.844769E-7],"parents":[2147483647],"right_children":[-1],"split_conditions":[1.8626451E-9],"split_indices":[0],"split_type":[0],"sum_hessian":[9.5E1],"tree_param":{"num_deleted":"0","num_feature":"32","num_nodes":"1","size_leaf_vector":"0"}},{"base_weights":[1.8626451E-9],"categories":[],"categories_nodes":[],"categories_segments":[],"categories_sizes":[],"default_left":[0],"id":61,"left_children":[-1],"loss_changes":[7.844769E-7],"parents":[2147483647],"right_children":[-1],"split_conditions":[1.8626451E-9],"split_indices":[0],"split_type":[0],"sum_hessian":[9.5E1],"tree_param":{"num_deleted":"0","num_feature":"32","num_nodes":"1","size_leaf_vector":"0"}},{"base_weights":[1.8626451E-9],"categories":[],"categories_nodes":[],"categories_segments":[],"categories_sizes":[],"default_left":[0],"id":62,"left_children":[-1],"loss_changes":[7.844769E-7],"parents":[2147483647],"right_children":[-1],"split_conditions":[1.8626451E-9],"split_indices":[0],"split_type":[0],"sum_hessian":[9.5E1],"tree_param":{"num_deleted":"0","num_feature":"32","num_nodes":"1","size_leaf_vector":"0"}},{"base_weights":[1.8626451E-9],"categories":[],"categories_nodes":[],"categories_segments":[],"categories_sizes":[],"default_left":[0],"id":63,"left_children":[-1],"loss_changes":[7.844769E-7],"parents":[2147483647],"right_children":[-1],"split_conditions":[1.8626451E-9],"split_indices":[0],"split_type":[0],"sum_hessian":[9.5E1],"tree_param":{"num_deleted":"0","num_feature":"32","num_nodes":"1","size_leaf_vector":"0"}},{"base_weights":[1.8626451E-9],"categories":[],"categories_nodes":[],"categories_segments":[],"categories_sizes":[],"default_left":[0],"id":64,"left_children":[-1],"loss_changes":[7.844769E-7],"parents":[2147483647],"right_children":[-1],"split_conditions":[1.8626451E-9],"split_indices":[0],"split_type":[0],"sum_hessian":[9.5E1],"tree_param":{"num_deleted":"0","num_feature":"32","num_nodes":"1","size_leaf_vector":"0"}},{"base_weights":[1.8626451E-9],"categories":[],"categories_nodes":[],"categories_segments":[],"categories_sizes":[],"default_left":[0],"id":65,"left_children":[-1],"loss_changes":[7.844769E-7],"parents":[2147483647],"right_children":[-1],"split_conditions":[1.8626451E-9],"split_indices":[0],"split_type":[0],"sum_hessian":[9.5E1],"tree_param":{"num_deleted":"0","num_feature":"32","num_nodes":"1","size_leaf_vector":"0"}},{"base_weights":[1.8626451E-9],"categories":[],"categories_nodes":[],"categories_segments":[],"categories_sizes":[],"default_left":[0],"id":66,"left_children":[-1],"loss_changes":[7.844769E-7],"parents":[2147483647],"right_children":[-1],"split_conditions":[1.8626451E-9],"split_indices":[0],"split_type":[0],"sum_hessian":[9.5E1],"tree_param":{"num_deleted":"0","num_feature":"32","num_nodes":"1","size_leaf_vector":"0"}},{"base_weights":[1.8626451E-9],"categories":[],"categories_nodes":[],"categories_segments":[],"categories_sizes":[],"default_left":[0],"id":67,"left_children":[-1],"loss_changes":[7.844769E-7],"parents":[2147483647],"right_children":[-1],"split_conditions":[1.8626451E-9],"split_indices":[0],"split_type":[0],"sum_hessian":[9.5E1],"tree_param":{"num_deleted":"0","num_feature":"32","num_nodes":"1","size_leaf_vector":"0"}},{"base_weights":[1.8626451E-9],"categories":[],"categories_nodes":[],"categories_segments":[],"categories_sizes":[],"default_left":[0],"id":68,"left_children":[-1],"loss_changes":[7.844769E-7],"parents":[2147483647],"right_children":[-1],"split_conditions":[1.8626451E-9],"split_indices":[0],"split_type":[0],"sum_hessian":[9.5E1],"tree_param":{"num_deleted":"0","num_feature":"32","num_nodes":"1","size_leaf_vector":"0"}},{"base_weights":[1.8626451E-9],"categories":[],"categories_nodes":[],"categories_segments":[],"categories_sizes":[],"default_left":[0],"id":69,"left_children":[-1],"loss_changes":[7.844769E-7],"parents":[2147483647],"right_children":[-1],"split_conditions":[1.8626451E-9],"split_indices":[0],"split_type":[0],"sum_hessian":[9.5E1],"tree_param":{"num_deleted":"0","num_feature":"32","num_nodes":"1","size_leaf_vector":"0"}},{"base_weights":[1.8626451E-9],"categories":[],"categories_nodes":[],"categories_segments":[],"categories_sizes":[],"default_left":[0],"id":70,"left_children":[-1],"loss_changes":[7.844769E-7],"parents":[2147483647],"right_children":[-1],"split_conditions":[1.8626451E-9],"split_indices":[0],"split_type":[0],"sum_hessian":[9.5E1],"tree_param":{"num_deleted":"0","num_feature":"32","num_nodes":"1","size_leaf_vector":"0"}},{"base_weights":[1.8626451E-9],"categories":[],"categories_nodes":[],"categories_segments":[],"categories_sizes":[],"default_left":[0],"id":71,"left_children":[-1],"loss_changes":[7.844769E-7],"parents":[2147483647],"right_children":[-1],"split_conditions":[1.8626451E-9],"split_indices":[0],"split_type":[0],"sum_hessian":[9.5E1],"tree_param":{"num_deleted":"0","num_feature":"32","num_nodes":"1","size_leaf_vector":"0"}},{"base_weights":[1.8626451E-9],"categories":[],"categories_nodes":[],"categories_segments":[],"categories_sizes":[],"default_left":[0],"id":72,"left_children":[-1],"loss_changes":[7.844769E-7],"parents":[2147483647],"right_children":[-1],"split_conditions":[1.8626451E-9],"split_indices":[0],"split_type":[0],"sum_hessian":[9.5E1],"tree_param":{"num_deleted":"0","num_feature":"32","num_nodes":"1","size_leaf_vector":"0"}},{"base_weights":[1.8626451E-9],"categories":[],"categories_nodes":[],"categories_segments":[],"categories_sizes":[],"default_left":[0],"id":73,"left_children":[-1],"loss_changes":[7.844769E-7],"parents":[2147483647],"right_children":[-1],"split_conditions":[1.8626451E-9],"split_indices":[0],"split_type":[0],"sum_hessian":[9.5E1],"tree_param":{"num_deleted":"0","num_feature":"32","num_nodes":"1","size_leaf_vector":"0"}},{"base_weights":[1.8626451E-9],"categories":[],"categories_nodes":[],"categories_segments":[],"categories_sizes":[],"default_left":[0],"id":74,"left_children":[-1],"loss_changes":[7.844769E-7],"parents":[2147483647],"right_children":[-1],"split_conditions":[1.8626451E-9],"split_indices":[0],"split_type":[0],"sum_hessian":[9.5E1],"tree_param":{"num_deleted":"0","num_feature":"32","num_nodes":"1","size_leaf_vector":"0"}},{"base_weights":[1.8626451E-9],"categories":[],"categories_nodes":[],"categories_segments":[],"categories_sizes":[],"default_left":[0],"id":75,"left_children":[-1],"loss_changes":[7.844769E-7],"parents":[2147483647],"right_children":[-1],"split_conditions":[1.8626451E-9],"split_indices":[0],"split_type":[0],"sum_hessian":[9.5E1],"tree_param":{"num_deleted":"0","num_feature":"32","num_nodes":"1","size_leaf_vector":"0"}},{"base_weights":[1.8626451E-9],"categories":[],"categories_nodes":[],"categories_segments":[],"categories_sizes":[],"default_left":[0],"id":76,"left_children":[-1],"loss_changes":[7.844769E-7],"parents":[2147483647],"right_children":[-1],"split_conditions":[1.8626451E-9],"split_indices":[0],"split_type":[0],"sum_hessian":[9.5E1],"tree_param":{"num_deleted":"0","num_feature":"32","num_nodes":"1","size_leaf_vector":"0"}},{"base_weights":[1.8626451E-9],"categories":[],"categories_nodes":[],"categories_segments":[],"categories_sizes":[],"default_left":[0],"id":77,"left_children":[-1],"loss_changes":[7.844769E-7],"parents":[2147483647],"right_children":[-1],"split_conditions":[1.8626451E-9],"split_indices":[0],"split_type":[0],"sum_hessian":[9.5E1],"tree_param":{"num_deleted":"0","num_feature":"32","num_nodes":"1","size_leaf_vector":"0"}},{"base_weights":[1.8626451E-9],"categories":[],"categories_nodes":[],"categories_segments":[],"categories_sizes":[],"default_left":[0],"id":78,"left_children":[-1],"loss_changes":[7.844769E-7],"parents":[2147483647],"right_children":[-1],"split_conditions":[1.8626451E-9],"split_indices":[0],"split_type":[0],"sum_hessian":[9.5E1],"tree_param":{"num_deleted":"0","num_feature":"32","num_nodes":"1","size_leaf_vector":"0"}},{"base_weights":[1.8626451E-9],"categories":[],"categories_nodes":[],"categories_segments":[],"categories_sizes":[],"default_left":[0],"id":79,"left_children":[-1],"loss_changes":[7.844769E-7],"parents":[2147483647],"right_children":[-1],"split_conditions":[1.8626451E-9],"split_indices":[0],"split_type":[0],"sum_hessian":[9.5E1],"tree_param":{"num_deleted":"0","num_feature":"32","num_nodes":"1","size_leaf_vector":"0"}},{"base_weights":[1.8626451E-9],"categories":[],"categories_nodes":[],"categories_segments":[],"categories_sizes":[],"default_left":[0],"id":80,"left_children":[-1],"loss_changes":[7.844769E-7],"parents":[2147483647],"right_children":[-1],"split_conditions":[1.8626451E-9],"split_indices":[0],"split_type":[0],"sum_hessian":[9.5E1],"tree_param":{"num_deleted":"0","num_feature":"32","num_nodes":"1","size_leaf_vector":"0"}},{"base_weights":[1.8626451E-9],"categories":[],"categories_nodes":[],"categories_segments":[],"categories_sizes":[],"default_left":[0],"id":81,"left_children":[-1],"loss_changes":[7.844769E-7],"parents":[2147483647],"right_children":[-1],"split_conditions":[1.8626451E-9],"split_indices":[0],"split_type":[0],"sum_hessian":[9.5E1],"tree_param":{"num_deleted":"0","num_feature":"32","num_nodes":"1","size_leaf_vector":"0"}},{"base_weights":[1.8626451E-9],"categories":[],"categories_nodes":[],"categories_segments":[],"categories_sizes":[],"default_left":[0],"id":82,"left_children":[-1],"loss_changes":[7.844769E-7],"parents":[2147483647],"right_children":[-1],"split_conditions":[1.8626451E-9],"split_indices":[0],"split_type":[0],"sum_hessian":[9.5E1],"tree_param":{"num_deleted":"0","num_feature":"32","num_nodes":"1","size_leaf_vector":"0"}},{"base_weights":[1.8626451E-9],"categories":[],"categories_nodes":[],"categories_segments":[],"categories_sizes":[],"default_left":[0],"id":83,"left_children":[-1],"loss_changes":[7.844769E-7],"parents":[2147483647],"right_children":[-1],"split_conditions":[1.8626451E-9],"split_indices":[0],"split_type":[0],"sum_hessian":[9.5E1],"tree_param":{"num_deleted":"0","num_feature":"32","num_nodes":"1","size_leaf_vector":"0"}},{"base_weights":[1.8626451E-9],"categories":[],"categories_nodes":[],"categories_segments":[],"categories_sizes":[],"default_left":[0],"id":84,"left_children":[-1],"loss_changes":[7.844769E-7],"parents":[2147483647],"right_children":[-1],"split_conditions":[1.8626451E-9],"split_indices":[0],"split_type":[0],"sum_hessian":[9.5E1],"tree_param":{"num_deleted":"0","num_feature":"32","num_nodes":"1","size_leaf_vector":"0"}},{"base_weights":[1.8626451E-9],"categories":[],"categories_nodes":[],"categories_segments":[],"categories_sizes":[],"default_left":[0],"id":85,"left_children":[-1],"loss_changes":[7.844769E-7],"parents":[2147483647],"right_children":[-1],"split_conditions":[1.8626451E-9],"split_indices":[0],"split_type":[0],"sum_hessian":[9.5E1],"tree_param":{"num_deleted":"0","num_feature":"32","num_nodes":"1","size_leaf_vector":"0"}},{"base_weights":[1.8626451E-9],"categories":[],"categories_nodes":[],"categories_segments":[],"categories_sizes":[],"default_left":[0],"id":86,"left_children":[-1],"loss_changes":[7.844769E-7],"parents":[2147483647],"right_children":[-1],"split_conditions":[1.8626451E-9],"split_indices":[0],"split_type":[0],"sum_hessian":[9.5E1],"tree_param":{"num_deleted":"0","num_feature":"32","num_nodes":"1","size_leaf_vector":"0"}},{"base_weights":[1.8626451E-9],"categories":[],"categories_nodes":[],"categories_segments":[],"categories_sizes":[],"default_left":[0],"id":87,"left_children":[-1],"loss_changes":[7.844769E-7],"parents":[2147483647],"right_children":[-1],"split_conditions":[1.8626451E-9],"split_indices":[0],"split_type":[0],"sum_hessian":[9.5E1],"tree_param":{"num_deleted":"0","num_feature":"32","num_nodes":"1","size_leaf_vector":"0"}},{"base_weights":[1.8626451E-9],"categories":[],"categories_nodes":[],"categories_segments":[],"categories_sizes":[],"default_left":[0],"id":88,"left_children":[-1],"loss_changes":[7.844769E-7],"parents":[2147483647],"right_children":[-1],"split_conditions":[1.8626451E-9],"split_indices":[0],"split_type":[0],"sum_hessian":[9.5E1],"tree_param":{"num_deleted":"0","num_feature":"32","num_nodes":"1","size_leaf_vector":"0"}},{"base_weights":[1.8626451E-9],"categories":[],"categories_nodes":[],"categories_segments":[],"categories_sizes":[],"default_left":[0],"id":89,"left_children":[-1],"loss_changes":[7.844769E-7],"parents":[2147483647],"right_children":[-1],"split_conditions":[1.8626451E-9],"split_indices":[0],"split_type":[0],"sum_hessian":[9.5E1],"tree_param":{"num_deleted":"0","num_feature":"32","num_nodes":"1","size_leaf_vector":"0"}},{"base_weights":[1.8626451E-9],"categories":[],"categories_nodes":[],"categories_segments":[],"categories_sizes":[],"default_left":[0],"id":90,"left_children":[-1],"loss_changes":[7.844769E-7],"parents":[2147483647],"right_children":[-1],"split_conditions":[1.8626451E-9],"split_indices":[0],"split_type":[0],"sum_hessian":[9.5E1],"tree_param":{"num_deleted":"0","num_feature":"32","num_nodes":"1","size_leaf_vector":"0"}},{"base_weights":[1.8626451E-9],"categories":[],"categories_nodes":[],"categories_segments":[],"categories_sizes":[],"default_left":[0],"id":91,"left_children":[-1],"loss_changes":[7.844769E-7],"parents":[2147483647],"right_children":[-1],"split_conditions":[1.8626451E-9],"split_indices":[0],"split_type":[0],"sum_hessian":[9.5E1],"tree_param":{"num_deleted":"0","num_feature":"32","num_nodes":"1","size_leaf_vector":"0"}},{"base_weights":[1.8626451E-9],"categories":[],"categories_nodes":[],"categories_segments":[],"categories_sizes":[],"default_left":[0],"id":92,"left_children":[-1],"loss_changes":[7.844769E-7],"parents":[2147483647],"right_children":[-1],"split_conditions":[1.8626451E-9],"split_indices":[0],"split_type":[0],"sum_hessian":[9.5E1],"tree_param":{"num_deleted":"0","num_feature":"32","num_nodes":"1","size_leaf_vector":"0"}},{"base_weights":[1.8626451E-9],"categories":[],"categories_nodes":[],"categories_segments":[],"categories_sizes":[],"default_left":[0],"id":93,"left_children":[-1],"loss_changes":[7.844769E-7],"parents":[2147483647],"right_children":[-1],"split_conditions":[1.8626451E-9],"split_indices":[0],"split_type":[0],"sum_hessian":[9.5E1],"tree_param":{"num_deleted":"0","num_feature":"32","num_nodes":"1","size_leaf_vector":"0"}},{"base_weights":[1.8626451E-9],"categories":[],"categories_nodes":[],"categories_segments":[],"categories_sizes":[],"default_left":[0],"id":94,"left_children":[-1],"loss_changes":[7.844769E-7],"parents":[2147483647],"right_children":[-1],"split_conditions":[1.8626451E-9],"split_indices":[0],"split_type":[0],"sum_hessian":[9.5E1],"tree_param":{"num_deleted":"0","num_feature":"32","num_nodes":"1","size_leaf_vector":"0"}},{"base_weights":[1.8626451E-9],"categories":[],"categories_nodes":[],"categories_segments":[],"categories_sizes":[],"default_left":[0],"id":95,"left_children":[-1],"loss_changes":[7.844769E-7],"parents":[2147483647],"right_children":[-1],"split_conditions":[1.8626451E-9],"split_indices":[0],"split_type":[0],"sum_hessian":[9.5E1],"tree_param":{"num_deleted":"0","num_feature":"32","num_nodes":"1","size_leaf_vector":"0"}},{"base_weights":[1.8626451E-9],"categories":[],"categories_nodes":[],"categories_segments":[],"categories_sizes":[],"default_left":[0],"id":96,"left_children":[-1],"loss_changes":[7.844769E-7],"parents":[2147483647],"right_children":[-1],"split_conditions":[1.8626451E-9],"split_indices":[0],"split_type":[0],"sum_hessian":[9.5E1],"tree_param":{"num_deleted":"0","num_feature":"32","num_nodes":"1","size_leaf_vector":"0"}},{"base_weights":[1.8626451E-9],"categories":[],"categories_nodes":[],"categories_segments":[],"categories_sizes":[],"default_left":[0],"id":97,"left_children":[-1],"loss_changes":[7.844769E-7],"parents":[2147483647],"right_children":[-1],"split_conditions":[1.8626451E-9],"split_indices":[0],"split_type":[0],"sum_hessian":[9.5E1],"tree_param":{"num_deleted":"0","num_feature":"32","num_nodes":"1","size_leaf_vector":"0"}},{"base_weights":[1.8626451E-9],"categories":[],"categories_nodes":[],"categories_segments":[],"categories_sizes":[],"default_left":[0],"id":98,"left_children":[-1],"loss_changes":[7.844769E-7],"parents":[2147483647],"right_children":[-1],"split_conditions":[1.8626451E-9],"split_indices":[0],"split_type":[0],"sum_hessian":[9.5E1],"tree_param":{"num_deleted":"0","num_feature":"32","num_nodes":"1","size_leaf_vector":"0"}},{"base_weights":[1.8626451E-9],"categories":[],"categories_nodes":[],"categories_segments":[],"categories_sizes":[],"default_left":[0],"id":99,"left_children":[-1],"loss_changes":[7.844769E-7],"parents":[2147483647],"right_children":[-1],"split_conditions":[1.8626451E-9],"split_indices":[0],"split_type":[0],"sum_hessian":[9.5E1],"tree_param":{"num_deleted":"0","num_feature":"32","num_nodes":"1","size_leaf_vector":"0"}},{"base_weights":[1.8626451E-9],"categories":[],"categories_nodes":[],"categories_segments":[],"categories_sizes":[],"default_left":[0],"id":100,"left_children":[-1],"loss_changes":[7.844769E-7],"parents":[2147483647],"right_children":[-1],"split_conditions":[1.8626451E-9],"split_indices":[0],"split_type":[0],"sum_hessian":[9.5E1],"tree_param":{"num_deleted":"0","num_feature":"32","num_nodes":"1","size_leaf_vector":"0"}},{"base_weights":[1.8626451E-9],"categories":[],"categories_nodes":[],"categories_segments":[],"categories_sizes":[],"default_left":[0],"id":101,"left_children":[-1],"loss_changes":[7.844769E-7],"parents":[2147483647],"right_children":[-1],"split_conditions":[1.8626451E-9],"split_indices":[0],"split_type":[0],"sum_hessian":[9.5E1],"tree_param":{"num_deleted":"0","num_feature":"32","num_nodes":"1","size_leaf_vector":"0"}},{"base_weights":[1.8626451E-9],"categories":[],"categories_nodes":[],"categories_segments":[],"categories_sizes":[],"default_left":[0],"id":102,"left_children":[-1],"loss_changes":[7.844769E-7],"parents":[2147483647],"right_children":[-1],"split_conditions":[1.8626451E-9],"split_indices":[0],"split_type":[0],"sum_hessian":[9.5E1],"tree_param":{"num_deleted":"0","num_feature":"32","num_nodes":"1","size_leaf_vector":"0"}},{"base_weights":[1.8626451E-9],"categories":[],"categories_nodes":[],"categories_segments":[],"categories_sizes":[],"default_left":[0],"id":103,"left_children":[-1],"loss_changes":[7.844769E-7],"parents":[2147483647],"right_children":[-1],"split_conditions":[1.8626451E-9],"split_indices":[0],"split_type":[0],"sum_hessian":[9.5E1],"tree_param":{"num_deleted":"0","num_feature":"32","num_nodes":"1","size_leaf_vector":"0"}},{"base_weights":[1.8626451E-9],"categories":[],"categories_nodes":[],"categories_segments":[],"categories_sizes":[],"default_left":[0],"id":104,"left_children":[-1],"loss_changes":[7.844769E-7],"parents":[2147483647],"right_children":[-1],"split_conditions":[1.8626451E-9],"split_indices":[0],"split_type":[0],"sum_hessian":[9.5E1],"tree_param":{"num_deleted":"0","num_feature":"32","num_nodes":"1","size_leaf_vector":"0"}},{"base_weights":[1.8626451E-9],"categories":[],"categories_nodes":[],"categories_segments":[],"categories_sizes":[],"default_left":[0],"id":105,"left_children":[-1],"loss_changes":[7.844769E-7],"parents":[2147483647],"right_children":[-1],"split_conditions":[1.8626451E-9],"split_indices":[0],"split_type":[0],"sum_hessian":[9.5E1],"tree_param":{"num_deleted":"0","num_feature":"32","num_nodes":"1","size_leaf_vector":"0"}},{"base_weights":[1.8626451E-9],"categories":[],"categories_nodes":[],"categories_segments":[],"categories_sizes":[],"default_left":[0],"id":106,"left_children":[-1],"loss_changes":[7.844769E-7],"parents":[2147483647],"right_children":[-1],"split_conditions":[1.8626451E-9],"split_indices":[0],"split_type":[0],"sum_hessian":[9.5E1],"tree_param":{"num_deleted":"0","num_feature":"32","num_nodes":"1","size_leaf_vector":"0"}},{"base_weights":[1.8626451E-9],"categories":[],"categories_nodes":[],"categories_segments":[],"categories_sizes":[],"default_left":[0],"id":107,"left_children":[-1],"loss_changes":[7.844769E-7],"parents":[2147483647],"right_children":[-1],"split_conditions":[1.8626451E-9],"split_indices":[0],"split_type":[0],"sum_hessian":[9.5E1],"tree_param":{"num_deleted":"0","num_feature":"32","num_nodes":"1","size_leaf_vector":"0"}},{"base_weights":[1.8626451E-9],"categories":[],"categories_nodes":[],"categories_segments":[],"categories_sizes":[],"default_left":[0],"id":108,"left_children":[-1],"loss_changes":[7.844769E-7],"parents":[2147483647],"right_children":[-1],"split_conditions":[1.8626451E-9],"split_indices":[0],"split_type":[0],"sum_hessian":[9.5E1],"tree_param":{"num_deleted":"0","num_feature":"32","num_nodes":"1","size_leaf_vector":"0"}},{"base_weights":[1.8626451E-9],"categories":[],"categories_nodes":[],"categories_segments":[],"categories_sizes":[],"default_left":[0],"id":109,"left_children":[-1],"loss_changes":[7.844769E-7],"parents":[2147483647],"right_children":[-1],"split_conditions":[1.8626451E-9],"split_indices":[0],"split_type":[0],"sum_hessian":[9.5E1],"tree_param":{"num_deleted":"0","num_feature":"32","num_nodes":"1","size_leaf_vector":"0"}},{"base_weights":[1.8626451E-9],"categories":[],"categories_nodes":[],"categories_segments":[],"categories_sizes":[],"default_left":[0],"id":110,"left_children":[-1],"loss_changes":[7.844769E-7],"parents":[2147483647],"right_children":[-1],"split_conditions":[1.8626451E-9],"split_indices":[0],"split_type":[0],"sum_hessian":[9.5E1],"tree_param":{"num_deleted":"0","num_feature":"32","num_nodes":"1","size_leaf_vector":"0"}},{"base_weights":[1.8626451E-9],"categories":[],"categories_nodes":[],"categories_segments":[],"categories_sizes":[],"default_left":[0],"id":111,"left_children":[-1],"loss_changes":[7.844769E-7],"parents":[2147483647],"right_children":[-1],"split_conditions":[1.8626451E-9],"split_indices":[0],"split_type":[0],"sum_hessian":[9.5E1],"tree_param":{"num_deleted":"0","num_feature":"32","num_nodes":"1","size_leaf_vector":"0"}},{"base_weights":[1.8626451E-9],"categories":[],"categories_nodes":[],"categories_segments":[],"categories_sizes":[],"default_left":[0],"id":112,"left_children":[-1],"loss_changes":[7.844769E-7],"parents":[2147483647],"right_children":[-1],"split_conditions":[1.8626451E-9],"split_indices":[0],"split_type":[0],"sum_hessian":[9.5E1],"tree_param":{"num_deleted":"0","num_feature":"32","num_nodes":"1","size_leaf_vector":"0"}},{"base_weights":[1.8626451E-9],"categories":[],"categories_nodes":[],"categories_segments":[],"categories_sizes":[],"default_left":[0],"id":113,"left_children":[-1],"loss_changes":[7.844769E-7],"parents":[2147483647],"right_children":[-1],"split_conditions":[1.8626451E-9],"split_indices":[0],"split_type":[0],"sum_hessian":[9.5E1],"tree_param":{"num_deleted":"0","num_feature":"32","num_nodes":"1","size_leaf_vector":"0"}},{"base_weights":[1.8626451E-9],"categories":[],"categories_nodes":[],"categories_segments":[],"categories_sizes":[],"default_left":[0],"id":114,"left_children":[-1],"loss_changes":[7.844769E-7],"parents":[2147483647],"right_children":[-1],"split_conditions":[1.8626451E-9],"split_indices":[0],"split_type":[0],"sum_hessian":[9.5E1],"tree_param":{"num_deleted":"0","num_feature":"32","num_nodes":"1","size_leaf_vector":"0"}},{"base_weights":[1.8626451E-9],"categories":[],"categories_nodes":[],"categories_segments":[],"categories_sizes":[],"default_left":[0],"id":115,"left_children":[-1],"loss_changes":[7.844769E-7],"parents":[2147483647],"right_children":[-1],"split_conditions":[1.8626451E-9],"split_indices":[0],"split_type":[0],"sum_hessian":[9.5E1],"tree_param":{"num_deleted":"0","num_feature":"32","num_nodes":"1","size_leaf_vector":"0"}},{"base_weights":[1.8626451E-9],"categories":[],"categories_nodes":[],"categories_segments":[],"categories_sizes":[],"default_left":[0],"id":116,"left_children":[-1],"loss_changes":[7.844769E-7],"parents":[2147483647],"right_children":[-1],"split_conditions":[1.8626451E-9],"split_indices":[0],"split_type":[0],"sum_hessian":[9.5E1],"tree_param":{"num_deleted":"0","num_feature":"32","num_nodes":"1","size_leaf_vector":"0"}},{"base_weights":[1.8626451E-9],"categories":[],"categories_nodes":[],"categories_segments":[],"categories_sizes":[],"default_left":[0],"id":117,"left_children":[-1],"loss_changes":[7.844769E-7],"parents":[2147483647],"right_children":[-1],"split_conditions":[1.8626451E-9],"split_indices":[0],"split_type":[0],"sum_hessian":[9.5E1],"tree_param":{"num_deleted":"0","num_feature":"32","num_nodes":"1","size_leaf_vector":"0"}},{"base_weights":[1.8626451E-9],"categories":[],"categories_nodes":[],"categories_segments":[],"categories_sizes":[],"default_left":[0],"id":118,"left_children":[-1],"loss_changes":[7.844769E-7],"parents":[2147483647],"right_children":[-1],"split_conditions":[1.8626451E-9],"split_indices":[0],"split_type":[0],"sum_hessian":[9.5E1],"tree_param":{"num_deleted":"0","num_feature":"32","num_nodes":"1","size_leaf_vector":"0"}},{"base_weights":[1.8626451E-9],"categories":[],"categories_nodes":[],"categories_segments":[],"categories_sizes":[],"default_left":[0],"id":119,"left_children":[-1],"loss_changes":[7.844769E-7],"parents":[2147483647],"right_children":[-1],"split_conditions":[1.8626451E-9],"split_indices":[0],"split_type":[0],"sum_hessian":[9.5E1],"tree_param":{"num_deleted":"0","num_feature":"32","num_nodes":"1","size_leaf_vector":"0"}},{"base_weights":[1.8626451E-9],"categories":[],"categories_nodes":[],"categories_segments":[],"categories_sizes":[],"default_left":[0],"id":120,"left_children":[-1],"loss_changes":[7.844769E-7],"parents":[2147483647],"right_children":[-1],"split_conditions":[1.8626451E-9],"split_indices":[0],"split_type":[0],"sum_hessian":[9.5E1],"tree_param":{"num_deleted":"0","num_feature":"32","num_nodes":"1","size_leaf_vector":"0"}},{"base_weights":[1.8626451E-9],"categories":[],"categories_nodes":[],"categories_segments":[],"categories_sizes":[],"default_left":[0],"id":121,"left_children":[-1],"loss_changes":[7.844769E-7],"parents":[2147483647],"right_children":[-1],"split_conditions":[1.8626451E-9],"split_indices":[0],"split_type":[0],"sum_hessian":[9.5E1],"tree_param":{"num_deleted":"0","num_feature":"32","num_nodes":"1","size_leaf_vector":"0"}},{"base_weights":[1.8626451E-9],"categories":[],"categories_nodes":[],"categories_segments":[],"categories_sizes":[],"default_left":[0],"id":122,"left_children":[-1],"loss_changes":[7.844769E-7],"parents":[2147483647],"right_children":[-1],"split_conditions":[1.8626451E-9],"split_indices":[0],"split_type":[0],"sum_hessian":[9.5E1],"tree_param":{"num_deleted":"0","num_feature":"32","num_nodes":"1","size_leaf_vector":"0"}},{"base_weights":[1.8626451E-9],"categories":[],"categories_nodes":[],"categories_segments":[],"categories_sizes":[],"default_left":[0],"id":123,"left_children":[-1],"loss_changes":[7.844769E-7],"parents":[2147483647],"right_children":[-1],"split_conditions":[1.8626451E-9],"split_indices":[0],"split_type":[0],"sum_hessian":[9.5E1],"tree_param":{"num_deleted":"0","num_feature":"32","num_nodes":"1","size_leaf_vector":"0"}},{"base_weights":[1.8626451E-9],"categories":[],"categories_nodes":[],"categories_segments":[],"categories_sizes":[],"default_left":[0],"id":124,"left_children":[-1],"loss_changes":[7.844769E-7],"parents":[2147483647],"right_children":[-1],"split_conditions":[1.8626451E-9],"split_indices":[0],"split_type":[0],"sum_hessian":[9.5E1],"tree_param":{"num_deleted":"0","num_feature":"32","num_nodes":"1","size_leaf_vector":"0"}},{"base_weights":[1.8626451E-9],"categories":[],"categories_nodes":[],"categories_segments":[],"categories_sizes":[],"default_left":[0],"id":125,"left_children":[-1],"loss_changes":[7.844769E-7],"parents":[2147483647],"right_children":[-1],"split_conditions":[1.8626451E-9],"split_indices":[0],"split_type":[0],"sum_hessian":[9.5E1],"tree_param":{"num_deleted":"0","num_feature":"32","num_nodes":"1","size_leaf_vector":"0"}},{"base_weights":[1.8626451E-9],"categories":[],"categories_nodes":[],"categories_segments":[],"categories_sizes":[],"default_left":[0],"id":126,"left_children":[-1],"loss_changes":[7.844769E-7],"parents":[2147483647],"right_children":[-1],"split_conditions":[1.8626451E-9],"split_indices":[0],"split_type":[0],"sum_hessian":[9.5E1],"tree_param":{"num_deleted":"0","num_feature":"32","num_nodes":"1","size_leaf_vector":"0"}},{"base_weights":[1.8626451E-9],"categories":[],"categories_nodes":[],"categories_segments":[],"categories_sizes":[],"default_left":[0],"id":127,"left_children":[-1],"loss_changes":[7.844769E-7],"parents":[2147483647],"right_children":[-1],"split_conditions":[1.8626451E-9],"split_indices":[0],"split_type":[0],"sum_hessian":[9.5E1],"tree_param":{"num_deleted":"0","num_feature":"32","num_nodes":"1","size_leaf_vector":"0"}},{"base_weights":[1.8626451E-9],"categories":[],"categories_nodes":[],"categories_segments":[],"categories_sizes":[],"default_left":[0],"id":128,"left_children":[-1],"loss_changes":[7.844769E-7],"parents":[2147483647],"right_children":[-1],"split_conditions":[1.8626451E-9],"split_indices":[0],"split_type":[0],"sum_hessian":[9.5E1],"tree_param":{"num_deleted":"0","num_feature":"32","num_nodes":"1","size_leaf_vector":"0"}},{"base_weights":[1.8626451E-9],"categories":[],"categories_nodes":[],"categories_segments":[],"categories_sizes":[],"default_left":[0],"id":129,"left_children":[-1],"loss_changes":[7.844769E-7],"parents":[2147483647],"right_children":[-1],"split_conditions":[1.8626451E-9],"split_indices":[0],"split_type":[0],"sum_hessian":[9.5E1],"tree_param":{"num_deleted":"0","num_feature":"32","num_nodes":"1","size_leaf_vector":"0"}},{"base_weights":[1.8626451E-9],"categories":[],"categories_nodes":[],"categories_segments":[],"categories_sizes":[],"default_left":[0],"id":130,"left_children":[-1],"loss_changes":[7.844769E-7],"parents":[2147483647],"right_children":[-1],"split_conditions":[1.8626451E-9],"split_indices":[0],"split_type":[0],"sum_hessian":[9.5E1],"tree_param":{"num_deleted":"0","num_feature":"32","num_nodes":"1","size_leaf_vector":"0"}},{"base_weights":[1.8626451E-9],"categories":[],"categories_nodes":[],"categories_segments":[],"categories_sizes":[],"default_left":[0],"id":131,"left_children":[-1],"loss_changes":[7.844769E-7],"parents":[2147483647],"right_children":[-1],"split_conditions":[1.8626451E-9],"split_indices":[0],"split_type":[0],"sum_hessian":[9.5E1],"tree_param":{"num_deleted":"0","num_feature":"32","num_nodes":"1","size_leaf_vector":"0"}},{"base_weights":[1.8626451E-9],"categories":[],"categories_nodes":[],"categories_segments":[],"categories_sizes":[],"default_left":[0],"id":132,"left_children":[-1],"loss_changes":[7.844769E-7],"parents":[2147483647],"right_children":[-1],"split_conditions":[1.8626451E-9],"split_indices":[0],"split_type":[0],"sum_hessian":[9.5E1],"tree_param":{"num_deleted":"0","num_feature":"32","num_nodes":"1","size_leaf_vector":"0"}},{"base_weights":[1.8626451E-9],"categories":[],"categories_nodes":[],"categories_segments":[],"categories_sizes":[],"default_left":[0],"id":133,"left_children":[-1],"loss_changes":[7.844769E-7],"parents":[2147483647],"right_children":[-1],"split_conditions":[1.8626451E-9],"split_indices":[0],"split_type":[0],"sum_hessian":[9.5E1],"tree_param":{"num_deleted":"0","num_feature":"32","num_nodes":"1","size_leaf_vector":"0"}},{"base_weights":[1.8626451E-9],"categories":[],"categories_nodes":[],"categories_segments":[],"categories_sizes":[],"default_left":[0],"id":134,"left_children":[-1],"loss_changes":[7.844769E-7],"parents":[2147483647],"right_children":[-1],"split_conditions":[1.8626451E-9],"split_indices":[0],"split_type":[0],"sum_hessian":[9.5E1],"tree_param":{"num_deleted":"0","num_feature":"32","num_nodes":"1","size_leaf_vector":"0"}},{"base_weights":[1.8626451E-9],"categories":[],"categories_nodes":[],"categories_segments":[],"categories_sizes":[],"default_left":[0],"id":135,"left_children":[-1],"loss_changes":[7.844769E-7],"parents":[2147483647],"right_children":[-1],"split_conditions":[1.8626451E-9],"split_indices":[0],"split_type":[0],"sum_hessian":[9.5E1],"tree_param":{"num_deleted":"0","num_feature":"32","num_nodes":"1","size_leaf_vector":"0"}},{"base_weights":[1.8626451E-9],"categories":[],"categories_nodes":[],"categories_segments":[],"categories_sizes":[],"default_left":[0],"id":136,"left_children":[-1],"loss_changes":[7.844769E-7],"parents":[2147483647],"right_children":[-1],"split_conditions":[1.8626451E-9],"split_indices":[0],"split_type":[0],"sum_hessian":[9.5E1],"tree_param":{"num_deleted":"0","num_feature":"32","num_nodes":"1","size_leaf_vector":"0"}},{"base_weights":[1.8626451E-9],"categories":[],"categories_nodes":[],"categories_segments":[],"categories_sizes":[],"default_left":[0],"id":137,"left_children":[-1],"loss_changes":[7.844769E-7],"parents":[2147483647],"right_children":[-1],"split_conditions":[1.8626451E-9],"split_indices":[0],"split_type":[0],"sum_hessian":[9.5E1],"tree_param":{"num_deleted":"0","num_feature":"32","num_nodes":"1","size_leaf_vector":"0"}},{"base_weights":[1.8626451E-9],"categories":[],"categories_nodes":[],"categories_segments":[],"categories_sizes":[],"default_left":[0],"id":138,"left_children":[-1],"loss_changes":[7.844769E-7],"parents":[2147483647],"right_children":[-1],"split_conditions":[1.8626451E-9],"split_indices":[0],"split_type":[0],"sum_hessian":[9.5E1],"tree_param":{"num_deleted":"0","num_feature":"32","num_nodes":"1","size_leaf_vector":"0"}},{"base_weights":[1.8626451E-9],"categories":[],"categories_nodes":[],"categories_segments":[],"categories_sizes":[],"default_left":[0],"id":139,"left_children":[-1],"loss_changes":[7.844769E-7],"parents":[2147483647],"right_children":[-1],"split_conditions":[1.8626451E-9],"split_indices":[0],"split_type":[0],"sum_hessian":[9.5E1],"tree_param":{"num_deleted":"0","num_feature":"32","num_nodes":"1","size_leaf_vector":"0"}},{"base_weights":[1.8626451E-9],"categories":[],"categories_nodes":[],"categories_segments":[],"categories_sizes":[],"default_left":[0],"id":140,"left_children":[-1],"loss_changes":[7.844769E-7],"parents":[2147483647],"right_children":[-1],"split_conditions":[1.8626451E-9],"split_indices":[0],"split_type":[0],"sum_hessian":[9.5E1],"tree_param":{"num_deleted":"0","num_feature":"32","num_nodes":"1","size_leaf_vector":"0"}},{"base_weights":[1.8626451E-9],"categories":[],"categories_nodes":[],"categories_segments":[],"categories_sizes":[],"default_left":[0],"id":141,"left_children":[-1],"loss_changes":[7.844769E-7],"parents":[2147483647],"right_children":[-1],"split_conditions":[1.8626451E-9],"split_indices":[0],"split_type":[0],"sum_hessian":[9.5E1],"tree_param":{"num_deleted":"0","num_feature":"32","num_nodes":"1","size_leaf_vector":"0"}},{"base_weights":[1.8626451E-9],"categories":[],"categories_nodes":[],"categories_segments":[],"categories_sizes":[],"default_left":[0],"id":142,"left_children":[-1],"loss_changes":[7.844769E-7],"parents":[2147483647],"right_children":[-1],"split_conditions":[1.8626451E-9],"split_indices":[0],"split_type":[0],"sum_hessian":[9.5E1],"tree_param":{"num_deleted":"0","num_feature":"32","num_nodes":"1","size_leaf_vector":"0"}},{"base_weights":[1.8626451E-9],"categories":[],"categories_nodes":[],"categories_segments":[],"categories_sizes":[],"default_left":[0],"id":143,"left_children":[-1],"loss_changes":[7.844769E-7],"parents":[2147483647],"right_children":[-1],"split_conditions":[1.8626451E-9],"split_indices":[0],"split_type":[0],"sum_hessian":[9.5E1],"tree_param":{"num_deleted":"0","num_feature":"32","num_nodes":"1","size_leaf_vector":"0"}},{"base_weights":[1.8626451E-9],"categories":[],"categories_nodes":[],"categories_segments":[],"categories_sizes":[],"default_left":[0],"id":144,"left_children":[-1],"loss_changes":[7.844769E-7],"parents":[2147483647],"right_children":[-1],"split_conditions":[1.8626451E-9],"split_indices":[0],"split_type":[0],"sum_hessian":[9.5E1],"tree_param":{"num_deleted":"0","num_feature":"32","num_nodes":"1","size_leaf_vector":"0"}},{"base_weights":[1.8626451E-9],"categories":[],"categories_nodes":[],"categories_segments":[],"categories_sizes":[],"default_left":[0],"id":145,"left_children":[-1],"loss_changes":[7.844769E-7],"parents":[2147483647],"right_children":[-1],"split_conditions":[1.8626451E-9],"split_indices":[0],"split_type":[0],"sum_hessian":[9.5E1],"tree_param":{"num_deleted":"0","num_feature":"32","num_nodes":"1","size_leaf_vector":"0"}},{"base_weights":[1.8626451E-9],"categories":[],"categories_nodes":[],"categories_segments":[],"categories_sizes":[],"default_left":[0],"id":146,"left_children":[-1],"loss_changes":[7.844769E-7],"parents":[2147483647],"right_children":[-1],"split_conditions":[1.8626451E-9],"split_indices":[0],"split_type":[0],"sum_hessian":[9.5E1],"tree_param":{"num_deleted":"0","num_feature":"32","num_nodes":"1","size_leaf_vector":"0"}},{"base_weights":[1.8626451E-9],"categories":[],"categories_nodes":[],"categories_segments":[],"categories_sizes":[],"default_left":[0],"id":147,"left_children":[-1],"loss_changes":[7.844769E-7],"parents":[2147483647],"right_children":[-1],"split_conditions":[1.8626451E-9],"split_indices":[0],"split_type":[0],"sum_hessian":[9.5E1],"tree_param":{"num_deleted":"0","num_feature":"32","num_nodes":"1","size_leaf_vector":"0"}},{"base_weights":[1.8626451E-9],"categories":[],"categories_nodes":[],"categories_segments":[],"categories_sizes":[],"default_left":[0],"id":148,"left_children":[-1],"loss_changes":[7.844769E-7],"parents":[2147483647],"right_children":[-1],"split_conditions":[1.8626451E-9],"split_indices":[0],"split_type":[0],"sum_hessian":[9.5E1],"tree_param":{"num_deleted":"0","num_feature":"32","num_nodes":"1","size_leaf_vector":"0"}},{"base_weights":[1.8626451E-9],"categories":[],"categories_nodes":[],"categories_segments":[],"categories_sizes":[],"default_left":[0],"id":149,"left_children":[-1],"loss_changes":[7.844769E-7],"parents":[2147483647],"right_children":[-1],"split_conditions":[1.8626451E-9],"split_indices":[0],"split_type":[0],"sum_hessian":[9.5E1],"tree_param":{"num_deleted":"0","num_feature":"32","num_nodes":"1","size_leaf_vector":"0"}},{"base_weights":[1.8626451E-9],"categories":[],"categories_nodes":[],"categories_segments":[],"categories_sizes":[],"default_left":[0],"id":150,"left_children":[-1],"loss_changes":[7.844769E-7],"parents":[2147483647],"right_children":[-1],"split_conditions":[1.8626451E-9],"split_indices":[0],"split_type":[0],"sum_hessian":[9.5E1],"tree_param":{"num_deleted":"0","num_feature":"32","num_nodes":"1","size_leaf_vector":"0"}},{"base_weights":[1.8626451E-9],"categories":[],"categories_nodes":[],"categories_segments":[],"categories_sizes":[],"default_left":[0],"id":151,"left_children":[-1],"loss_changes":[7.844769E-7],"parents":[2147483647],"right_children":[-1],"split_conditions":[1.8626451E-9],"split_indices":[0],"split_type":[0],"sum_hessian":[9.5E1],"tree_param":{"num_deleted":"0","num_feature":"32","num_nodes":"1","size_leaf_vector":"0"}},{"base_weights":[1.8626451E-9],"categories":[],"categories_nodes":[],"categories_segments":[],"categories_sizes":[],"default_left":[0],"id":152,"left_children":[-1],"loss_changes":[7.844769E-7],"parents":[2147483647],"right_children":[-1],"split_conditions":[1.8626451E-9],"split_indices":[0],"split_type":[0],"sum_hessian":[9.5E1],"tree_param":{"num_deleted":"0","num_feature":"32","num_nodes":"1","size_leaf_vector":"0"}},{"base_weights":[1.8626451E-9],"categories":[],"categories_nodes":[],"categories_segments":[],"categories_sizes":[],"default_left":[0],"id":153,"left_children":[-1],"loss_changes":[7.844769E-7],"parents":[2147483647],"right_children":[-1],"split_conditions":[1.8626451E-9],"split_indices":[0],"split_type":[0],"sum_hessian":[9.5E1],"tree_param":{"num_deleted":"0","num_feature":"32","num_nodes":"1","size_leaf_vector":"0"}},{"base_weights":[1.8626451E-9],"categories":[],"categories_nodes":[],"categories_segments":[],"categories_sizes":[],"default_left":[0],"id":154,"left_children":[-1],"loss_changes":[7.844769E-7],"parents":[2147483647],"right_children":[-1],"split_conditions":[1.8626451E-9],"split_indices":[0],"split_type":[0],"sum_hessian":[9.5E1],"tree_param":{"num_deleted":"0","num_feature":"32","num_nodes":"1","size_leaf_vector":"0"}},{"base_weights":[1.8626451E-9],"categories":[],"categories_nodes":[],"categories_segments":[],